0.030556193
0.06620143
-0.07385803
0.0027734262
0.071671344
-0.00886055
0.00825671
-0.056150444
-0.124371156
0.1238215
0.021423563
-0.03289898
-0.030992098
-0.0019743412
0.01633019
0.15744093
0.014692445
-0.00032496886
-0.01755727
-0.021354236
0.09057874
-0.0044718576
-0.08279081
-0.06939947
0.0071033193
0.0028771453
-0.005963716
0.009171922
-0.015386323
-0.0103496965
0.015059284
0.011798222
0.011871805
-0.009673867
-0.0009400787
0.035030864
-0.07934717
0.0008207485
-0.0050006285
-0.033233475
-0.020892542
-0.04923866
-0.05681667
0.055116907
0.0112913335
0.0266929
0.051238276
-0.006373105
0.0586243
0.013264701
0.012069845
-0.0065122573
-0.0071666846
-0.033831734
-0.04494398
0.12646607
0.038013123
0.056949686
0.090163924
-0.027829818
0.004764594
-0.02603657
-0.014310381
0.07060556
0.0067696
0.011294877
-0.0025337175
-0.0139926765
-0.004517373
0.011728858
0.0189403
0.006372707
0.015238204
0.0010806785
-0.0035108316
0.028602218
-0.0017504175
0.12507163
-0.022717724
-0.09185517
0.014467636
-0.12174821
-0.0008444646
0.10967105
0.05396993
0.010755576
-0.016480697
0.03213378
-0.06568643
-0.012773043
0.013630323
0.00036951763
-0.051169798
-0.014432724
-0.010991079
-0.14737287
0.016390832
-0.062482394
-0.10619552
0.003472494
0.111814566
0.07812822
-0.0029562197
-0.004020427
0.034945443
-0.07960434
-0.037033763
0.028116483
-0.023793308
-0.0011107292
-0.019115223
-0.011532951
-0.009319277
-0.019949278
-0.055596273
-0.046088133
0.009059139
0.12002625
-0.017794857
0.00658987
-0.0023255053
-0.011634929
0.011499135
0.028720988
0.03130364
-0.023788806
-0.028505387
0.11079662
-0.006204449
-0.11251997
0.009645451
0.020253796
-0.0130234435
-0.004455593
-0.06752245
-0.085570306
-0.017963668
-0.033474993
0.034210484
0.115413375
0.056679185
-0.07724692
-0.016297875
-0.024457235
-0.019970821
-0.004531766
-0.052359857
0.027164135
-0.0044672154
-0.0916087
-0.0015325639
0.08782634
-0.06766315
0.007845377
0.00021532437
-0.09388043
-0.12246086
0.016704358
0.04552689
-0.001719219
-0.017115243
0.07346287
0.18379736
0.0076667955
0.15457891
0.033237863
0.15789132
-0.023542395
-0.014851141
-0.002956541
-0.16483457
-0.0044024223
-0.028464783
0.03712218
-0.08253099
-0.012669352
0.030767687
-0.007122433
-0.19716558
0.05225139
-0.0016267737
-0.03270915
0.029528748
-0.012816873
0.045384362
-0.08240805
0.0019051296
-0.0046618413
0.031154614
0.009051017
0.012324602
-0.06772908
-0.03737068
0.012767414
-0.09063965
0.019775957
0.033805206
0.11141477
0.08614588
0.021337274
0.02416504
-0.029364554
0.15911561
-0.110735856
0.008581407
0.13517617
-0.004878232
-0.06277957
-0.0063754376
0.0315978
-0.020995207
0.0029266584
0.0031632613
-0.0020432917
-0.055641856
0.117866084
0.0046231314
-0.014376651
0.027562838
-0.014442853
0.051489376
-0.03865153
0.012723077
0.0029921082
0.006803283
0.061787173
0.0020805264
0.012268119
0.03864905
0.0185714
0.021966916
-0.014747402
-0.05593021
0.040122535
-0.0063021053
0.12709208
0.015562381
0.094203904
-0.06784943
0.020669242
0.0562938
0.03299996
-0.010942352
-0.004261197
0.006390415
-0.0074101007
-0.038705677
0.08098517
-0.013456669
-0.00907796
-0.035594415
0.028194716
0.0032834753
0.026860781
-0.030873626
0.0020332413
