0.029645883
-0.0017975414
0.014659999
0.07896436
-0.037764125
-0.008813948
0.03143041
-0.029505363
0.0024003638
0.0103325145
-0.011750474
0.0645433
-0.09413815
0.046981223
-0.03743042
-0.07634979
-0.0023222328
-0.023547573
0.02913486
-0.00058281684
0.03129345
-0.028037004
0.01660293
-0.0062703793
-0.014519821
0.0060804877
-0.025486358
-0.053919487
0.0109480135
-0.02752835
-0.034707084
0.002518582
0.039478153
-0.043731917
0.06348828
-0.06350507
0.050117336
-0.09968922
-0.04421396
-0.07564011
0.011305187
-0.18634555
0.06257852
-0.026301822
-0.0069985148
0.09149502
-0.06436794
0.045191023
0.0046761767
-0.03241576
0.014304992
0.05459248
0.06326972
-0.014458914
-0.0042382036
-0.034641735
0.014696257
-0.04437585
-0.03591174
-0.05562335
-0.008244478
0.04225841
0.015277337
0.030194756
0.08218795
0.03344106
0.0015523016
0.09462478
-0.07215973
0.09509764
0.017642943
-0.03001623
0.024357943
0.005879232
-0.11188861
0.03225845
0.09064156
0.07728027
-0.013540755
-0.0004777011
-0.025869926
-0.061580066
-0.008757468
-0.014407251
0.008239511
-0.05269855
-0.03551514
0.0841476
-0.0800758
0.019821126
-0.074144684
-0.025947232
-0.040643096
-0.009683692
-0.062234513
-0.053400464
0.0045411685
-0.049381025
0.017654741
0.024648448
-0.023538116
-0.030933643
0.047200393
0.1049501
-0.043704588
-0.028967457
0.062876016
-0.08518304
-0.06292121
0.0022525017
0.027970893
0.16934934
-0.042123314
0.0033631732
-0.00519584
0.0035741848
-0.0085913
-0.00704961
-0.039715264
0.011718806
0.028066944
0.03788939
-0.010238398
-0.0021332544
0.02061753
-0.059555948
0.022505373
-0.037800405
-0.0199536
-0.018855209
0.002451977
-0.015433939
0.029034002
0.041013494
-0.014489702
-0.04326175
0.003455997
0.0012897686
-0.01626083
-0.01006242
-0.044922628
0.1215701
0.036687195
-0.011589048
0.057076693
0.025021166
0.033185605
0.052251615
-0.047821652
-0.06980078
0.02954747
-0.009123124
-0.008166792
-0.0032377136
-0.037215278
0.0054340083
-0.18315089
-0.021454329
-0.049859755
-0.003823087
0.06360813
-0.035753224
-0.019819569
0.025957676
-0.0027777608
0.003458503
0.014425198
0.008752158
-0.039189033
-0.1364955
0.0053198826
0.002308827
-0.0034276415
0.2026705
-0.0011333086
-0.00038667166
0.11465323
-0.06551605
0.0009568109
-0.009165927
0.0387676
-0.030751413
0.023731379
-0.022731671
0.0037730667
0.0027334802
0.16990627
0.056867674
0.0020404593
0.071197815
-0.025506098
-0.06380606
0.14029762
0.014958574
-0.0128040705
0.0029973576
-0.029108327
0.008130335
0.0352196
0.014533829
0.085380055
0.0946557
0.023149606
-0.008583162
-0.011087939
-0.023070423
0.004361824
0.0008359256
0.04058107
-0.16915213
-0.043366954
0.0020987843
0.0022332906
-0.020642482
0.052900404
0.035481766
0.05036387
0.022117347
0.004775473
-0.0055744345
-0.100385845
-0.013835741
0.04138347
-0.011119437
-0.04457655
-0.13959686
0.016188903
-0.02029973
-0.03580614
0.0035820173
0.010926689
-0.03561673
0.006074669
0.05490377
-0.004594382
-0.020761017
0.062128767
-0.07483472
0.008190302
0.026814647
-0.013872523
0.0023828712
0.0239376
-0.09329531
-0.01960717
0.02209738
0.02088075
-0.03176074
0.015880723
0.033765674
-0.0016386298
-0.0031570373
0.0146068875
0.015715906
0.04953017
-0.02842224
