0.028545698 0.0113165565 0.0035938574 0.00032136252 -0.052456114 -0.005565843 -0.0005586135 0.037572723 0.046906207 0.050752018 -0.00026959402 0.021835601 0.0071764216 0.00060875644 -0.0003628454 0.010307508 0.00046649994 0.00096473645 -0.03865271 -0.0001704627 -0.064080045 -5.8185902e-05 0.01484826 -0.0036339127 0.0001073782 -0.00012533071 -0.0091511635 0.0007672113 0.016580231 -0.0002752138 1.814084e-05 -0.00028351348 -0.00019947604 0.03905221 0.00032483967 -0.012129969 0.019613046 -0.00023967693 -0.006201683 -0.07495494 0.0004005779 -0.0129897455 -0.003660469 0.055161394 -0.00088217936 -0.0011276978 -0.034688536 0.00066632935 0.04390896 -0.0006545721 -0.0006044791 -0.0006326682 0.0005129549 0.029704288 0.000103507926 0.04025474 0.0028041874 0.020193944 0.013812833 -0.00022517599 -0.00050816307 0.00010036802 0.031720247 0.021561079 0.0005586872 0.0009035761 0.0023048269 -0.00989879 -0.0067387107 0.000853642 -0.0042028823 9.5224656e-05 0.030742716 -0.00027368293 -0.0007153178 -0.01081623 -0.00038943702 -0.011898453 0.00025975873 0.08347442 0.00032466845 0.00019152004 -0.029170828 -0.05267487 -0.03446647 -0.0007519409 0.015207122 -0.0004355243 -0.045039266 -0.000685176 -0.000887882 -0.021402657 0.10916652 -5.394113e-06 0.0004958809 -0.08365926 5.302622e-05 0.032955658 -0.12750137 -0.001166387 0.09121391 0.014516316 0.00016811963 -0.0009101673 -0.00070384156 -0.0031994935 0.0042889533 0.00022516423 -0.0003629876 7.352393e-05 0.0001789915 -0.0001688683 0.0006098777 -0.03406625 -0.015506965 -0.06715977 -0.0034789434 0.058706548 5.7478523e-05 0.00021792439 0.00061680865 -0.0069679637 0.00014173731 0.03348952 0.03831918 0.0031616008 -0.00014677148 -0.0054350784 -7.426049e-05 -0.010780506 0.00016678109 -0.046566036 -0.02143211 0.00012980323 -0.0047874325 0.019092951 -0.0028826783 0.07662133 0.06951522 -0.07145217 0.044258196 0.022816392 -0.00020405375 0.0019144723 0.00020295646 -0.0006493426 0.014950786 -0.00027343628 -0.000199543 0.08699138 0.00044406208 -0.023447147 -0.021175792 -0.0017383953 0.00061344274 0.1416754 0.08495448 -0.023102948 0.029546933 0.0003193922 -0.0017296737 0.012610842 0.07657631 0.0008276633 -0.012504716 0.02597144 0.03696167 0.020510992 0.00034796807 -0.0044190926 0.043536033 0.0003278573 -0.11671128 -0.0021394817 -0.09598985 -0.0001192021 3.2420052e-05 0.0004962162 0.06238351 -0.04610905 0.0004429227 0.010650112 -0.00046498122 0.0009737907 0.0335343 -0.00041988064 -0.000903179 0.035951518 -0.033224933 0.0006638789 0.00020553725 0.03162864 -0.0062467176 -0.0004825104 0.035906974 -0.045032784 0.03175401 0.02507685 0.06945501 -0.00045479956 -0.00020130989 -0.00025585468 -0.079615094 -0.103837594 0.0015039871 -0.13228329 -3.107856e-05 0.0023814556 -0.009906959 -0.027835777 0.00072249153 -0.0005880603 -0.00052703 0.0008633103 0.0061275517 -0.008056064 0.00025420156 0.02440902 -0.018420624 0.0006883698 -0.02356209 -0.02143395 0.0005455387 -0.00024249296 0.0012879558 -0.007586455 0.018094653 -0.0023276033 0.00026540508 -0.0006550157 -0.0020004658 -0.00025911618 -0.0034066716 0.00053314463 -7.9338415e-06 -0.014770492 0.03827876 0.048588224 -0.08066586 0.0001988582 0.01433888 -0.0007598302 -0.000263347 6.97182e-05 -0.0005824049 -0.016165003 0.01060753 0.03125989 0.030576285 -0.00050967117 0.073116794 -0.05552548 0.0030015984 -0.036073323 0.00028021223 0.0004637662
0.014403175 -0.027255254 -0.0044264393 -6.973838e-05 -0.043354843 0.002823118 0.0011440456 0.061104313 -0.00926059 0.075959034 7.342404e-05 0.0063234656 -0.025622495 0.000780586 0.00014786696 0.092988804 -0.00036571885 0.00017642313 -0.045839757 -0.00015535654 -0.07520855 0.00044619382 -0.040216785 0.0014000303 -0.00026630514 -0.00012393028 -0.008133733 -2.2890235e-05 -0.015615873 0.00092421484 0.00036823633 -0.00035378616 -8.652049e-06 0.058112442 0.00023736765 0.030464334 -0.005090208 -0.00086425693 0.0020933375 -0.03832195 -0.00023728967 0.0055956026 0.008894393 0.029792795 0.00040047208 -0.00047833804 -0.034165256 -7.01046e-05 0.010470449 -0.00017109165 -0.0011656377 0.00039147108 -0.00080461206 -0.015294741 0.0022526043 -0.017310448 0.03280855 0.02115526 -0.06505784 -0.00023103468 -0.00066381745 0.0027088162 -0.048204787 -0.012772169 -0.00051414233 0.00021846875 -0.016543223 0.04452297 0.02605415 -0.00034572853 -0.008577231 0.00034975354 0.015848769 -0.0005554371 0.00084416196 0.0069607846 -0.00012629297 -0.017966148 -0.0004951719 -0.00803796 -0.0001491632 0.003173056 -0.014116816 0.016022148 0.018076045 0.00073664327 0.017553698 0.0001006462 0.0058900295 -3.5733086e-05 0.0006884463 0.058108807 -0.10014273 0.00011490848 -0.00054556417 -0.031124953 0.00078117533 -0.009138204 0.17894349 0.000221608 -0.03925639 -0.022955773 -0.0011612865 -0.00030983455 0.00034854285 -0.042331517 0.0024373103 -0.00029042392 4.072159e-06 2.352188e-05 0.00093002483 -0.000440539 -0.0001956317 -0.02994651 -0.035465788 -0.042798135 -0.00300058 0.007986161 -0.00021304682 0.00029685383 7.950622e-05 0.0010757019 -0.000266335 -0.052926768 -0.009570128 0.006841697 -0.0002495856 -0.00057648844 0.00034168205 -0.018359244 -0.00013821087 0.011391459 0.03974817 -0.0004800015 -0.04093602 -0.15610598 -0.035218578 -0.034099743 0.05670431 0.07329283 -0.07083702 0.0013300143 0.00016770845 0.011603439 -0.00044589353 -0.0006692545 -0.010518929 6.386508e-05 0.00084759406 -0.058592 0.0001704793 -0.017254662 -0.008810405 0.015399769 -5.0248585e-05 0.11226535 0.013633129 0.007873105 0.059518754 -0.0006319659 -0.021884013 -0.027801206 -0.01676433 0.00029933907 -0.10724442 0.02847993 -0.06524624 0.023440994 -0.0031550485 -0.04107729 -0.03600179 9.683096e-05 0.046939377 0.0010652378 0.10094849 0.0003157158 0.0002641253 0.0003002368 0.058666598 0.0110754445 0.00033222974 -0.0064134295 0.004808895 -0.0008231715 -0.042138528 -0.00089894875 0.00072555937 0.0032640314 -0.03894097 0.0010233847 0.0003738155 -0.06502615 0.0035588348 1.1059342e-05 -0.025031917 -0.017982772 -0.010847461 -0.010233056 0.044401918 0.00019221255 0.00018371629 -0.0002446531 -0.029537462 -0.11849337 2.6204067e-05 0.0023608617 0.0003726972 -0.029078241 0.017703924 -0.012104913 0.0020336208 0.000809752 0.00029903674 0.00010492121 0.016862111 0.020616962 -0.0005051652 0.018501597 -0.018741999 2.7587655e-05 -0.00321665 0.034961425 0.00021382756 -0.00039439675 0.000276637 0.019703733 -0.008699674 0.0010727157 -0.0028976132 0.00015982255 -0.0016414423 -0.0004569848 -0.0026453808 0.022951897 -4.8344875e-05 -0.13227789 -0.019375723 -0.029362231 -0.030269247 -0.00023025718 -0.034369815 0.0006310384 0.0005940628 8.7283275e-05 0.0003163977 0.016312389 -0.039202183 0.027258469 -0.008371633 0.00038344093 0.011309482 0.017308967 -0.0026269269 0.015853833 -1.1247392e-05 -0.00021881363
-0.021238916 0.0052756034 -0.024146989 0.00085251784 0.049583275 -0.017558178 0.00024625575 -0.0040020472 0.001319827 -0.0019227501 0.00053212035 0.037488192 -0.012874104 -0.0008097997 -0.0011797588 0.0014098085 -0.0001794817 0.00014224542 -0.015601559 -0.0012649467 -0.010447657 -0.0005350941 0.02827226 -0.027259624 0.0011260478 -0.0008194976 -0.009436754 -0.0008332033 -0.011257562 0.0006113964 -0.00033480595 8.749051e-05 -9.4784285e-05 0.032251213 0.00038336636 0.00798056 -0.02296991 -0.0007089562 -0.027619066 -0.00881696 -0.0007853275 -0.0058066454 0.015703222 -0.017497908 -0.00022602122 0.0014906191 -0.0074510076 0.0004383166 -0.0071869274 0.00062431354 -0.00021872565 0.0009722476 -0.00082958717 -0.02049423 -0.00023999858 0.011425416 0.006523449 0.019296806 0.04049086 0.0004321955 0.00037119116 -0.022463115 0.06151 0.006859174 -0.00064257346 -2.9602326e-05 0.008059003 0.025361843 -0.009651879 0.0004676912 0.012257376 -0.0007254825 -0.014402166 -0.00029247723 0.0004551345 -0.018179847 -0.00076742744 -0.0039941077 -0.0005376114 -0.020917714 -0.00073295744 -0.023342472 -0.001265001 -0.027393177 0.0059367777 0.00044076424 0.0082496535 0.0005023474 -0.00068323733 0.0009242231 0.0013358279 -0.026632773 -0.008177419 -0.001413443 -0.00061018654 -0.002663739 0.00011779899 -0.0138662 -0.03427442 0.00065738626 0.022769727 -0.02990265 -0.0002501412 -0.00013113904 0.0009805728 -0.0070273257 -0.012077537 -0.0009902554 0.00045297603 -0.0010326793 0.00019696532 0.00031668914 -0.00042596398 -0.044667434 0.002467186 0.13710022 -0.022041472 0.011269816 0.0011174693 0.0006770548 -0.0011746106 0.013303257 -0.0012191731 0.029824566 0.034195136 -0.008532262 -0.00017964911 -0.021567933 -0.0009011571 -0.017892128 -7.672671e-06 0.011363765 0.0049443003 -0.00068875373 -0.11258261 -0.05830274 -0.016986638 0.008838809 0.0082133785 -0.0041775536 0.020440117 -0.0044833324 0.0001489842 -0.004648553 -0.0004010062 -0.0012141004 -0.027278665 0.0001951924 0.0003062373 -0.052083064 -0.0007645345 0.013888983 0.0028098272 0.005588341 0.00031527164 -0.08661138 -0.03756952 -0.0024534694 -0.06006411 0.00013444883 -0.01501265 -0.003834312 -0.008146095 0.00015166393 -0.039049964 -0.0027521353 0.027027577 0.007912819 -0.015229463 -0.018498182 0.011451412 0.0004921976 -0.06491029 -0.028201615 -0.068948336 0.00085400476 0.00025616557 0.00034885437 -0.02414608 0.06202737 -0.00016203696 -0.022108031 0.0068306783 -0.00020880232 0.024976842 -0.021408785 0.0010402325 -0.021316864 -0.037349533 -0.0001773423 -0.023055464 0.017070109 -0.023006862 0.0009807167 -0.04693829 0.01323501 -0.0020447804 -0.026826728 -0.06833123 -0.00014744623 0.00028898387 0.0007432605 -0.015489829 -0.082622126 -0.0004829753 0.029490823 -0.00016266851 0.02728486 -0.015079718 -0.008481994 0.021289546 0.00020956631 0.0013317246 0.00026663358 -0.0027978867 0.042863008 -0.00032928353 -0.008343517 -0.012514039 0.00027647175 0.017174127 0.0008714643 -0.00076333643 -0.00027907803 -0.0011150321 -0.0017106207 -0.025752468 0.026896808 0.019249829 0.0007812997 0.019390779 -0.0009404167 0.023223601 -0.005767327 0.00083552895 -0.1573727 -0.0028902043 -0.005035032 0.07086282 0.00013316255 -0.04559276 0.020733407 -0.00021840163 0.0011821717 0.00061238004 -0.010285467 0.011172137 0.0020480976 0.02674672 0.00051884394 0.07190921 0.0103239855 0.030763341 0.01621285 -0.00021466812 -0.0005562044
