-0.02654121 -0.091877475 0.06462097 0.06251697 0.07006359 -0.19518176 0.019864801 0.058037885 0.120024115 -0.022282626 -0.14114873 0.13232602 -0.09217353 -0.07349203 -0.059048977 -0.045389492 -0.17107517 -0.018819993 0.21814837 0.13369189 -0.023185803 0.08977275 -0.06140812 0.02048211 -0.174898 0.0017019772 -0.29949585 0.014631544 0.068560205 0.069406144 -0.12856683 0.04849006 0.01332807 0.012939971 -0.086082734 0.035927765 0.05416082 -0.02905376 0.01610416 0.052734632 0.08754258 -0.07993782 -0.20901835 0.022509282 -0.09493919 0.09630439 0.0124259805 -0.048958234 -0.21758595 0.017460248 -0.12723978 -0.0021531787 0.32004273 -0.03274191 0.1190365 0.18016699 0.00620281 -0.008351208 0.053472 -0.0074892957 0.15785845 0.103910334 0.0021076682 0.00061163894 -0.047186617 0.086166516 -0.2062758 -0.054158106 -0.23494485 -0.072302416 -0.25615257 -0.052682407 0.0091598 0.0094030285 0.08371903 -0.050039485 -0.16056897 -0.10219186 -0.08544924 0.0030931463 -0.0018935979 -0.10599896 -0.012488945 0.029595371 0.0060809036 0.1635666 -0.19634388 0.09488711 0.07109136 0.1229116 -0.09309039 -0.028217938 0.026111374 0.021440074 0.015006438 0.06937983 0.13206367 -0.09589659 0.04086771 -0.07621725 0.01387032 -0.07922133 0.13096046 0.15146782 0.02884784 0.0019105425 0.08367684 -0.015291424 -0.116778105 0.037634317 0.0066659297 0.18969649 0.13838938 -0.14456117 -0.2688079 0.06637073 -0.014914051 0.1660732 -0.12724552 0.122366585 0.073739566 0.056915134 -0.07274043 -0.17453986 -0.04123784 -0.03352565 -0.12138615 -0.0565997 -0.051963903 0.1030985 -0.0893856 -0.107531495 0.113637894 0.1691617 0.15828931 -0.2826413 0.13147792 0.110848434 -0.088127546 0.012275487 -0.02980954 0.151421 0.31132486 0.107237995 0.03322853 0.05661231 -0.026044102 0.14692366 -0.27492493 0.0036256975 -0.114358135 0.039581306 0.06605321 0.11167513 0.046417143 -0.10772991 -0.044365913 -0.09522038 0.22152571 0.15793292 -0.08070975 0.09812215 0.17615953 -0.12426147 -0.07938287 -0.003949176 -0.018483084 0.19658437 0.08356479 -0.12180455 -0.023648098 0.039300866 -0.10465479 0.31384605 -0.06443168 0.00647675 -0.27916265 -0.044306237 0.045697626 -0.23470135 0.21789639 0.033022415 -0.2951931 -0.009443391 0.013683328 0.43507314 0.046073973 0.054358363 -0.007675645 0.0056123016 -0.11394131 -0.11644565 -0.05782973 0.10467847 0.03051504 -0.106856756 0.18743898 0.034113154 -0.026149197 0.12806472 0.09027195 0.08260897 0.06489333 0.0056589493 0.035123482 0.06563783 -0.16596077 -0.14346258 0.20447487 -0.1323561 -0.09415598 0.055029716 -0.048292287 0.022137513 0.058395315 -0.079806335 0.073503785 -0.054254528 -0.027205044 -0.036184635 0.10506717 0.28746662 0.11421639 -0.033176675 0.17229506 -0.091399595 -0.104951955 0.31462973 -0.05574747 0.07794923 -0.017193735 -0.13079093 -0.119172804 0.11664565 -0.08585134 0.0476868 -0.113159925 -0.07989063 -0.11000021 0.045352466 -0.004269466 -0.11416811 0.32184014 -0.16459332 -0.07447024 -0.141828 -0.016605156 -0.089616224 0.09208612 -0.09189277 0.054156158 0.13373151 -0.06573094 0.14201972 0.19421598 -0.18126401
-0.12143257 -0.16611522 -0.110606834 -0.0016604565 0.11519312 -0.05506869 0.058215722 -0.0057537737 -0.03704015 0.017772725 -0.14839867 0.075852506 -0.013241576 0.027538862 -0.007682048 -0.22293498 0.048038006 0.08362907 0.025013596 -0.17375544 0.07638144 0.055596028 -0.09503878 0.26472014 0.078501254 -0.08963845 -0.1514884 0.05648627 0.049397204 -0.050743885 -0.058899093 0.14003241 -0.10942071 -0.11696296 0.022157313 -0.032458697 0.04296049 -0.029670062 0.0068556154 -0.0075758034 -0.015908506 -0.074837506 0.13068768 0.028645212 -0.099469244 0.12139732 -0.093690455 0.102526106 -0.06205421 -0.09822851 0.037732422 0.08422577 -0.023017647 -0.049959052 -0.023670388 -0.019081187 -0.059885234 -0.08023048 0.08244438 -0.06898312 0.038251806 -0.011362388 0.048457123 0.016916214 -0.030550549 0.13113414 -0.09120892 0.10813707 -0.14385417 -0.020247163 0.1803542 0.1884958 0.033159554 -0.03623601 0.086528935 -0.15260501 0.02793927 -0.0533092 -0.052892245 -0.10920923 0.05511413 0.010336327 0.0735762 0.050880022 0.02668814 -0.0052959737 -0.05708282 -0.032368377 0.09909074 -0.086426295 0.09429018 -0.15464081 0.0019205518 -0.05958746 0.13039337 -0.11786893 0.015139563 0.089700125 0.18076403 0.12218388 -0.00614176 -0.065547906 -0.039143473 -0.01608759 0.010600552 -0.04719373 0.11225551 0.13329479 0.019271884 -0.046096165 -0.09682791 0.164318 -0.02708856 -0.08393617 -0.022585165 -0.11020062 0.07282758 0.005603086 -0.16283062 -0.12260768 -0.02004479 -0.007578679 0.108554535 0.107123256 0.15883568 0.018206378 -0.1567047 -0.022714613 -0.13413833 0.16315661 -0.10158326 0.15239228 -0.08664399 -0.05780681 0.25030306 -0.09572783 0.037875406 -0.019237313 0.10113353 -0.15010959 0.06667249 0.10356475 0.04251708 -0.1389733 0.15052558 -0.09346642 0.04736132 0.068040505 -0.14223872 0.17984758 -0.002697431 -0.031840652 0.1320771 -0.06850595 -0.019758534 -0.056468707 -0.014219305 -0.30077717 -0.050827473 0.06930814 -0.042530235 0.02733415 -0.18520756 -0.02968187 -0.06511303 0.21167484 0.047038324 0.10019828 0.025321228 0.0700797 -0.1370023 0.046501853 -0.033989027 -0.008583215 0.011014213 -0.044236347 -0.07487345 -0.13526982 -0.17287166 0.06296944 -0.06115088 -0.07575287 0.036343146 0.05608078 -0.030901236 -0.20444167 0.15853062 -0.047012318 0.18427762 -0.03514026 0.12844288 -0.00094360893 -0.13183688 0.0121445535 0.074273445 0.041980844 0.09834993 0.11562334 0.11883933 -0.14684094 -0.12273778 -0.05451567 -0.08740121 0.0108648 -0.05305861 -0.18957727 0.09120616 -0.08668861 0.24808677 -0.113024786 0.11509416 -0.07951013 -0.1010788 0.08496181 0.0038161397 -0.06718418 0.109324045 0.14426857 -0.07210085 -0.12202503 0.051009983 0.060680926 0.12937972 -0.15904085 0.11296131 0.065860294 0.05624368 0.11959665 -0.08866623 -0.082056135 -0.053195696 0.050875902 -0.14949039 -0.0711496 0.15150386 0.0284697 0.14416389 -0.0031878937 -0.20706683 0.08827943 -0.0015519457 0.09475343 0.047011413 -0.09853262 -0.2949255 -0.10392019 0.10260195 -0.08163286 -0.006609117 -0.00075549004 0.02772892 0.17775527 -0.035887994 0.040780168 0.23160727 -0.07709767
-0.0741492 0.03053637 0.022673223 -0.09962674 -0.09939586 0.08777588 -0.007102257 -0.09266579 0.15804468 -0.19984238 0.037248194 -0.040375885 -0.025016027 0.06273125 0.11582882 0.035013378 0.1411536 0.006260248 -0.10637473 0.101868466 0.10307383 -0.06690952 0.08454533 -0.07333336 -0.097985685 -0.1748201 0.0019233327 0.16805057 0.0494052 0.0018062291 0.2065477 0.052262645 0.18673915 -0.056533106 -0.04848105 -0.02506847 -0.062871926 -0.011204984 0.12096028 -0.032060098 0.112248085 0.06420625 -0.13990352 -0.08122124 -0.0045430185 -0.0012026035 0.035256285 -0.0084844 0.024152547 -0.034610186 -0.038615644 -0.075364694 -0.11376271 -0.075845346 -0.049134083 0.03276669 0.0678074 0.0006305294 -0.013533946 0.008564625 -0.04573816 -0.031837743 -0.01801816 -0.063887835 0.10347284 0.11398645 0.107817404 0.025228275 -0.047616147 0.014392483 0.0477648 0.058729935 0.013565538 -0.033077955 0.057596795 0.12369423 -0.15356517 0.14282458 -0.30413297 0.020349395 0.21466954 0.13148537 0.0231541 0.015128306 -0.08247502 0.028354144 0.2853194 -0.114299476 -0.002670126 -0.09002879 0.123493776 0.112217225 0.07333035 -0.073283106 0.051025495 -0.03457753 -0.014475697 0.10545825 0.050205693 -0.0025792273 0.1308664 0.13207105 0.08474932 -0.061536923 -0.13381034 0.102919824 -0.21953118 -0.042247944 -0.074022636 0.17728005 0.03349888 -0.06610482 -0.009970036 -0.008193912 -0.008041523 -0.2537342 -0.00238311 -0.064763166 0.1297194 0.1092126 -0.08327532 -0.0026064124 -0.23177278 -0.09157655 -0.04659331 0.06055186 -0.11874685 -0.044374354 0.2355381 -0.09766072 0.033547655 -0.11465962 0.1101946 -0.04816732 0.052940622 0.13615178 0.23769249 0.122050725 -0.09754061 -0.06727534 0.04495865 -0.106284805 -0.18190879 -0.06427191 0.031980928 0.07607642 -0.089916594 -0.071517 -0.049249575 -0.010751273 -0.013360844 -0.09119755 0.079005204 0.12868838 -0.124227054 0.07431534 0.15383925 0.16023885 0.1915876 0.024339277 -0.007979617 -0.011980703 -0.010790773 -0.07420706 0.06537236 -0.22276649 0.041775458 0.01040017 -0.028342525 0.10413683 0.016193548 0.1887466 -0.05981072 0.1437468 -0.10445272 0.026115324 -0.4210487 0.14840332 0.11907784 -0.08454296 -0.1779339 -0.055228926 -0.04490623 0.068436734 0.017511087 0.016926756 -0.08980783 -0.16901644 0.07808741 0.07883473 0.045534573 -0.065486796 -0.03619362 -0.036554977 0.104553826 -0.06835317 0.039464563 0.13431056 -0.030293252 0.17053284 0.051303737 0.05359402 -0.057107657 -0.18236932 0.18751864 0.10491203 0.025810547 0.093021 -0.24799216 -0.009777962 -0.06071103 0.071132116 0.15647253 0.0076734233 0.08055313 -0.021943614 0.14767888 0.084582716 -0.0059457207 -0.016746353 0.089062385 -0.17901349 -0.097893886 0.04021566 -0.07222738 0.037923034 0.03766144 0.0714969 0.022798099 0.014959341 0.12018939 0.06410347 -0.04644539 0.0072332853 0.052330118 -0.04173285 0.06264784 0.10661018 0.042900935 0.024157966 0.066146605 0.08920824 0.012110791 0.08132686 -0.080503985 -0.17325999 -0.07254263 0.056590937 -0.1309744 0.035526186 -0.050542515 -0.14014927 -0.1869092 0.0615855 0.049047355 0.03849115
0.03353729 0.043927964 -0.020719143 0.080846235 -0.05456347 -0.08501702 0.023182618 0.055305142 0.023771929 0.07199679 -0.026001388 -0.014425174 -0.0038641847 0.06993259 0.02149098 0.0792019 0.09443314 -0.055006642 0.07689152 -0.032014098 -0.006835497 -0.11529686 0.028441591 0.014684571 0.0400063 0.020318793 -0.005537361 -0.08121393 0.103475034 0.05054043 0.033094116 0.04113499 0.07165609 0.012565964 -0.029104166 0.018118948 0.024540616 0.017345257 0.013146933 -0.03383046 0.033131156 0.055350192 0.05118588 -0.0049181655 0.022446442 -0.0015994277 0.0103473095 0.07221475 -0.055668157 0.06166588 0.010641095 0.018229082 0.122550964 -0.026384434 0.046148773 0.06240733 -0.040258493 0.023751875 -0.017207952 0.026014319 -0.012457021 0.0354331 0.09491911 0.08436927 -0.06477411 0.04773223 0.1112942 0.0010514873 -0.048677504 -0.022174887 -0.02103588 0.009203451 -0.051980436 -0.05945526 -0.017858107 0.019356644 -0.025426462 0.048725244 0.05662565 -0.00427672 0.087100744 -0.091237634 -0.0066163805 -0.046964943 0.052759662 -0.05565477 0.06117945 -0.08046833 -0.0010967974 -0.062695794 0.0022534386 0.0074337265 0.06596167 -0.069068395 -0.079398155 0.05724407 0.01852018 -0.0030930021 -0.040421054 -0.038745485 -0.048647586 -0.056666642 -0.019886868 0.018566689 0.012556813 -0.09733194 -0.005075203 -0.034489833 -0.040745705 0.08611403 0.029433845 0.031056508 0.026212754 -0.120066196 -0.010184495 0.06646073 -0.034125213 0.06346009 0.005007416 0.024593346 -0.02314573 -0.08953027 0.109228104 -0.063979596 -0.06817487 -0.007158026 0.008399309 0.027281828 -0.073132046 -0.0231585 -0.06456958 0.07807021 0.0024350106 0.026993675 -0.019889837 0.07335457 0.054824494 0.10806794 0.043145493 -0.0017510782 -0.008479878 -0.042505585 -0.02323535 -0.0025757286 -0.11099135 -0.07801953 0.014573734 -0.031218143 -0.019931652 -0.1044346 -0.053673435 -0.016406067 0.013016956 -0.0070090727 0.00026747736 -0.0047886083 -0.009595189 0.029325081 -0.016143462 -0.0387043 0.016201785 0.031624023 -0.076734215 0.007681628 -0.05036244 0.015912864 -0.08780808 0.1202919 -0.068143874 0.049322184 -0.04249317 0.038489837 0.04535399 0.01224715 -0.05557392 -0.04305054 -0.054028835 0.035066523 0.017547809 0.035296265 -0.0068561407 -0.071742594 -0.024931684 0.081591085 0.034951814 -0.024217647 -0.03850523 0.026183413 0.014422222 -0.05320163 -0.04978772 -0.05077215 0.013390086 -0.04566415 -0.0555737 -0.07257239 0.06809954 -0.069839366 0.07388717 -0.013528257 0.055005036 -0.022485478 0.040586114 -0.09588318 -0.03759788 0.023455104 0.022470435 0.0065500997 -0.069385484 0.052129928 -0.07414446 -0.04974431 -0.09561768 0.10026749 0.023140324 0.08786168 -0.0054552164 0.09526046 0.029287223 0.010474524 0.015378537 -0.07909475 -0.076209195 0.042118296 -0.10068434 0.00030467453 0.004681235 0.07290503 0.022334121 0.002274265 -0.033253055 -0.01461321 -0.066938415 0.055471793 0.08418255 0.085675515 0.01383078 0.031349465 -0.016394507 0.03719058 0.09812374 0.049608607 -0.0673702 0.011356147 -0.025870934 -0.0058129 0.05793478 0.064539276 -0.03294209 -0.049942322 0.055047095 0.071702436 0.01233179 0.034227114 0.0456209 0.060064875
-0.12761395 -0.12766574 -0.02625741 -0.016427385 -0.03717662 0.09331543 0.061243575 0.09358097 0.03585849 0.07064975 -0.16952606 -0.052531827 0.04188656 0.103582986 -0.0010140423 0.102366775 -0.047645777 0.0039775246 0.030123685 -0.09969891 0.0065265475 -0.023168221 0.0040154364 -0.016980425 -0.007879689 0.056729745 -0.0525979 0.096437685 -0.020799782 -0.032460056 -0.0631216 0.076132685 -0.0602491 -0.018960882 0.034758426 -0.17644349 0.0034901109 -0.10552282 0.14729889 -0.115510434 -0.15876865 -0.055437855 -0.029444274 0.08395953 0.13707556 -0.0046928725 0.0029111614 -0.043998577 -0.14451826 -0.06269927 0.093058035 0.06369787 0.1329705 0.048549775 -0.017367426 -0.049970128 -0.11668326 0.22562282 0.11468726 -0.16373613 0.05366932 -0.042397957 -0.11324048 0.020941677 0.01746819 0.15190405 0.06350419 -0.099295124 -0.21628223 0.0452721 -0.15640527 -0.026730908 -0.034026094 0.016609559 0.11054837 -0.002131558 0.013372329 0.015233905 0.02833524 -0.018440524 -0.06399887 -0.10238621 0.057309497 0.1907027 -0.031643484 -0.058163412 -0.102313966 0.1502819 0.14478883 0.15223241 -0.062123165 0.0010302757 0.14376312 0.020613138 0.07326176 -0.16656674 -0.015664598 0.16265939 0.09958427 0.045010246 0.13496347 0.0039959056 -0.07375825 0.07789334 0.0064006904 0.07769018 -0.055301547 -0.023536833 0.12009523 0.036492113 -0.06094744 -0.1407722 -0.027097616 0.0700308 -0.013321728 -0.19912797 -0.007106685 0.12789457 -0.04637289 -0.11852489 -0.025494715 0.051593427 0.07450553 -0.0037797345 -0.009937971 -0.04469646 0.11102403 -0.05977443 -0.13913786 -0.021676583 0.010778788 0.06229341 -0.005208979 0.0789911 0.09015854 -0.12295124 0.08709085 0.087697506 -0.096179366 -0.05240152 0.17425531 -0.10293487 -0.0054245396 0.019287277 -0.09672713 -0.14043003 -0.01779448 -0.09926076 -0.07955239 0.06308406 0.003805514 0.12104962 0.123826616 0.10855038 -0.034970254 -0.14927466 0.103049606 0.04764417 0.06875247 0.16454177 0.097344734 -0.015698193 -0.21035907 0.012185451 0.021110576 0.08901552 -0.12939781 0.022619782 -0.016019728 -0.059204634 0.03922193 -0.2779079 -0.15074663 -0.0044872537 -0.0046291435 -0.0638134 -0.00246546 -0.114202574 0.0031074134 -0.05966861 0.10649385 -0.058193132 0.031082096 0.09025976 -0.038586523 0.22770831 -0.025247848 0.04561835 0.07078457 0.10469289 -0.06555998 -0.046763558 0.12103656 0.0038507828 0.15787303 0.1191064 -0.062293477 0.15211146 -0.009865465 -0.17943664 0.06990566 0.023216777 -0.08198674 -0.17929061 -0.050617084 -0.07075621 -0.10936496 -0.07719405 0.059789494 0.016770784 0.12181564 0.10404178 -0.18158881 -0.053173553 -0.08433435 0.15908019 -0.13475664 -0.018897668 0.1335607 -0.016040655 -0.07869764 0.07619617 -0.04882585 -0.012868193 -0.0098205665 -0.10087195 0.07551891 0.0041647353 0.08137788 -0.03649914 -0.15378673 -0.030409621 0.011367729 0.15457872 0.024326187 0.065799996 -0.04476981 -0.055577263 0.111115135 0.08289512 -0.08680012 0.012902892 0.029137235 0.06494062 -0.094144434 -0.003298722 0.04735574 -0.056980766 0.11656973 -0.12862289 -0.1192275 0.013401748 0.09449816 -0.060003728 -0.02251665 0.040697385
0.0037922126 -0.19936298 -0.21939696 -0.1207453 0.09723169 -0.101494804 -0.15936719 -0.19437341 0.23227222 0.25344256 0.10322542 0.03447574 -0.15412694 -0.28286013 -0.14007005 -0.035161342 0.18407807 -0.30816802 -0.35108837 -0.08531949 0.028384533 0.05627196 -0.07805542 -0.07155463 -0.2612877 0.07350587 -0.100679524 0.0786625 -0.08651147 0.26052406 -0.300139 0.30807796 0.030937018 -0.032743983 0.07136759 0.10859288 0.050391715 -0.09013545 -0.15470645 -0.011287135 0.051109377 0.09315795 0.051219776 0.12351823 -0.5489068 -0.024543833 -0.055823546 -0.05714279 0.09087868 0.051881347 -0.14325257 -0.18399492 -0.025836017 -0.0536503 -0.15983176 0.23447339 0.0059839985 0.09501472 0.025554236 -0.029751891 0.0029837135 0.13329953 -0.10802273 0.00429455 -0.21146958 -0.2561384 -0.19293362 -0.17188612 0.22397283 -0.034424026 -0.43041235 -0.17469534 0.14057612 0.06594512 0.08665672 -0.082204394 -0.035430223 -0.09638679 0.031338986 -0.13080323 -0.09633669 -0.17914014 0.08522038 0.1783137 -0.056803312 0.10937329 0.026027756 0.075090684 -0.10519259 -0.20333268 0.021373702 -0.084304005 0.1421927 0.07061908 -0.049748976 0.008174209 -0.06326011 -0.0801355 -0.07302644 -0.098666206 0.021488363 -0.13198523 -0.12826493 0.027426941 0.12769346 0.117997974 0.11296814 -0.20145565 -0.10161217 -0.033198442 -0.07372912 -0.10788779 0.029587608 0.12693997 -0.30250064 0.21739879 0.4573999 0.032669716 -0.05644459 -0.0022224667 -0.023397962 -0.1252751 -0.04310119 -0.11922344 0.4074795 0.40376157 -0.08268693 -0.1266146 0.011901226 -0.054739688 -0.104019165 -0.107569404 -0.15108083 0.061562393 0.118434414 0.31828025 -0.11525379 -0.10905531 0.016509127 0.0013610333 0.04061072 -0.37215182 0.044716477 0.102995686 -0.073050834 0.038149502 -0.07195508 0.21300623 -0.022838116 0.22083464 -0.061779458 0.07484183 -0.07766866 -0.06684319 -0.028116556 0.061888233 0.09489311 0.22101068 0.1069606 0.060990937 0.058887973 0.0017243574 0.07839922 -0.011288465 -0.04365902 0.005342376 -0.019670509 -0.10968184 -0.038586605 -0.09705861 0.064881854 0.03817376 0.038237944 0.23532408 0.20126972 -0.020340517 -0.11457448 -0.12720113 -0.09575572 0.19539002 0.083276875 0.0004917041 0.006619293 0.17378294 0.13479345 -0.18953793 0.05348309 -0.15849383 -0.23838665 0.02989713 0.14196473 -0.007214685 -0.03783904 0.08625796 -0.08817524 -0.14189626 0.30773816 0.079905644 0.029191857 -0.13632594 0.19165897 -0.093990795 -0.07842005 0.10955322 -0.08445474 -0.15248267 0.13437635 0.041033592 -0.16499783 -0.04159503 0.010569965 -0.046361756 -0.111397244 -0.037690844 -0.12685727 -0.06383084 0.18528397 0.042560466 0.17009075 0.117226146 0.047939714 0.023414005 0.27392465 -0.20527136 -0.1198015 0.04010675 -0.1153098 -0.089938864 -0.3046997 0.021794826 -0.048118662 -0.11390006 -0.011833887 0.11816209 -0.10050332 0.07475101 0.05747537 0.12638453 -0.12456417 -0.046466194 -0.31605834 -0.167505 0.002848826 -0.026899943 0.1294379 0.0256505 0.015946778 0.1682207 -0.051058885 -0.17068064 0.095568135 -0.18714136 -0.13013679 0.10462416 0.10371767 0.12469822
0.04841755 0.027167229 -0.08090885 0.020815857 -0.047044348 -0.0184747 0.071890645 0.064302996 -0.020594615 -0.09399824 -0.010254999 0.022932185 0.000611391 -0.0019372712 -0.052578636 0.005368381 0.0022508395 0.09380141 -0.08987825 -0.021011831 0.02336776 0.009872281 -0.017165948 -0.113559306 -0.022765577 0.009824564 -0.026098687 -0.008970025 -0.04381813 0.095083795 0.0030325905 0.027168399 -0.07719501 0.05760799 -0.030338258 0.041573178 -0.016971357 -0.046017468 -0.040178947 -0.029058196 0.0025963155 0.021832876 -0.056572385 0.041270312 0.103493504 -0.03837624 0.017582802 -0.035911683 -0.01318413 -0.05604428 0.0018049823 0.061238308 -0.015291908 -0.048017196 -0.012092517 0.08786672 0.03477277 0.04244168 0.02328523 0.028392019 0.005030062 -0.04902317 0.08598222 0.008031765 0.050798267 0.10942903 0.092965774 0.016607773 0.016658027 -0.019909171 0.012217254 0.027009023 -0.03810158 0.008904271 0.0046445657 -0.05866107 -0.006074804 -0.015978843 0.055685293 0.09658808 0.012844092 -0.0625148 -0.029729923 -0.109907635 -0.026190832 -0.057707474 0.015705941 -0.058581356 -0.066486694 0.07484232 -0.06537667 0.042122424 0.0030199036 -0.05071617 0.031061297 0.025562208 0.046191864 -0.026498755 -0.037286516 -0.05237778 0.06764755 0.024361243 -0.031775974 -0.007498894 -0.02900845 -0.039630856 -0.023575751 0.086259894 0.022941606 0.030570097 0.03710553 0.0542998 -0.004055949 -0.0916971 0.071663775 -0.057638947 -0.031241592 -0.0503808 0.04589419 -0.022463277 0.08562162 0.005084598 0.068823524 0.088401444 -0.10070937 0.05677325 0.025658075 -0.015183012 0.04707083 0.05759453 -0.050832774 0.059143286 0.006280483 -0.014625578 0.06746324 0.067777194 -0.022376765 0.054265678 -0.008714061 0.0592036 0.025999669 -0.05314504 -0.076776594 0.033486553 -0.046364762 -0.01595482 0.067255214 0.040057614 0.021399444 0.028098354 0.077016875 0.017305136 0.019509945 -0.067374945 -0.06480446 -0.020507423 0.069126934 -0.042219106 -0.06969322 -0.09315305 -0.0047442126 -0.047125306 -0.023340747 0.06693462 0.06413617 -0.03165065 -0.01000436 -0.090807036 0.0072984686 -0.0046977177 0.09875269 0.063703544 -0.030602574 0.030294757 -0.04624101 0.01835961 -0.004755378 -0.06311733 0.12017739 0.018734131 0.030827222 -0.048498884 -0.054408498 -0.050838422 0.04916746 -0.04756416 0.06409395 -0.013120986 -0.084224775 -0.102955006 -0.05497829 0.05740512 0.011911646 -0.0032059518 -0.011185226 -0.056863714 0.030469077 0.07529825 0.057017967 0.037627608 0.035600334 -0.03486402 0.073473945 -0.04842875 0.05150195 0.028096873 0.07442508 -0.049316034 0.03494937 -0.07720666 -0.017762052 0.032399304 0.023774005 -0.04981804 0.054028366 0.045520872 0.039588373 -0.02138563 -0.07451955 -0.016386297 0.012746726 0.011733288 0.018766915 0.030075291 0.074926086 0.090262316 0.034927715 -0.043126505 0.061527904 0.027631944 -0.06423243 -0.051625464 0.05521355 0.034587 -0.058488104 -0.025497075 -0.021653334 -0.032390498 -0.065527126 0.004701378 -0.07228219 0.059288368 0.0041588712 -0.00678001 0.09870513 -0.023798557 0.026202966 -0.008403364 0.040205598 -0.022579676 0.043184754 0.06604108 -0.05358067 -0.011566277 0.028150259 -0.11044192
0.019653896 0.1688204 -0.045372453 -0.06441452 -0.14250652 -0.12085356 0.034205772 0.048164386 0.10479642 0.19520415 0.027016174 -0.02455058 -0.09647521 0.09621405 0.01961715 -0.12860802 -0.08308709 0.0151538495 -0.10602107 0.016167596 0.042264227 -0.11344027 0.0958555 0.041756883 0.027556278 0.037555486 0.022767592 -0.06471269 -0.09734926 -0.02639646 -0.1374542 0.052290708 -0.07517458 -0.022494 0.05697683 0.05026688 -0.08319225 -0.022034857 -0.08174357 0.06739853 -0.07232756 -0.039708223 -0.052058008 -0.014734275 -0.020002596 0.013353964 -0.032666944 -0.13667193 0.01776994 0.11679218 0.12887107 0.032538388 0.02767532 0.089082986 0.0161574 0.05923557 0.087693326 0.01989593 0.0402235 0.05091997 -0.05218137 0.045921773 -0.016302694 -0.01660449 0.09952792 0.117583334 -0.090907164 -0.08382954 0.02709365 -0.040439546 0.06179666 0.10081733 -0.10504412 0.08143753 0.033285383 -0.08563835 0.12686731 0.0012980076 -0.044384148 0.037772834 -0.0015854405 0.07003483 -0.03773239 -0.023104958 -0.1305771 -0.049476642 -0.010810894 -0.046734054 -0.03897203 -0.08862354 0.11758791 -0.051129222 -0.047707405 -0.04837082 -0.085637495 -0.076222755 -0.035799816 -0.05044521 0.029709492 -0.111521125 0.09374748 0.026544245 0.047843114 -0.13438463 0.01666118 -0.025610453 0.021708468 -0.109050445 -0.01933781 -0.027113412 -0.007669308 0.018843815 -0.14300248 -0.03735165 -0.099192664 0.05867577 0.15630698 -0.106349096 0.030232351 -0.009617895 0.14947882 0.04965736 -0.011975378 -0.04862032 0.038396705 -0.029925615 0.007242135 0.053735066 -0.18501656 -0.023133049 -0.10486981 -0.050007187 -0.026782373 -0.0033462 -0.11303899 -0.1392934 0.15353824 -0.012059379 0.14982337 -0.09746898 -0.018443083 -0.11298712 -0.043224 -0.21367845 0.09150728 -0.07224233 0.118237466 0.035316132 0.13867484 -0.030586781 0.07633737 0.0836175 0.059443336 -0.14784187 0.14809178 -0.10371008 0.07888034 0.098174796 0.09825468 -0.09676225 0.0035889172 -0.055309705 -0.12363762 -0.067993656 0.004142071 -0.027560614 0.07295449 0.14127523 0.12172145 0.12012377 -0.11826416 -0.12266581 0.027718218 -0.046108525 0.020603156 0.10996124 -0.008797474 -0.012023169 -0.08353858 -0.025299251 0.0912365 -0.16315894 0.031270653 -0.08201742 -0.16884649 0.07582725 -0.016287195 -0.0036551896 -0.010182805 0.062246162 -0.061579533 -0.1127291 -0.020723589 -0.17649284 0.03099075 0.070450164 0.009027532 0.1906964 0.057007622 -0.03901033 0.13948292 0.10597044 -0.024997635 0.015046348 -0.0052797887 0.0070591792 -0.018102238 0.0054977457 0.09615385 0.07288756 -0.032949034 -0.05829266 -0.059983227 -0.09897015 -0.12645699 -0.07254988 0.17133687 0.075289585 -0.00043206263 -0.020435873 0.110565305 0.011981945 0.0343717 -0.05117712 -0.11722885 0.004158319 0.07529293 -0.1169581 0.08402669 -0.025069967 -0.12794997 0.053970158 -0.033332534 -0.062680274 0.109229036 0.010868231 0.121909216 -0.14269724 -0.03611878 0.15663055 -0.15345965 0.05660695 0.041930307 0.11155823 -0.11530199 -0.047451165 0.015269346 0.13277595 0.047651533 -0.0773883 0.040805157 -0.102929644 0.007269098 -0.13262175 0.030851295 -0.072065115
0.057296105 0.083730645 -0.05124922 -0.108074315 -0.0451939 0.08564929 0.22139862 0.10196997 0.09470001 -0.052793134 0.079914846 0.12041831 0.14577894 -0.057177223 -0.09918395 -0.09551407 -0.0039341464 -0.0014690422 0.19552287 0.10550869 0.111845195 -0.27024087 -0.12282392 0.0063382885 0.28986588 -0.14976774 0.19626805 0.07356926 0.10683823 -0.15541506 0.14296131 0.0204043 -0.17629494 -0.05004654 0.03645458 0.02390746 -0.11491717 -0.04635577 0.1959623 0.06900615 0.04747727 0.15610877 0.20144872 -0.09879472 0.10861577 -0.016837377 0.039849915 -0.12224913 0.20867017 0.015921762 -0.11765237 -0.16658735 -0.119559266 0.1870211 0.039428074 0.031146992 -0.09406304 0.16260634 -0.068647526 0.095054924 0.19395553 -0.011026532 -0.14685796 0.10352669 -0.14696199 0.15937182 0.1093615 -0.0032390181 0.057975326 -0.19911079 0.26448715 0.021185448 -0.079547845 -0.14872219 -0.19309275 0.09926854 0.016478071 -0.082660094 0.0014434473 -0.076732285 -0.0144840665 0.11473655 -0.09362695 0.017658656 -0.07193942 -0.07038052 0.098548226 0.057306107 0.09058511 0.12329754 0.069646604 0.09787656 -0.16301134 -0.17732352 0.1592277 0.061746657 -0.06865875 -0.18217447 -0.10226479 -0.11796346 0.06077455 0.0820208 -0.055322554 -0.028953513 0.081978336 -0.019089922 0.15628949 0.10539203 -0.056917824 0.12824398 0.0014908472 -0.178106 -0.113739096 0.06630455 0.29122266 0.064172134 0.035313234 -0.104842134 0.08309599 0.0037917842 0.191541 -0.02802223 0.017655648 0.026372066 -0.13479093 -0.11693385 0.050123096 -0.010624073 0.08522497 0.029806074 -0.11993854 0.103687085 -0.017198695 0.07292939 -0.28326985 -0.0683697 -0.19637944 0.071938165 0.09333655 -0.096677475 -0.113758676 -0.082232036 0.13652991 0.054475933 -0.06288362 -0.039614618 0.14136915 -0.21575323 0.11447956 -0.047255106 -0.14392321 -0.07237943 0.14345755 0.029374933 -0.089488916 -0.11854474 -0.096298225 -0.13222696 0.14139043 0.19055982 -0.006301013 0.05719465 0.16165127 -0.20479889 0.011513794 0.13354926 -0.09968478 -0.024624906 0.047993444 -0.023983903 0.31306836 -0.04417498 0.028401908 -0.09580095 -0.11517622 -0.11562084 0.19474897 0.3097212 -0.009910277 -0.12388013 -0.1017078 0.017380128 0.1368306 -0.053828526 -0.0097587 0.12872034 -1.6114353e-05 -0.000987532 -0.09656272 0.009740385 -0.071491845 -0.117552705 0.114460684 0.028702494 0.09124425 0.0029936603 -0.115910724 -0.13177681 -0.08481604 -0.02875659 0.028117144 0.07652842 -0.17823611 -0.028156478 0.08590304 0.16797248 -0.03804005 0.11153949 0.082036346 0.003002752 0.08481409 0.16472284 0.030060045 0.09390629 0.010207185 0.0005048116 -0.13561057 0.100724176 -0.062031724 -0.06595228 -0.11672064 -0.11026965 -0.034398295 0.2684842 0.11984513 0.29466516 3.052752e-05 0.029266227 0.19860436 0.040455356 0.0064759594 0.058035746 0.107637055 0.03964547 -0.10349594 0.09359018 -0.03133485 0.07556366 0.04865253 -0.0041424106 0.023467187 -0.0057358597 0.09126035 -0.07700389 -0.14976533 -0.042843644 -0.36980104 -0.10651502 0.013787601 -0.006267273 -0.08336341 0.045022573 0.17177252 -0.2059336 -0.20125253 0.064013086
-0.07281826 -0.0146497255 -0.01547881 0.0849229 -0.027172958 -0.059222568 0.053361885 0.10080327 0.12263226 -0.09302586 -0.17703372 -0.045584567 -0.18912552 0.077103436 -0.12848544 -0.12397246 0.03579084 -0.07732055 0.11979011 -0.015800904 0.047266766 0.028393345 0.05918171 0.00879928 0.06155497 0.008156399 0.08666118 -0.08953213 0.11413964 -0.12467562 -0.041442826 0.09234632 0.041369393 -0.02535804 0.0016872239 -0.18005916 -0.0031333147 -0.14044385 -0.10964679 -0.027882455 0.051433716 -0.17048958 -0.0072958255 -0.08780361 -0.07213921 -0.042636942 -0.04131475 0.11550448 0.15705715 -0.17390525 -0.03825267 -0.004344386 0.05194898 -0.06576381 -0.06992957 -0.12029967 0.095085375 0.117111094 0.0066701993 -0.1472234 -0.026639957 -0.13095105 0.13920365 0.110307716 0.21519363 0.16738825 0.033257358 0.103342995 -0.12537472 0.18388507 0.059212714 -0.11190603 -0.01941806 0.011329119 -0.15929277 -0.06359281 0.10579127 -0.09808544 0.040204514 -0.0228082 -0.060393125 0.009545347 0.05396525 0.0006224183 -0.09829347 -0.09842554 0.020758813 -0.11689266 0.11943935 -0.03891661 -0.06614701 -0.07165037 -0.07897849 -0.13774467 -0.011843958 -0.09100197 -0.015508778 0.05070073 -0.019751774 0.13605875 -0.057844326 -0.12838691 0.11577307 0.020927306 0.00071401295 -0.004850808 -0.07675144 -0.074705474 -0.062924825 0.12918699 -0.079142526 0.099734835 -0.054831438 0.068448395 -0.09020807 0.17605293 0.021289133 0.05888397 0.030321272 -0.089647286 0.023985125 0.039763846 0.02565866 -0.013810632 0.013510098 0.016296238 0.012847269 0.03881062 -0.07649643 -0.07770036 0.0962747 0.122809626 0.045297127 -0.0033057062 -0.027344575 -0.10416929 0.076265186 -0.05042822 0.041146263 -0.044230487 -0.10484596 0.18060678 -0.0033956817 -0.09434721 0.08352012 -0.012160053 -0.05480921 -0.011571143 0.11718798 -0.048689228 0.002005727 0.12540196 -0.073164746 -0.0336882 -0.003211027 0.003141336 -0.047346607 0.037611622 -0.032697573 -0.025986217 0.14278409 -0.046724003 -0.14627004 0.097998045 -0.05736033 -0.08059048 0.04724063 0.09576393 0.02559621 0.010612975 -0.11410559 -0.109508015 -0.13010347 -0.03175484 -0.12205956 0.06633748 -0.10087668 -0.11038308 0.16370258 -0.033447996 0.124752924 0.032388028 0.08767635 -0.119658045 0.04376551 -0.049732238 0.11366601 -0.08769457 -0.065066956 0.07583792 0.049114697 -0.16070227 0.12762003 0.0031897097 0.07239563 0.085314 -0.1668389 -0.11685709 -0.009296408 0.0008339683 -0.1259825 0.15329306 0.10061213 0.092378594 0.080378495 -0.06504894 -0.044903573 -0.051714197 -0.11756816 0.04615523 -0.119918 0.049136985 0.042013176 -0.020188408 0.13593394 0.0160486 0.07030092 0.13374703 -0.086991414 -0.073623426 0.023256676 -0.058047738 0.016460882 0.0042867134 -0.11254655 -0.23744787 0.18771392 -0.026477547 -0.079394124 -0.12542367 0.0586813 -0.035058066 0.022695895 -0.066413194 0.14402205 -0.022573246 0.117784485 -0.11148327 0.03088904 0.04259938 -0.031702533 0.06302839 0.08023407 -0.03693505 -0.015050477 0.121380724 -0.080172464 0.118139245 0.029458769 0.18825129 0.14039071 -0.062239602 -0.02382671 -0.03600192 -0.022286579 0.010972926
-0.035071217 -0.11444917 -0.0040907427 0.05825864 -0.09506656 -0.11225185 -0.02832622 0.0075548175 0.02811554 0.015066213 0.012763269 0.010581136 0.0005007434 0.07066568 0.090739675 0.044091657 -0.062812984 -0.024588076 0.011320849 0.076132305 0.017455742 0.028566677 -0.0044778273 -0.13501938 -0.07912516 0.05913298 -0.037073217 -0.05329912 -0.03414284 0.12799703 0.041748147 0.0089252135 0.08826846 -0.0059504732 0.05159877 -0.038227357 0.043134827 0.02889305 0.0037304447 0.086091146 0.065106876 0.035763405 0.07761419 -0.04253451 0.13675058 -0.096955426 0.0002701041 -0.040628146 -0.05085396 0.06476519 -0.045536496 -0.07913118 0.035499137 -0.009562935 0.094525546 -0.07754316 0.033080153 -0.065581895 -0.02563101 -0.01782796 -0.0100848125 -0.09473283 0.0807933 0.010797497 0.028867124 0.019428682 -0.024338676 -0.0013788479 -0.0049189255 -0.034278255 0.0016619747 0.026305325 0.02407313 -0.055452064 0.07295307 -0.008080572 0.03320254 -0.014428179 0.048600297 0.11550209 0.02403069 0.026789578 0.0769461 -0.00076432247 0.08467834 -0.07507489 0.018052755 -0.029162226 -0.066296235 0.011809123 -0.014338066 0.04727981 -0.025751792 -0.012092156 -0.15944828 0.023126306 0.0119266845 -0.08499978 -0.08332939 0.03508412 -0.06659001 0.07803388 0.020494673 -0.04813969 -0.05927451 0.04930231 0.048213765 -0.021491881 0.022007238 0.021895187 0.025201326 0.0013573967 0.05160129 -0.11069796 -0.1156495 -0.02596514 0.04727295 0.054003324 0.09537095 -0.023443008 0.047216795 -0.035356686 0.013307627 0.0068400484 0.005237696 0.12132098 -0.09523981 -0.05947037 0.019296905 -0.043768138 0.04821104 -0.0075242533 -0.024950197 -0.02827413 -0.02394856 -0.04326017 -0.06384996 0.08676782 -0.026312994 0.019690566 0.017276138 -0.064143874 0.011518993 0.006488623 0.06093103 0.11598384 -0.029509328 -0.040540464 0.014826759 -0.039554957 0.06707414 -0.089967825 -0.09239092 -0.086214334 0.0093708085 -0.0034917207 -0.050049428 0.027861208 -0.08884416 0.091643825 -0.017519971 0.109417155 -0.03142316 0.040168256 0.1000446 0.0030312003 -0.10833239 -0.12422153 0.021074995 0.060781818 -0.007539296 0.07383439 -0.15904671 0.01148617 0.027099807 -0.009756813 -0.058607556 -0.01777263 -0.021722637 0.04012421 0.0051923064 0.024628041 -0.07322219 0.050289933 -0.02875558 0.01572705 0.0069987574 -0.07405694 -0.0110706445 0.03158735 0.0022556186 0.008855139 0.030338587 0.028054893 -0.01855406 -0.057851452 0.045046262 -0.035624698 0.10164966 0.004022521 -0.01897656 0.078242704 -0.061981652 0.058045607 0.010842888 0.08322807 0.07005641 0.04170125 -0.034350935 0.051744975 0.055133637 0.036130786 0.012512679 0.04335475 0.037771784 -0.0011523806 0.0008425761 -0.008976698 0.0728553 -0.021480499 -0.015688274 -0.026958972 -0.06274657 -0.060585167 -0.030172272 0.012168496 -0.08117271 0.04226902 0.07667533 -0.056642167 0.092696175 -0.0071373917 -0.03590518 0.0010324671 -0.0055074347 0.06880441 -0.05193768 -0.026636388 -0.06374191 0.00414685 -0.083698675 0.072369136 0.030161323 -0.0072139553 -0.024694039 -0.003765719 0.011026129 -0.012112677 -0.0048288954 0.027633905 0.07664269 0.022554502 -0.038259167 -0.0111708 -0.006968053 0.07954143
0.1453972 0.16691393 -0.11412618 -0.20117922 -0.14818266 -0.12741587 0.08776029 -0.09440121 -0.19038299 0.12102142 -0.1086839 0.022325614 0.19633178 0.085874416 -0.023983799 -0.001153384 -0.093051575 0.20486702 -0.013365558 0.16997345 0.027570698 0.013165054 0.10166764 0.2581083 -0.1828972 0.005687137 -0.44548723 0.002290701 -0.10963405 -0.08416942 -0.13971573 -0.32015276 -0.2906126 0.023714539 0.060846344 -0.057879962 -0.106685504 0.03354687 -0.021802414 0.071274854 0.22452761 0.08304684 -0.37559658 0.122731395 -0.30098197 0.055057917 0.06285277 -0.045497295 0.102504104 -0.020869428 0.018145453 -0.07642335 0.09509315 -0.10261547 -0.016958639 -0.1881907 0.056337867 0.00813073 -0.037517924 -0.015528413 -0.04628315 0.09918051 -0.24015778 -0.11303071 -0.018484028 -0.15865296 -0.16749635 -0.07942635 -0.02161042 0.1339082 0.19332202 -0.12307279 0.025561657 0.20688866 -0.031185701 0.11879929 -0.02541682 0.034299437 0.30997035 0.14712408 -0.14047195 -0.29063043 0.0018581214 0.05355248 -0.07960469 -0.011621438 0.11982823 0.08952861 0.15585534 0.016058775 0.052678723 0.037575588 0.0119975405 0.064059384 -0.21257778 0.12421423 0.023454703 0.1263379 -0.09420501 -0.07380339 0.037812017 0.08233461 -0.15949617 -0.17696463 0.013763899 -0.052217674 0.014422361 -0.058060225 -0.071206525 0.04173454 -0.039636694 0.053407054 -0.11342753 0.0010783838 0.25839016 -0.04926465 0.0700966 -0.101983786 0.16044265 0.042452756 0.21477929 0.091117516 -0.11875868 0.07292116 0.32979602 -0.26129657 -0.25372633 0.10387815 -0.035947874 -0.096615255 -0.020328673 -0.28911027 -0.10107179 -0.040610943 -0.18542893 0.10724506 0.36946103 -0.18555321 0.036674157 0.031694964 0.029865654 -0.041319262 -0.04343409 -0.032412738 -0.07109034 0.11728511 -0.130964 -0.07511199 0.13958769 0.12709938 -0.08059442 -0.044821426 -0.003729444 0.025600823 0.08306124 0.0808927 -0.023375649 -0.029569818 0.05713989 0.024636688 -0.053868942 -0.045420375 0.33994865 -0.14316493 0.042391885 0.075218156 -0.105490714 -0.10901489 -0.1181359 -0.06548933 0.001771907 -0.027794283 0.09660298 0.03893059 0.044007618 0.0875796 -0.08633362 -0.009461358 0.07058665 0.16799934 -0.14296544 -0.05932335 0.06223628 -0.0064086206 -0.03718228 -0.16019382 -0.004014532 0.18105131 -0.16016419 -0.048732236 -0.057896763 0.10510519 -0.077229634 -0.11067541 -0.18310942 -0.20810212 0.13053055 0.16400596 -0.07244296 0.18035035 0.1949161 0.0001910229 -0.048687458 -0.030647416 0.03791876 -0.028797755 0.06413174 0.15128405 0.430319 0.003724973 0.08077453 -0.17082748 -0.052810203 0.014421318 0.001207699 -0.00636429 -0.050543368 0.047118105 0.04008366 0.10221163 0.09206236 -0.07662984 -0.008972588 -0.008342945 0.14066353 0.27428588 0.084620066 0.0014020983 0.25251397 0.087024234 -0.011523186 0.08056842 -0.18938325 0.029013721 -0.021900697 -0.021371542 -0.0033836153 0.052957393 0.1427105 -0.060097296 -0.1373951 0.07248839 -0.028019415 0.07218924 -0.06250904 0.16729388 0.14931414 0.0034405773 -0.1101571 -0.18786958 -0.061394304 -0.004292899 0.050429814 -0.022360545 0.037220757 -0.077354506
0.016767187 0.094984055 0.023806203 0.071087554 0.11339213 0.14473191 0.030052524 0.045415044 -0.09992873 0.15555632 0.3052665 -0.11389314 0.021290502 -0.11326329 0.012557732 0.042797092 -0.020511836 0.059311174 -0.06623301 -0.025092263 0.0013399918 0.034622323 -0.0451256 0.059268456 -0.037364908 0.12915233 0.038479857 0.015319498 0.07478777 0.032002166 0.15981765 -0.20423679 -0.020908056 -0.0038853344 -0.0027535837 -0.05747894 -0.02897323 -0.11536169 0.048874356 -0.03270032 0.077650905 0.07151647 0.02108705 -0.00046843447 -0.28670877 0.05806717 0.011350537 -0.08681817 0.0048713596 -0.06735733 -0.04176403 -0.07953414 0.018444901 -0.04169922 0.013577875 0.06157413 0.044074394 -0.085491575 -0.10604977 0.13272248 0.02342112 0.20891634 0.014172666 -0.120307714 -0.010749475 -0.08652278 0.015683739 0.08029523 -0.10999169 -0.109656855 0.019481784 0.06325665 0.016901016 -0.0329199 0.06638271 0.047291152 -0.07898061 0.015140015 0.12536989 0.119670294 -0.055321015 0.07174441 -0.04906924 -0.08027923 0.024739027 0.010920061 0.1837042 -0.04882386 -0.057448316 0.0144016575 0.10335806 -0.07448347 0.00020519279 0.094306305 -0.041570526 0.0141392695 0.07029543 -0.078728944 -0.05184532 -0.082694136 -0.022883944 0.05958672 -0.08986 0.0510619 0.028735695 -0.062554404 -0.097549975 0.11822845 -0.061270073 -0.097353496 -0.114457846 0.1283238 0.016739259 -0.09762276 -0.00016292205 -0.21746975 0.105405316 -0.009808112 0.0751156 0.028738832 0.1408712 -0.09328646 -0.13511555 -0.076620065 0.11349067 0.11017033 -0.03608467 0.043721933 0.026540795 0.1525019 0.08264581 -0.056876857 -0.20620897 -0.06801628 0.037938047 0.06898606 0.030292673 0.019371385 0.04439605 0.16896929 -0.05661354 -0.025231116 0.1330441 -0.018224413 -0.15497665 -0.10066303 0.06810505 0.07654316 -0.054158967 0.24430983 -0.13660288 -0.083843455 -0.0016373391 0.10108126 -0.06144777 -0.084320046 0.03707021 -0.08494066 -0.029802572 0.0689874 0.04976483 0.025036734 0.2280564 0.07930052 0.130833 -0.1426641 0.0002477081 -0.042366236 -0.0842026 -0.13795727 -0.0077880374 0.17158955 0.12937665 -0.05020262 0.0069925375 0.053833574 -0.07852256 -0.028881392 -0.13327311 0.17885107 -0.0049265386 -0.063494585 -0.021224627 0.110239185 -0.09368975 0.058674615 0.14297895 -0.10734189 0.1067234 -0.13352017 0.20585874 -0.058333423 -0.036213007 -0.058278665 0.032674413 -0.023397408 0.03126177 0.009327662 0.03286734 0.18130632 0.022368133 0.07193182 0.13327187 -0.0070187347 -0.055395927 0.04009156 0.0050127977 -0.109716535 0.0054330784 0.08197654 -0.032501083 -0.13216513 0.03935734 -0.06393681 -0.00062951096 -0.10507526 0.17187671 -0.06578436 0.0124741 0.09084069 -0.0692742 0.14170581 0.121210106 -0.08038232 0.15103012 0.094739825 0.0009314519 -0.026466757 0.07893179 -0.080159545 0.22747825 -0.07250821 -0.20916088 0.0529397 -0.06395461 -0.12776302 0.016941085 0.020074926 0.15966985 -0.14274168 0.14234465 0.021972202 -0.18737516 -0.13389084 -0.16650975 -0.12567621 0.1370393 0.0025839524 -0.16629255 -0.104615256 -0.021294761 0.065839164 0.11581862 -0.104400545 -0.021682233 0.10805111
-0.0072449376 -0.054672137 -0.009641286 0.042012583 -0.0061689685 0.070314094 -0.06496906 -0.00046847665 0.045852993 -0.022239031 0.044705577 -0.021809166 0.03872866 -0.033428792 0.015583459 -0.020095583 0.010014834 0.007196507 0.0510669 -0.075719446 0.043761812 -0.048321452 -0.010237731 0.026548725 -0.064941496 0.012986727 0.016228039 -0.055868868 -0.07528866 -0.06069226 0.089154385 -0.10232616 -0.07528667 -0.019712288 0.027105108 -0.0521672 -0.069601916 -0.025712797 -0.009741681 -0.03338771 -0.11737373 0.0585793 -0.017325979 0.0970198 -0.01792197 -0.01954997 -0.011913432 -0.050816875 -0.02773482 0.032212142 0.006549002 0.079464145 -0.05598725 0.13500398 -0.08525985 0.06680492 0.08185873 -0.025226332 -0.01690727 0.042717572 -0.05448191 0.021745577 -0.08302366 -0.01532855 -0.037814066 0.08093828 -0.030634172 0.03295283 0.040171582 0.017413324 -0.024295421 0.02963396 0.0023473452 -0.04888443 0.06550369 -0.024228418 -0.054643128 -0.018696139 0.084335074 0.017068304 0.036894184 -0.021817261 0.026544763 0.051823493 -0.051966377 0.026791353 -0.03145037 0.073725015 0.020721292 -0.08279376 0.06895982 -0.061282318 -0.07225214 0.046291184 -0.02981368 -0.043801703 -0.015831364 -0.03734755 0.0016147688 0.042527147 -0.06630514 0.0325149 -0.0243276 -0.004592848 -0.09031759 0.01817429 -0.030506497 0.087513104 0.083475344 0.07579219 -0.03569247 -0.032761883 0.021387357 0.09353518 -0.039591942 -0.050631996 0.021284467 -0.00431503 -0.023192354 -0.010931111 0.0840387 0.03654478 0.014422289 0.033319354 0.02113871 -0.07774271 -0.017449727 -0.039858356 -0.0012065285 -0.0063127656 0.03223387 -0.054163024 0.0373477 -0.06467184 -0.015511027 -0.059821755 -0.07391754 -0.053251006 0.030465223 0.0474316 -0.016327003 0.097115636 0.048592597 -0.0022615676 -0.095148824 -0.040417444 0.019619457 -0.050032225 0.024532543 -0.019718993 -0.08040006 0.048483793 -0.025738733 -0.05052169 -0.03697557 -0.014477566 -0.061070055 -0.0010271812 0.01070805 -0.034371115 -0.000814938 -0.083730005 0.07436223 0.033485405 0.07179308 0.012792728 -0.008514022 0.021630635 0.036087725 -0.04424366 0.09619534 0.095257744 0.011088717 0.037362855 -0.069355644 0.053386103 -0.0067380425 0.019034667 0.014525485 0.068876624 -0.04659646 -0.034066282 -0.0845266 -0.020952767 0.037749633 -0.051165767 -0.06930965 0.050149266 -0.05325397 -0.0898726 -0.108074225 -0.039502863 -0.014311074 -0.01751892 0.050953865 -0.067953534 -0.023350425 0.09869384 -0.016263437 -0.057783857 0.019811442 -0.09340417 0.0049110027 -0.029100193 0.04913058 -0.009833965 -0.027217714 0.02634136 0.04039712 -0.011057869 0.010849459 0.0007783907 -0.049445856 -0.063283846 0.052685454 0.046795618 0.11465259 -0.012668272 -0.046496157 -0.008312238 -0.041674677 0.043550987 0.024554856 -0.07399651 0.053727906 -0.12862264 -0.037517432 0.09264156 -0.0072355815 0.060377307 0.056462374 -0.032301962 -0.07202019 -0.01420358 -0.051968988 0.033508517 0.05000106 0.008422248 -0.07814076 -0.014446287 0.076134555 -0.010595841 0.034630112 -0.013777463 -0.039013397 -0.032862347 -0.1297591 0.050423823 0.011737204 0.04120785 0.0054443553 -0.02087826 0.045875914 0.070797995 0.007814753 0.07880162
0.12848476 0.004259898 0.02353882 0.05231525 -0.05143554 -0.01778235 -0.10591057 0.058721863 0.061667554 -0.09824713 0.13088667 -0.026182394 0.016362693 -0.032191392 -0.012858385 0.07591998 0.084875144 -0.029782385 -0.021310044 -0.056994036 -0.0006736467 0.075694 0.00543789 -0.0012569599 0.09266865 -0.002662575 -0.016576856 -0.04415511 -0.053022 -0.013718056 -0.0008679595 -0.09465716 0.00735127 -0.065166555 0.07802886 0.07457584 -0.034722764 0.06665034 0.053530265 0.057630636 0.0731981 -0.004838861 0.0013837605 -0.020203695 -0.08125636 -0.045054454 -0.026939377 0.049341574 -0.004784482 0.05919597 -0.041763972 -0.0005660286 -0.041347027 -0.010192516 -0.10216268 -0.06278323 0.09087264 -0.060335893 0.06582049 -0.064057425 0.01657345 -0.09464411 -0.038773354 0.038086813 -0.071577385 0.0937564 0.035877593 0.024652254 -0.055721235 -0.07375175 -0.0113067385 -0.034986652 0.13420133 -0.07150462 -0.12698044 0.09950854 0.03364462 -0.050841946 -0.012544554 -0.025193306 0.057074793 0.024350544 -0.06004088 -0.02422044 -0.0027891542 0.04426797 0.123099804 0.07717064 -0.03533166 0.078188345 -0.07600237 0.023158703 -0.024886565 -0.042020425 -0.07051063 0.052444056 -0.061539497 0.035898685 0.053110935 -0.078216754 -0.0019415078 0.020873338 0.024364451 0.0016407714 0.015714895 -0.05297231 -0.04537754 -0.03280174 0.048818 0.023494678 0.016946781 -0.030820135 -0.022040173 -0.019443847 -0.03097717 0.12384115 0.07440221 -0.000395362 -0.01308888 -0.019479424 0.041113935 -0.057756215 0.049635105 -0.0053844713 -0.044212826 -0.022534097 -0.040906347 0.045407385 0.069002 -0.030417394 -0.0014971873 0.013316184 0.01783293 0.03153158 0.05989806 0.05274148 -0.007859891 -0.004181998 -0.065408014 -0.041857332 -0.045736354 -0.025728943 0.04784543 -0.07657422 -0.08337943 -0.13427821 -0.05806475 0.069227904 -0.030552335 -0.00034472567 0.008715328 -0.066797614 -0.061858367 -0.02910715 -0.003858903 0.017221682 0.013489188 0.013734077 0.028289856 -0.0049910154 -0.035333246 0.06208197 0.094626494 -0.0061931117 0.032013137 0.044467352 -0.039879188 0.032693632 -0.07129659 -0.009924671 -0.013167694 -0.059168357 0.08215602 -0.07461959 0.036238562 0.06172686 0.04223701 -0.05267718 0.0043842257 0.08952625 0.008128885 0.009292065 0.007896133 -0.074556835 -0.007955573 -0.061069008 0.10018415 -0.031076072 0.029695516 0.0123970425 -0.07687482 0.0037356908 -0.005746876 -0.084529795 0.07063749 -0.06606005 -0.03648687 0.07086497 -0.006332741 0.07148288 0.026041938 0.017919092 0.00962706 -0.10867434 0.07490209 0.00622096 0.09429369 0.06953382 0.039061505 0.046132773 0.085906774 0.050798383 -0.055223193 0.04752921 0.027747253 -0.053862236 -0.030513456 -0.063046925 -0.022602918 0.01906069 0.016393155 0.040282197 -0.04275453 -0.06435271 -0.008595678 -0.02960033 -0.027193645 0.06748404 0.05570107 -0.029489582 -0.10362714 0.022145364 0.055599686 -0.008628927 0.054797117 0.061455112 0.014517279 -0.062483013 0.05054129 -0.12267414 0.0564696 0.0019290529 -0.015107132 -0.04972306 -0.03288699 -0.0070361467 0.022700837 0.016697684 -0.0655646 -0.075654685 0.031135269 0.03184176 -0.06182092 0.009666747 -0.029044755 -0.003164903
-0.13356711 0.11805302 -0.05798585 0.14096794 0.07402004 0.099084094 0.080633104 0.0770233 -0.16307905 -0.02660209 0.054223344 0.02457114 0.029462874 -0.035833262 -0.106165595 -0.07340047 -0.12565257 -0.039300058 0.084247835 -0.080519915 0.013169824 -0.07409469 0.015658854 0.0005539283 -0.0012818889 0.19123787 -0.14779498 -0.12345214 0.026012415 -0.08405894 -0.080555916 -0.010827089 -0.07694241 -0.062197547 0.08368774 0.027570305 -0.058622923 -0.08096263 -0.12591144 -0.093455344 0.08694793 -0.17729703 0.0556147 -0.0072617377 -0.06371354 0.14165926 -0.12088694 0.03209724 -0.084568635 -0.14760365 -0.039092615 0.13152723 0.11155744 -0.077072255 -0.06567789 -0.0039445036 0.097470656 -0.027678242 -0.04671565 -0.098703966 -0.10013099 -0.08262811 0.11916404 -0.035894625 0.06168749 0.124829665 0.029802578 0.18553267 0.060861867 0.12183026 0.060025916 -0.16278979 0.0484449 -0.028532758 -0.09620482 0.007106121 0.056141704 0.06462715 -0.03374757 0.072053775 0.023948666 0.0018044689 -0.06052237 -0.051231544 0.04906915 0.029699618 -0.0023621903 -0.055080473 -0.07083125 0.12452633 -0.11885331 0.106330164 -0.007601791 -0.112816915 0.044254225 -0.123606816 0.06423538 -0.062887184 0.04323684 0.089184366 -0.008100777 -0.13557674 0.09184727 -0.08833036 -0.0357304 0.08494385 -0.09563997 -0.02514101 -0.07587184 0.07112645 -0.011068386 0.12788202 -0.08317731 -0.10448743 -0.076322295 -0.078906 -0.11021727 -0.06151974 0.023659436 0.008021059 -0.018659623 0.023458585 -0.09408928 0.0905696 0.024337765 -0.16861343 0.1674135 -0.19415699 0.034689225 -0.11080489 -0.02477415 -0.09947992 0.13450414 0.13852243 0.013862346 -0.16154625 0.026516087 0.08457163 -0.0016412905 -0.1294988 -0.028516527 0.16358078 0.0049729543 0.048087444 0.09713014 0.09696557 -0.059147768 0.02693209 -0.024308076 -0.17103818 0.15427962 -0.055458423 0.058800686 -0.06928383 0.045546122 -0.091459125 -0.046427425 -0.04707591 -0.04509159 -0.06798523 0.030901352 0.0516129 -0.058042716 0.026861789 -0.017770734 -0.012292268 -0.06689463 0.13052928 -0.120771505 -0.047682326 0.09512007 0.04027969 0.049556833 0.008879392 -0.034820594 0.010002326 0.008603736 -0.056475434 -0.13877313 -0.06919741 0.023290535 -0.07568876 0.06917359 0.025975479 0.06500324 -0.18938237 0.04400564 0.021709088 0.10036766 0.14754204 -0.071403444 -0.02616735 0.22616258 0.1642967 0.031323295 -0.064113826 -0.020600323 -0.14163919 0.12111676 -0.01622903 -0.0011001652 0.074709706 0.12829755 -0.15258086 -0.016472675 -0.09354541 0.057919465 -0.02002979 -0.015308097 -0.10483069 0.052465793 0.010552597 -0.06606521 0.043900147 0.06598106 0.14494455 -0.07640094 0.10677751 0.0004954813 -0.17097056 -0.07240961 0.028141046 -0.015750539 -0.14471325 -0.13250706 -0.081036836 -0.101729214 -0.060450193 -0.089760214 -0.119202815 0.030943118 -0.05509003 0.010727347 -0.12475591 0.14346825 0.13178313 0.04002313 -0.09256442 0.12507041 -0.08767825 0.13559505 0.09305974 -0.09064552 0.15909228 0.024585355 0.14364813 0.096197374 0.17149016 -0.11594812 0.11796356 0.008087854 -0.057051156 0.14810123 -0.057560116 0.16883583 0.011372396
-0.046414655 0.060343087 0.018021172 0.050253544 0.01710188 0.029022023 -0.002259363 0.0015784159 -0.103218414 -0.025303228 0.09832358 0.004645431 -0.033001352 -0.027391935 -0.018660143 0.055595104 -0.06290356 0.062317584 0.029678851 0.030902531 -0.034303915 -0.009294189 0.013251839 0.017845906 -0.022105686 0.045143448 0.11623078 0.017456822 0.05921362 -0.016612785 0.057445135 0.03389368 0.02087357 -0.02785959 0.099008135 0.031233696 -0.060709544 -0.012723764 0.00048786023 0.09396631 -0.10318628 -0.035353594 -0.05687521 0.006076528 -0.050168723 0.045399804 0.030885002 -0.04121203 0.050758645 -0.05368489 -0.030974807 0.034425676 0.05812052 0.08457323 -0.053270783 0.041117966 0.01605464 0.080820486 0.109931275 0.0035336283 -0.022269517 -0.013069195 -0.07660165 -0.034387663 0.04833971 -0.04090359 0.009178805 0.01887106 0.058994673 -0.005012116 -0.016764753 -0.0063048475 -0.058881562 -0.07179047 -0.091504306 0.013592495 -0.017172216 -0.0020527686 0.083907925 0.09734237 -0.06121272 0.11139671 -0.075414345 -0.03915225 -0.0099504115 -0.035333637 -0.060702153 0.0921982 -0.0009521555 0.12948796 0.060371343 -0.013079447 0.030226594 -0.046433836 0.018144043 0.042600658 -0.022533199 0.10547499 -0.030238163 0.02103461 -0.039292194 -0.040458176 -0.012236123 -0.009186293 -0.05231096 0.06695526 0.04648393 0.02999388 0.13136208 0.000232713 0.010816834 0.009179616 -0.06746571 0.04290579 -0.047164038 0.0050449474 0.08091868 -0.008107027 -0.02847134 0.006021391 0.02298301 0.06877923 -0.040450916 0.021562854 -0.003981929 -0.053127866 -0.015235893 0.0123447245 0.055101726 -0.0900431 -0.062565625 0.075053036 -0.00039365402 -0.093740255 0.052809857 0.11911135 -0.05660472 -0.039340694 0.07146473 0.052848957 0.05547861 -0.061519336 0.020008545 0.043535933 0.030241413 0.04420183 -0.045763485 -0.049173016 -0.040947527 0.014068576 -0.069766216 0.05000568 0.04626003 -0.043869752 -0.047345273 -0.00022741834 0.061298713 -0.035337325 -0.08232548 -0.07334144 0.01546278 -0.029101936 -0.1508812 0.025711443 -0.010156144 -0.008461892 0.037723463 0.024756465 -0.052141618 -0.0572723 -0.03646102 0.0023035042 -0.0011660127 -0.060136005 -0.036461484 -0.021223286 0.06543853 0.101160124 0.034029968 -0.018048903 0.0050621796 0.0136683555 -0.04507789 0.03445178 -0.011622562 -0.08571205 0.0033593823 -0.0030731328 -0.04940138 -0.010771268 -0.10606854 -0.08451649 0.030708376 -0.030990448 0.046181913 -0.04220781 0.041697353 0.055628233 -0.06969106 0.062554926 -0.014416483 -0.013327842 -0.06756793 -0.016269889 -0.068884134 -0.0052158427 -0.060737826 -0.0056137117 -0.034545805 -0.098756455 -0.02893918 -0.06415546 0.04221823 0.09783477 -0.07512084 0.07648888 -0.012154457 -0.08297497 -0.06227995 0.015181634 -0.0013685577 0.018714095 -0.06295784 0.023514863 0.020611301 -0.037130587 0.0016018391 -0.019582646 0.008055646 0.04926733 -0.06791684 -0.026869087 -0.060472403 -0.06731937 0.014190068 -0.06621307 -0.07710562 -0.019376194 -0.10322582 0.07750986 0.01792119 -0.021852398 -0.05178484 0.017155165 0.041922994 0.07431715 -0.029514119 -0.04493072 -0.014903942 -0.031569432 -0.02168182 0.012411114 0.08059845 0.018037576 0.1270452 -0.039131537
0.05632181 0.046724655 0.042965 0.023775522 0.041850504 0.013281793 -0.0661793 -0.018179106 0.071814366 -0.050193947 -0.06279869 0.06870362 -0.05771791 0.012783445 -0.09836814 -0.038927622 -0.064589925 0.09684748 -0.002927146 0.06381686 0.020014213 -0.06546205 0.06222035 -0.003341626 0.068641 0.03602402 -0.0042262287 0.046774916 0.01114564 0.003166826 -0.06589393 -0.061020445 -0.039145023 -0.014850102 0.10368258 -0.08592249 -0.035567243 0.034632787 -0.08402788 -0.04792402 -0.013933373 0.030014725 0.06243771 0.09602557 0.02595415 0.034054495 -0.037593972 -0.05460458 -0.008151877 -0.025317196 -0.008002203 0.06618784 0.0922356 0.018436821 -0.017134441 -0.038127534 0.015852496 -0.061862264 0.03401512 -0.05231068 -0.018537804 -0.0031796063 -0.0005076036 0.069785245 0.0051799016 -0.009085169 -0.02696775 0.009846451 -0.046260353 -0.067613594 0.026672017 -0.0267199 -0.03146816 0.113956526 -0.008501594 -0.043455053 0.024552485 -0.03882855 0.014684315 0.065651834 0.017234765 0.040482447 -0.012866031 0.11958615 -0.048171893 -0.04031077 0.012234931 -0.025690602 0.02689998 0.022771265 -0.027087608 -0.061007455 -0.08036519 -0.0041540083 -0.03800213 0.12448275 -0.06557905 -0.10785621 0.016934574 0.027472086 -0.017418785 -0.018955093 0.067373246 0.04321348 0.024863396 -0.06671265 -0.10005383 0.007915989 -0.0019653654 -0.00017113824 -0.012584896 -0.05165912 0.06504186 -0.10232107 -0.05294076 0.03731813 -0.004181152 0.03377787 0.029311545 -0.013552669 0.067273766 0.087794386 -0.02526139 0.042946916 0.025751192 -0.030831676 -0.08304477 -0.07314985 0.048429772 -0.050948966 0.08649655 -0.017878873 0.05939492 0.05354791 0.04240526 0.03138841 -0.089934945 -0.08119153 0.046883855 -0.07389048 -0.06199929 -0.07963068 -0.0028162429 -0.016715052 -0.0076718684 0.05930091 0.026254911 0.10053199 -0.02044834 0.06736304 -0.0072261407 -0.009529087 0.06456126 -0.005914354 0.007922454 -0.063838646 0.08527215 0.0064676353 -0.0546308 -0.079844676 -0.01416159 -0.017562304 -0.015944332 -0.0018747143 0.016575843 -0.012861924 -0.01451496 0.01961549 0.057169784 -0.02541356 0.00034668166 0.029679567 -0.07412679 0.040310387 0.060810056 -0.0043632057 -0.035711456 0.059600066 0.052051876 0.066687495 0.04646887 -0.009879689 0.010628291 0.043536767 -0.0027505518 0.04611199 -0.060018633 0.05546858 0.00073841517 0.016123964 0.004701251 -0.05478533 -0.038621698 -0.051879406 0.039953504 0.011340506 0.031708412 -0.052248895 0.011509594 0.041750133 0.0419907 0.05108874 -0.059938084 0.021294069 0.10252991 0.06460904 0.019064207 0.046845205 -0.06704012 0.008016195 -0.04796007 -0.010894345 -0.06406454 -0.024688039 0.06902041 0.06392225 -0.009331071 -0.016313214 -0.028327586 -0.017761797 0.011277523 0.034584396 -0.012025179 -0.061131522 0.05096544 0.039686095 -0.008351067 0.032876235 0.006605082 -0.047608066 0.021031184 0.035339102 -0.10652465 -0.012733981 -0.07579332 0.080230355 -0.08250577 0.05684276 -0.034186777 -0.06828186 0.09152053 -0.06609951 -0.09424981 0.020495467 -0.039841224 -0.079923354 -0.034311898 0.0050025187 -0.021526495 0.050617 -0.022906777 -0.06842277 -0.03796312 0.0374165 0.019108709 0.071514316
-0.008816551 -0.041149713 0.03600969 -0.11342888 -0.16947447 0.027847156 -0.13883461 -0.044854827 -0.0784145 0.21582536 0.09917292 -0.118862554 0.07527429 -0.017572792 -0.06366019 -0.068695165 -0.046550766 0.014871753 -0.056392517 0.09539246 0.03624819 0.07182899 -0.026228309 -0.030039323 0.030370917 0.10985238 -0.016924452 -0.005226964 0.12680501 0.15037316 0.14015092 0.006971686 -0.029657867 0.12544627 -0.06439534 -0.0044600745 -0.16019341 -0.124251045 0.15702468 -0.12032803 0.14769886 0.019706866 -0.00077141315 -0.04889458 -0.029550854 0.019155066 0.003324143 -0.06587847 0.060604524 0.0540428 -0.037452932 -0.06092046 -0.091864474 -0.13555892 0.03324193 -0.045210455 -0.043998882 -0.08584653 0.1316392 -0.05044825 -0.022305531 -0.14584409 -0.00019557198 0.08729383 0.031904314 -0.065998524 -0.061289087 -0.016114453 0.10295319 -0.17996977 0.02765389 0.0660279 -0.04726612 0.124393985 0.031151118 0.0056610946 -0.10271409 0.08969886 0.07657011 -0.10020313 -0.051957075 0.016782299 -0.18200217 -0.035948902 -0.044145156 0.12940204 -0.05641777 0.02375133 -0.04238068 -0.003143573 -0.013521268 0.013150035 0.029334322 -0.016606212 0.052415464 -0.021532139 -0.1308069 0.054456625 -0.017123764 -0.008695341 0.16646643 0.10859837 0.07444573 -0.09908518 0.04994303 -0.097905494 0.038795944 0.068958074 0.13870196 -0.10765973 0.032700673 -0.08710826 -0.05363011 -0.059869107 -0.118000664 0.1490847 -0.0281458 0.06442178 -0.16209103 -0.039759602 -0.059896473 0.0015365614 0.035799213 0.14051075 0.05026866 -0.13894655 -0.05029034 -0.059979666 0.015987588 0.023684308 -0.08925154 -0.079425685 -0.040986147 -0.028007533 0.059214473 0.04317648 -0.0109772775 -0.18312737 -0.0040330174 -0.01288795 -0.08246337 -0.1530352 -0.08385746 0.11493459 -0.15793572 -0.07073618 -0.14039333 0.021983514 0.09283883 -0.023364227 -0.058934383 0.110411614 0.058567263 -0.051123474 -0.09416654 0.016039675 0.02863147 -0.041656017 0.017652243 0.14228909 -0.09947334 -0.05894884 0.01492918 -0.084302336 -0.064688966 -0.09799282 -0.058964122 0.05521101 0.020000676 -0.11527229 0.021549249 -0.21250743 0.0067866473 0.055531625 0.091486916 -0.03896304 -0.01298116 -0.04768579 -0.097743735 0.121597774 0.107386574 0.122451894 -0.034679066 0.073211655 -0.098930776 -0.20048635 0.0032796175 -0.06420077 0.08253838 -0.084425494 -0.09071567 -0.18804127 0.15046315 0.06439667 0.059268225 0.021086276 0.13033195 0.015005475 0.08904312 -0.15867823 0.027997572 -0.08739507 -0.11351309 -0.022740686 0.08495625 -0.07877743 -0.06303049 -0.075014874 0.07390457 -0.016661674 0.12114325 0.03929171 -0.061401233 0.005011502 -0.10511764 -0.1351282 0.062762775 -0.04643465 0.020174302 -0.070539474 0.02076051 0.0051912717 0.017510045 -0.08489459 0.082315624 0.06512311 0.020096663 0.050654557 0.17383981 0.031276647 -0.07363912 -0.028850544 0.09862216 0.11268044 -0.097442396 0.025531784 -0.00033092836 0.042483747 -0.15934376 0.10294789 -0.004266551 -0.06336211 -0.14962968 -0.076897345 0.08137591 -0.13489556 -0.008130439 0.08256502 0.09728499 -0.14928505 0.08452789 0.22064915 0.089993894 -0.046541866 -0.05421201 0.05692732
0.08914749 0.015810303 -0.016735394 -0.06839904 -0.057952255 -0.057210036 -0.0044980566 0.008970558 -0.08881286 -0.026937487 -0.08238812 0.0633428 -0.016379265 0.014040429 0.031593014 -0.021528035 0.05765758 -0.028859835 0.025586355 0.023069244 0.042639732 -0.035591304 0.01965223 0.0034049414 -0.014127923 -0.055345695 0.11044623 -0.026001217 -0.0037406771 0.015728772 0.065010786 -0.06737462 0.04517131 -0.06464999 0.03366733 -0.05680026 -0.05900568 -0.031422496 -0.044777527 -0.0068086046 0.050841093 -0.0059962245 0.015253743 0.047676917 0.03686367 0.09378706 -0.08526587 0.091450065 0.018745312 0.056226723 0.018405776 0.042245984 -0.00553882 0.000949218 -0.06876426 -0.00154487 -0.00917609 -0.036323868 0.037459303 0.007441518 0.008288709 -0.02421908 -0.0463408 -0.038014956 0.04206242 0.006464188 0.054820262 -0.0021027552 0.018368632 -0.06505984 -0.016247097 0.038740635 -0.06464143 -0.047625974 0.036842894 -0.009126486 -0.0010072083 0.036736455 0.04804171 -0.07570962 -0.04177571 -0.06860066 -0.035548273 0.08215155 0.07242629 -0.023208775 0.075460844 0.053825215 0.0048436215 -0.020376319 0.022382164 -0.06545045 0.075467356 1.4241963e-05 0.0030694634 0.03429307 0.028011756 0.030007852 0.047031555 -0.06034671 0.028044734 -0.01252299 0.05218457 -0.0011443428 0.0077273156 0.0114871245 0.080070995 0.05201237 0.07344858 -0.082109846 0.016978003 0.061360624 -0.022951936 -0.06978601 0.046275668 -0.057723545 0.068877906 0.009508164 -0.024212984 0.011049632 0.036178093 -0.07097888 0.06471648 -0.0047043865 -0.0731936 -0.060662404 -0.0034122474 -0.06090092 -0.058236036 0.04704678 0.05485739 0.05337879 -0.08613113 0.018789453 -0.040966712 0.04619996 0.065051585 -0.048707712 -0.04917347 0.023602134 0.056798685 0.053343214 0.059995484 -0.013214808 0.07103933 0.017272055 0.09183659 0.027640365 -0.01341438 -0.044479445 0.061269984 -0.046946842 -0.0938483 0.06431029 -0.056469373 0.06610822 0.06032157 -0.013917732 0.03944342 -0.019459035 0.00974012 0.08899034 -0.05173887 -0.10499192 -0.09239415 0.012604802 0.024683993 -0.014584317 0.07653804 -0.07424585 0.029403184 -0.022250315 -0.0017972805 -0.04287208 -0.027325334 -0.06642311 -0.027340882 0.049161766 0.06766795 -0.0350674 -0.0013072015 0.055152845 -0.04833902 -0.031317815 -0.050908595 0.0112354765 -0.023147402 -0.0063616117 -0.05173221 0.023078818 -0.017500704 -0.0018061431 0.02359802 0.018506287 -0.017804332 -0.006163852 -0.07783017 -0.08685811 0.011048354 0.0540004 -0.016439294 0.029056534 -0.011369943 0.01847381 -0.06202756 0.03207433 0.08606717 -0.02769621 0.033918142 -0.021747468 -0.013435845 -0.046131343 -0.01533941 0.06462574 -0.089360714 0.08078054 0.024650961 -0.050327826 -0.074779786 0.065661356 0.048422422 0.076427594 -0.004381925 -0.0072493744 0.08209315 0.0716145 0.01086428 -0.06346536 0.05252846 0.05744285 0.023963075 -0.03328593 -0.06470157 0.02391437 -0.06868318 -0.0154596595 -0.059282992 -0.0032766368 0.08855507 0.050166626 -0.01873175 0.037925787 0.007094772 0.005678883 -0.032417845 -0.046254974 0.063253365 -0.0023988003 0.015197003 0.08102557 0.026614394 0.0642353 -0.07822612 0.039866883 -0.001642835 0.07920859
0.0148653295 0.013289527 0.101461835 0.0775527 0.10838137 0.13354354 0.013941255 -0.08117415 0.024165312 0.045566842 -0.08567993 -0.004874955 -0.040240105 -0.21042474 -0.008130066 0.07311226 0.06446776 0.13344066 0.039771866 -0.1658425 -0.13154705 0.2142074 -0.16177215 0.17043793 0.01026131 0.0027072828 -0.10490631 0.011300086 0.16983004 0.07979295 -0.010781372 0.0026759023 0.11595921 0.17580618 -0.12098419 0.07106096 0.0465703 0.021514244 -0.01506809 0.010083697 -0.025642207 -0.025820298 0.12132124 -0.03822131 -0.06864473 -0.05216528 0.12787706 0.16935414 -0.055292897 -0.0065559912 -0.082412325 0.024524242 -0.07406309 0.008101905 -0.11355473 0.07830567 -0.027387056 -0.0136439055 -0.00759137 0.010764215 0.100335345 -0.032430466 -0.02481911 0.035912655 -0.029457442 0.040516797 -0.009246208 0.07525073 0.014031597 0.026093261 0.093742296 -0.06509566 -0.04056742 -0.21402548 -0.029824138 -0.18237747 0.11724283 0.15682194 -0.07731695 -0.04269885 -0.17441338 -0.003869943 0.07337273 0.07503946 0.19588523 0.06923615 0.09539087 0.048659507 0.0015928377 0.11122605 -0.08587521 -0.13218297 0.04787502 -0.05329689 0.068505995 -0.12670504 0.051091503 -0.026171584 0.13258353 -0.016113551 -0.05111955 0.08890279 0.13927536 0.19625095 0.076961 0.060982194 3.4512585e-05 0.11981783 -0.004534511 -0.068624035 0.017735109 -0.07516236 -0.053723942 0.1442561 -0.10467351 0.025823273 0.1397998 0.19302002 -0.08082565 -0.025692187 -0.12707254 -0.011591894 0.06081315 -0.091301456 0.073770665 0.08157138 0.059380427 -0.027010975 -0.097574554 0.024315374 0.14206445 0.005643963 -0.1817687 0.052719697 0.10611665 0.08106792 -0.0146881845 0.07419661 -0.0035505313 0.08131151 -0.022644354 -0.059855323 0.085562155 0.19348612 0.069167495 -0.020541698 0.04210665 -0.052176494 -0.06812576 -0.045200516 -0.059300743 -0.059006885 0.066422254 0.070298545 0.101522 -0.0691713 -0.044716816 -0.06739666 0.06120672 -0.008169957 0.09779109 0.017167024 -0.05339435 0.0044638207 -0.08325463 0.11184378 -0.10781104 -0.1601821 -0.088510156 -0.07678484 -0.0521383 -0.056649905 -0.14311318 -0.034124073 0.052834556 -0.108289726 -0.053189177 0.076927066 0.12652013 0.097278066 0.012917527 0.13938986 -0.09774045 0.0072947587 0.020827882 0.09750606 0.0043073306 -0.10092158 0.033370916 0.00423785 0.08850589 -0.066971764 0.059238374 0.022807378 -0.059729394 0.008592521 -0.03597678 -0.09439719 0.045852084 0.09149181 0.048310976 -0.06301669 0.074964315 -0.03239959 -0.12371786 0.05947853 -0.050454266 -0.0012819157 -0.11460552 -0.03890424 0.05644693 -0.19368348 -0.091363475 -0.025531558 0.16028127 -0.02778262 0.2302472 -0.17482103 0.17483939 -0.009123354 -0.009604898 0.040390745 -0.022305056 0.02100916 0.24431132 -0.06848605 0.13010812 -0.09269098 -0.07519471 -0.09755844 0.056504246 -0.018975236 -0.100063 0.06462731 -0.084765084 -0.1895237 -0.0034327805 0.15572415 0.05698445 -0.11875417 0.18337172 0.26247847 0.03497293 -0.18006043 0.0023367915 0.15163493 -0.12695596 0.07577522 -0.079193614 0.104453966 0.13037102 -0.0071200132 0.013327265 0.13157533 0.07694668 0.16926423
0.0701029 0.10457016 0.019337548 -0.020594923 -0.042059798 -0.11642242 -0.07048155 0.03716258 -0.08100139 -0.07475764 -0.011419883 0.016420864 0.055910803 -0.047689866 -0.0966711 0.01668434 -0.06319633 0.010080139 -0.016013715 -0.003354791 -0.007941926 -0.050205987 -0.072817065 0.017399613 -0.020286046 0.08025427 -0.05686038 -0.026303519 0.08028001 -0.072761856 0.026693782 0.004351188 0.030794287 0.059672296 -0.094391674 -0.045492493 0.023660975 -0.059402347 0.038359553 0.012490533 0.038107365 0.008509377 -0.04674661 0.004901995 0.040898085 -0.011686522 -0.08576725 0.024680313 0.0287614 0.055299915 -0.017293667 0.051304534 0.0012802662 0.017784996 -0.0206282 0.02002026 -0.008899642 -0.030364998 -0.039935574 0.010927082 -0.01949549 0.00083524856 0.04391066 -0.035183586 -0.0029165146 -0.069113486 -0.0031030143 -0.09117256 0.02801376 -0.04969732 -0.07233801 -0.008930015 0.07254025 -0.061049838 -0.019917073 -0.026977496 0.06727823 -0.03133894 0.119211815 -0.0532932 0.03128037 -0.028929189 -0.024608817 0.09915779 0.042856954 -0.0037611453 -0.07957573 0.0074103214 -0.055923678 0.017052779 0.010640142 0.025277944 -0.048696954 -0.03826648 0.010921946 -0.055233877 0.087460816 0.04018261 0.062190194 -0.01644266 0.030812148 0.006736141 -0.053698905 0.008784787 -0.09463962 -0.0639873 -0.024840197 0.029269153 0.039772328 -0.012319705 -0.021362871 -0.11824519 -0.039234664 -0.058332827 -0.035508383 0.0361816 0.100188844 -0.025928121 -0.01693904 -0.042376526 0.09000231 0.06096033 -0.04033049 0.06577042 0.031175261 -0.100950286 -0.010174787 0.0759029 -0.04467973 0.0015143675 0.05093404 -0.054225024 -0.067910194 0.05717531 -0.05210889 -0.0039185984 -0.018543614 -0.035215747 0.022078555 0.06085142 0.050926797 0.04133462 -0.085108235 -0.043050613 0.021420285 0.057862613 0.073162034 0.00033370705 0.047108144 0.0058696796 -0.0968354 0.020723537 0.009196963 -0.02772436 0.028897202 0.017858878 0.1345921 0.04257274 -0.0372353 -0.0966684 -0.0076294714 0.02299765 0.068249576 0.042641576 -0.08500362 0.06101933 -0.08469355 0.065633535 0.069801 -0.018182818 0.09578142 -0.13492946 0.04837306 -0.032735042 0.065634094 -0.020286951 -0.0006963383 -0.01589605 0.0016494367 0.07088032 0.058618616 -0.079342656 0.010299767 -0.069493964 0.05208516 0.020185353 0.03101078 -0.05634515 -0.04816724 -0.019355046 0.07277079 -0.014802733 -0.0046315487 0.045647956 0.064463034 -0.009078218 -0.019546458 0.037673067 0.02544402 0.038255908 0.040698186 -0.017832614 -0.0324296 0.031456742 0.02519944 -0.060413375 -0.045728084 0.00024685112 0.0011215184 -0.062383562 -0.04225401 -0.046506386 0.0031218512 -0.05547268 0.033392526 0.0026205215 -0.08787349 0.0029073744 0.025244316 -0.012177309 -0.05863558 0.024181047 -0.0118550155 -0.03532897 0.016195841 -0.06906722 0.03713337 0.021830516 -0.0024239058 0.020441499 0.025172476 0.079161264 -0.08122863 0.003854591 0.09454202 -0.031173471 0.10105027 -0.011637628 0.015809739 0.0016488812 -0.07315223 -0.045667145 -0.10350711 -0.08495312 0.051882356 0.032682452 0.008929368 0.005341977 -0.061740287 -0.008589953 0.004272904 0.03873195 -0.02571466 0.058315605 0.049696952 -0.08847983
-0.02702514 -0.023928897 0.0234877 0.049296156 0.21355136 0.023343006 -0.26199073 -0.1655935 -0.11084912 0.017340556 -0.0095534455 0.13788699 0.04694426 -0.17937712 0.08712473 0.0025314928 0.14553973 -0.015407644 -0.2267495 -0.06934228 0.16831318 0.20366037 -0.10213254 0.026011117 0.0062733665 -0.22380652 -0.1210291 0.093575865 -0.09774708 0.17628151 0.014835728 -0.17860363 -0.27434912 -0.009699157 -0.06514933 0.10113733 0.10098142 0.084148414 -0.06471209 -0.006767734 -0.12490073 -0.033165943 -0.02533979 -0.030003252 -0.058424912 -0.0040414827 0.014783343 0.119993545 -0.12713152 -0.015962012 0.13766897 -0.007746975 -0.16630046 0.023123061 -0.17066422 0.04111597 0.08543353 0.027722362 0.113756105 0.018310092 -0.02250139 0.14844765 -0.042977475 -0.2118624 -0.09399183 -0.105671816 0.03681582 -0.12505415 -0.06441853 -0.038615465 0.13582873 -0.013111463 -0.025534954 -0.30837977 0.06534157 -0.15288909 0.04135103 -0.023312645 0.03762002 0.020936035 0.07091072 -0.019450778 0.058811426 -0.18848082 -0.13048995 -0.066856585 -0.040760707 -0.19830205 0.1203074 0.07796086 0.036582395 -0.16857623 0.16349958 0.07437307 -0.010650843 -0.09667634 0.23562187 0.2202268 -0.025049422 0.041157965 0.08180928 0.13691062 -0.13106816 0.0060176686 0.018191539 -0.2132274 -0.1463299 -0.015372156 -0.069767244 0.1278382 0.048113182 0.0773388 -0.11833625 0.08512489 -0.03433007 -0.08574521 0.114547566 -0.10180664 0.12665184 -0.12907784 0.08027379 0.062457427 0.13948436 0.02470311 0.18627559 -0.11606318 0.13196184 -0.11977551 -0.074668184 -0.017615564 -0.04804001 0.1400022 -0.18337736 0.090245485 -0.18030097 0.12870961 -0.03865593 0.012542788 -0.02399294 0.01114537 0.07679229 -0.10521851 -0.085996106 0.06489783 0.01661125 0.07454482 -0.014070476 -0.061470874 -0.009823501 -0.108173326 0.009353292 0.015360115 0.038527325 0.015895618 0.15032177 -0.070526026 0.12048628 -0.13620734 0.047084503 -0.011273924 -0.08234383 -0.04057661 0.09191748 -0.020507162 0.0088968985 0.16624486 -0.0022627418 -0.11145347 -0.04684722 0.05029667 0.014594339 0.048470005 0.119618066 -0.17580931 0.12998682 -0.058897067 -0.021718225 -0.06308427 -0.17484128 0.011636417 -0.028571965 -0.096449815 0.07137438 0.17408247 0.16245633 -0.08611876 -0.13077867 -0.014091808 0.043309536 0.08479468 0.15361325 -0.01735476 -0.055502024 -0.067355305 -0.05752787 -0.0059771123 0.17609799 0.088980876 0.09218482 -0.17246428 -0.025500327 0.053396136 0.09016531 -0.15322733 -0.057883028 -0.08979541 0.18528464 -0.07039896 -0.020296937 0.00485341 -0.099687606 -0.13934675 -0.0068533593 0.099700734 0.019977864 -0.2808876 0.3314807 -0.20814577 -0.0117892865 -0.015363247 0.2096897 0.12234268 -0.02172965 0.0010356071 0.10895505 0.14198981 0.09128869 -0.07379094 0.18351488 0.025086775 -0.05910494 -0.014538309 0.11910215 -0.09919658 -0.015130835 0.0042886743 0.036864687 0.102193065 -0.08804834 -0.0490281 -0.032259405 0.1905303 -0.018085785 -0.05485859 -0.033997297 -0.060275435 -0.083609946 0.2022689 -0.022871407 -0.006195909 -0.040986292 0.01485278 -0.080393404 -0.098158106 -0.10920164 0.15882194
0.103358254 0.1423398 0.09788388 -0.10021403 0.17992884 0.13634506 0.016478559 -0.06338509 -0.33031347 0.06749755 0.29678065 -0.07221047 0.011629376 -0.023271354 0.061725486 -0.021788253 -0.049394496 0.17144173 -0.2022867 -0.0121807875 0.057570428 -0.0005804479 0.013531156 -0.022675918 -0.029308498 -0.114776164 -0.11154461 0.08646842 0.12236793 0.24165685 0.13710225 -0.08532497 -0.10996055 0.09084896 -0.14063153 0.0562116 0.1955755 0.08810538 0.06417688 0.06904446 0.040455822 0.104893774 0.0487721 -0.06947404 0.047787387 0.11067987 0.021392751 0.08786424 -0.14688022 -0.11829852 -0.10825565 0.10607256 -0.109693445 -0.13135152 -0.068079695 0.062024064 0.23265444 0.00672446 0.027823193 -0.0035044246 -0.074854605 0.083513826 0.079834886 -0.16257124 -0.07888079 -0.15841635 0.17398663 0.024261799 -0.21134329 0.021793023 0.058895186 -0.12199077 0.091239594 -0.16554098 0.17354679 -0.0045424933 0.08510808 0.093469545 0.18134572 -0.043924447 8.0733495e-05 -0.10818684 -0.068767294 -0.06740888 0.008124563 -0.069108486 0.05172732 -0.13606189 0.0053689005 9.246425e-05 0.20859897 -0.06524149 -0.0236547 0.014856081 0.13166304 -0.0042901407 0.083936244 0.19056743 0.034358345 -0.11264471 0.18747632 0.24148095 0.059896015 -0.0024288113 -0.21083993 0.038247135 -0.18445331 -0.0120185185 0.16708541 0.033717234 -0.16514051 -0.059481107 0.018561726 -0.032529216 -0.08808153 0.06544138 -0.013014362 -0.12814417 0.31220725 -0.008770257 -0.040573616 -0.031590674 -0.11908224 -0.09504155 -0.07587953 -0.06647674 0.2097392 -0.15040503 0.0018694521 -0.19070007 0.13925843 0.109037705 -0.015604374 -0.11008801 -0.13217436 -0.045389038 -0.08347753 0.11378504 -0.07656567 0.07691399 -0.15655239 -0.15258084 -0.15104091 -0.2208682 0.051808584 -0.01307728 0.074609034 -0.09811401 0.04025029 -0.026237454 0.03173012 -0.09229324 -0.02023551 0.055419754 -0.041563805 0.09298236 0.28676924 -0.08347128 -0.101586096 -0.0690629 -0.03629161 0.07792265 0.016687905 -0.107616745 -0.029002279 0.015530495 0.09013837 0.22221185 0.14815049 -0.0002387205 -0.06774729 -0.024571657 -0.029772468 -0.19379638 -0.102461934 -0.015519813 0.037659865 0.026412526 -0.12666322 -0.035740122 -0.06111617 0.14194758 0.18887319 -0.05431221 -0.08333726 -0.14284131 -0.056269597 -0.1013384 0.06613815 0.15956973 0.06796995 0.055784713 0.00759305 -0.17634848 0.12904201 -0.016882751 -0.18670349 0.12829317 0.10920429 0.039345507 -0.12016773 -0.0098245945 0.026525881 -0.2970993 0.11558853 -0.10870256 -0.06264251 -0.1055475 -0.08249933 0.0028807404 0.085113674 -0.05771204 -0.035651375 -0.21609426 0.16776386 -0.28011206 0.07878045 0.08627509 -0.0032574334 -0.016931862 0.17480175 0.029233463 -0.035747726 -0.031902157 0.050200127 0.11086675 0.0758525 -0.2355465 -0.010203202 -0.15011647 0.06451808 -0.08971991 0.2723466 -0.012107139 -0.0670519 -0.003095309 0.03977645 -0.030908821 -0.11352558 -0.042164102 0.081316955 0.065241516 -0.055827692 -0.045654435 -0.11687837 -0.1124763 0.26519603 0.04586821 -0.04442204 0.08244667 -0.27691555 -0.04409722 0.109408885 0.1320189 -0.30003217 0.16906968
-0.016482966 0.013538091 -0.013933391 0.07591632 0.020799257 -0.106911205 -0.07876731 -0.0037270447 0.041011043 0.012749887 -0.033731185 -0.008820121 0.047085278 -0.039915256 0.029588964 -0.0023435606 -0.03834374 -0.027675714 -0.0682161 -0.057102844 0.024978697 -0.06288593 -0.010691599 -0.004183553 -0.033763997 -0.011218415 -0.06818886 0.017200395 -0.04611192 0.0034547218 0.025910877 -0.0116665 0.027748745 0.01029694 -0.0862852 0.07916018 0.049771436 0.032461405 -0.014061721 0.11619986 0.06821008 -0.024186175 0.065152265 -0.0028256115 -0.009339525 -0.06501316 0.015345681 0.042790186 0.016690709 0.07353967 -0.011091255 0.0036431612 0.09175685 -0.029040754 0.026728522 0.097888775 -0.062268786 -0.054352134 0.025011167 0.043023724 0.049581427 -0.121744566 -0.07818722 0.067938276 -0.029449629 0.07846192 -0.037235275 0.024136968 -0.032030888 0.08345542 0.027956704 -0.0285292 -0.014032748 -0.024892842 -0.030907251 0.01647029 -0.010633877 -0.0005625764 -0.031871032 -0.035954684 -0.0011043313 0.042521488 -0.01767628 -0.0054321587 0.0050573978 0.07317097 -0.019301515 0.0025005594 0.051465604 0.012277928 -0.06268905 0.029428102 -0.02242283 0.027583672 0.0733791 -0.07956326 -0.005478101 0.004930589 -0.037928056 -0.0058041885 -0.11762353 -0.044142388 0.007200551 0.016991928 0.09163232 0.033627167 -0.07808753 -0.025418859 0.036608353 0.031949144 -0.00784893 -0.010125102 -0.016082888 0.05322464 -0.10018345 -0.062343214 0.005198629 -0.017647268 -0.023348901 -0.084786996 0.033811107 -0.014628673 0.07062859 -0.046890046 0.003797006 -0.041485153 -0.056101702 -0.06564053 0.049743693 0.03257465 0.08956245 -0.010389815 -0.034843475 -0.058275577 0.016013497 0.048793856 -0.025059689 0.09149326 -0.028587166 -0.02753259 -0.03317856 0.05315544 -0.07675375 0.021454126 0.025738554 -0.0073013394 -0.06023107 0.057162374 0.028341403 0.050519235 -0.027721226 -0.06709755 0.08752831 0.02652115 -0.023107113 0.024132088 -0.011683396 -0.029444527 -0.10772028 -0.018325303 0.015878769 -0.001321588 -0.048985478 -0.0023005595 -0.009273678 -0.017123962 0.052309718 0.02177 0.019272668 0.035722926 0.072297245 -0.058789678 0.03022813 -0.0520891 -0.042600524 -0.03504578 -0.038579535 -0.0040296274 -0.008088405 0.060282566 0.019344592 -0.04777467 -0.074357316 -0.028180044 0.05869394 -0.034911994 0.037344545 0.02725712 -0.019289445 0.022684561 -0.061592586 0.011154005 0.030456211 -0.0049376176 -0.007375137 -0.0011485203 -0.09122594 -0.0847354 -0.05518941 -0.05942394 -0.030769777 0.0102287475 -0.0112003 -0.085795574 -0.071525544 -0.020149374 -0.0068072136 -0.04693643 0.042790677 0.069144495 0.07401218 0.028352607 -0.050852593 0.08390805 -0.023610387 -0.027533386 0.008021113 0.048081208 0.031985145 0.0027517753 0.04781225 0.0025904777 0.03693222 0.0007515544 -0.014228659 -0.08194988 -0.017455503 -0.08970065 -0.0060840766 -0.08106951 0.079482935 0.014568552 0.022713616 0.047799498 0.04931853 -0.04981576 0.080236785 0.036174983 0.010231867 0.0720712 -0.0761259 -0.010173975 -0.06087686 0.04627686 0.009296708 -0.052763045 -0.018578257 -0.06798263 -0.06828106 0.024053281 0.07149869 -0.047177937 -0.024825096 -0.05842139 0.102995776 -0.06331313
0.05075906 0.081252 -0.085043184 0.02629453 -0.09137983 -0.0036779668 0.0458802 0.04015207 0.06342852 -0.04714882 -0.0058882437 0.041766364 -0.0598595 -0.06106071 -0.07475508 -0.038541775 -0.07615112 0.07119861 0.025695361 0.06203409 0.0035651461 0.028911263 -0.12820932 0.07067508 -0.033385195 0.044673964 -0.06858868 0.030471744 -0.021032928 0.06528668 -0.045036633 0.06727147 -0.054229558 0.027084103 -0.105602965 -0.033381466 -0.073994614 0.044633456 0.02314838 -0.04404553 0.01854865 -0.04634862 0.0058856066 0.056774605 0.08758391 -0.007923919 0.04882173 -0.09343904 0.082317434 -0.024180265 -0.016745402 -0.08139459 -0.012986907 0.0071005924 0.07136244 -0.04141512 -0.03281599 -0.021237673 0.08647186 0.003914582 0.027474798 -0.011410611 -0.008841241 -0.0347374 0.0008296227 -0.017090553 0.029542688 0.03724741 -0.101242654 -0.11436562 0.008078787 0.0011144179 0.00792206 0.030467952 0.020286001 0.03132977 -0.06028565 -0.029937802 -0.01464541 -0.0929016 0.04042839 -0.04559695 0.078303285 -0.030286511 0.014923361 -0.06148997 0.043710586 -0.027275901 -0.01893131 -0.013623129 0.036322545 0.05354712 -0.056902535 -0.009263478 -0.055183794 0.09026468 -0.119028874 0.06339137 0.030114494 0.053785536 -0.022071775 -0.012293075 0.00872604 0.048666537 -0.052239202 0.042550087 0.046807416 -0.003630728 -0.019616779 -0.10170419 0.014108008 0.066594176 -0.011552514 -0.02499112 -0.104471795 0.03160528 0.08053867 0.003611853 -0.008997495 0.08399352 -0.05347785 -0.062292892 0.013279228 -0.018828811 -0.034920588 -0.011630516 -0.063552715 0.026094979 0.04841027 0.056127533 -0.09251023 -0.01750304 0.07314401 -0.024839466 -0.14129518 0.050661325 0.009582013 0.09585193 -0.055182412 0.009321974 -0.040946063 0.08529787 0.03919338 -0.038308583 -0.072146066 -0.031058306 -0.03478144 0.06667165 0.07728017 -0.07319034 -0.08908078 0.013218304 0.060830615 0.049602747 0.034411307 -0.0057042525 -0.031891 0.014163426 0.017162485 -0.0459315 0.02666712 -0.05797075 0.0353178 0.0014770294 -0.04188119 -0.037932 0.019213226 0.10029303 0.11779722 0.0059857625 0.0013506934 0.012922825 0.055327404 0.03500184 0.008544578 -0.014727062 -0.032463603 -0.011069992 -0.050269503 0.019228768 -0.0022518884 0.052482214 0.01222821 0.025547115 0.0014677665 0.00073720596 0.014567728 -0.08556039 0.033064995 -0.049504988 0.13802212 -0.08441826 0.014573044 -0.013945581 0.093736805 0.08648967 0.054713756 0.015136445 0.011262029 0.07227515 0.009550474 -0.053172152 0.0073863454 -0.037409645 -0.026948534 -0.050299898 0.065412 -0.060369626 0.038927242 0.0760081 0.010805709 0.06955028 0.075302385 0.10260993 0.016228294 -0.024359355 0.097297184 0.043190002 -0.005375123 0.06979408 0.01794466 -0.053393595 -0.0003894582 -0.039009724 -0.08011203 -0.009642215 -0.031740364 -0.002047058 -0.026847964 0.024796655 -0.05543668 0.05793082 -0.06232061 0.015054383 0.050220367 -0.027448686 -0.005587689 0.04161901 0.09531664 -0.09727655 -0.06411305 0.06672735 -0.05587486 0.021972274 0.03810526 -0.079697855 -0.025324509 -0.027736045 0.05430751 0.080902934 -0.001933342 -0.16247526 -0.06187173 0.01889391 0.09991753 0.06162309
-0.12533581 -0.10334179 -0.069958486 0.14721332 0.0005011139 -0.01702464 -0.20953117 -0.089524224 0.031608984 -0.06510186 0.14562252 -0.15178777 -0.0809034 0.060986612 0.038366564 0.11180749 -0.04339554 0.13230632 -0.1415723 0.16873455 -0.12680627 -0.1431894 -0.022994896 0.016231567 -0.15070637 0.04256555 0.16608065 -0.013902463 0.022585869 -0.05564318 0.10336281 -0.046681013 0.07333767 0.05130782 -0.07686192 0.14950664 -0.0085516 -0.09547276 -0.09851163 -0.017985003 -0.08273387 0.028572362 0.03971282 0.07382652 0.021667264 0.008256196 0.00036665672 0.078827836 0.080559686 -0.17245856 -0.07651183 0.0781911 -0.094092384 0.07261344 -0.11204405 0.045795064 0.11327523 0.16235186 -0.11861293 0.007845023 0.079823546 -0.09597602 -0.0035349096 -0.06190093 0.13516672 -0.16702104 0.049529746 -0.08344558 0.10980185 0.048267778 -0.090520255 -0.08181407 -0.00019576566 -0.048562355 -0.03794553 0.038301952 0.1585367 0.0734994 -0.015924959 0.17207529 0.065778784 0.09702553 0.067609996 -0.042020082 -0.08676565 -0.023689553 0.09106986 -0.05786532 -0.09499592 0.0712752 0.03761063 -0.033484578 -0.054277055 0.1035847 0.08346699 0.09111107 0.132741 0.14735763 -0.10235446 -0.012594602 -0.11072042 0.092077054 -0.13495898 0.0022818225 -0.021450356 -0.02784662 -0.03698573 0.03072121 0.099536605 -0.020959483 0.035621725 0.12658347 0.018243095 0.00479941 -0.030776607 0.21127662 0.013051646 0.01239342 -0.16339922 -0.0061472263 0.054347325 -0.054175656 -0.09341321 0.07910065 -0.09867231 -0.047696143 -0.007659441 0.06686818 -0.068528235 -0.04530729 0.047056384 0.11371661 0.1643464 0.1610991 0.13575552 -0.07510177 0.04675841 0.20939122 0.064484686 0.004870006 -0.015562637 0.10727981 0.068829924 -0.17733033 0.09342667 0.032197777 -0.11223091 0.16557132 -0.17448255 0.08655605 0.057805173 -0.14238867 -0.10753015 -0.0045766784 -0.03985556 -0.12532943 0.12820071 0.12616134 0.05990449 0.07829412 0.05751354 -0.048721127 0.0036346212 -0.0007892551 -0.06912222 -0.034391295 -0.07835062 0.13325855 0.04815733 -0.09032437 -0.14513123 0.16321777 0.23796755 -0.08356507 0.0051817307 0.008167611 -0.10065876 -0.10854674 -0.023702564 -0.102899686 0.16958413 0.06989178 -0.17794229 0.04449685 -0.10129359 0.015191306 -0.030951492 0.021404264 0.049344506 0.12949292 0.12323005 -0.012462374 -0.018531296 0.0474987 -0.20156346 0.07511114 0.07131015 -0.06419298 0.08025356 0.11727844 0.007511376 0.11586441 0.12658681 -0.018070748 0.027732592 -0.15110171 0.0040427605 -0.21101809 -0.09772634 0.11409655 -0.11069336 -0.02085357 0.029646732 -0.08115443 -0.07168727 0.032669462 0.15235119 0.023700805 0.084414065 0.054440767 -0.118524216 0.0867643 -0.06175743 -0.10079648 0.050265536 0.013012549 -0.107822694 0.05037758 -0.01486718 0.13548976 0.0116259735 0.006633359 0.08481395 -0.042010944 -0.044766363 -0.03697464 0.0062903394 -0.07577667 -0.06910983 -0.16408925 0.044018153 0.044979192 0.044654336 -0.054512326 0.013719327 -0.046473935 -0.17149323 0.113918535 0.1819645 0.030449707 -0.010003635 -0.0628983 -0.12269288 0.04160536 0.120705724 -0.15634474
-0.015570887 0.050304975 0.020611571 -0.012913693 0.01363797 -0.052153107 -0.024833305 -0.04601171 -0.050129335 0.06163124 -0.024894105 -0.035881 -0.012597898 -0.019971766 -0.09054778 0.06800794 -0.033815116 -0.0131319435 -0.011860498 -0.0408168 -0.008048901 -0.043844003 0.03327414 0.04337736 0.08320853 -0.044122923 0.024637468 0.0061519467 0.046951104 -0.06986467 0.046643008 0.072966166 0.036276035 -0.06744831 0.014664762 0.06238552 -0.04081632 0.037666295 0.014043486 -0.036768254 0.04351175 -0.02957807 0.034703724 -0.043698516 0.062408518 0.10467962 -0.020106396 0.0037864372 -0.055714026 0.0037941274 0.012493758 0.009322242 0.025343576 -0.08119269 -0.068668336 -0.048955597 -0.011471552 -0.027119456 -0.018586705 -0.032321252 -0.03482163 0.011259115 -0.100555584 0.09816601 -0.07417163 0.05245238 -0.046317015 0.021135898 -0.0023891693 -0.014639366 -0.06323757 0.068189435 0.03320986 -0.07874839 -0.05667545 -0.018907912 0.060367055 0.031525105 -0.06794112 -0.07521098 0.032130018 0.032978345 -0.018141972 0.012646976 0.04251505 -0.0035782796 0.019189743 -0.07955803 -0.004071854 0.007942633 -0.05368967 -0.007707011 0.06078613 0.0869482 0.08980141 0.0527979 0.066281825 -0.025672223 0.05278657 0.03618889 -0.08308215 0.08113717 0.05590044 0.021412948 -0.110757776 0.023586016 0.007782399 0.048724595 0.084810756 -0.05754418 -0.00030615638 -0.036675233 0.07276652 -0.047013365 -0.049734145 0.009570753 0.08776253 0.022842206 -0.10661569 0.052593008 0.035453092 0.09746523 -0.11992074 -0.08979855 -0.084916435 0.05801684 0.021798179 -0.07808491 -0.058924347 -0.106827244 -0.013707979 -0.012026055 0.02856568 0.032153424 0.04426613 0.044997312 0.03527541 -0.034700725 -0.0007349019 0.073983766 -0.023431748 0.013172968 -0.04838633 -0.0033813152 -0.04223996 0.041786473 0.016101796 0.034479287 -0.04098986 -0.052348543 -0.082479626 -0.0076607144 0.06491098 0.0838935 0.01481311 -0.023019975 0.03984788 -0.011651957 -0.0062486683 0.008887981 0.020069296 0.008172811 -0.008716628 -0.02889468 0.009486289 0.08445419 -0.065542884 0.0661287 -0.03876145 0.05481332 -0.047760583 0.03075061 0.053700503 0.028372124 0.0076125013 -0.045694813 -0.05555455 0.026142862 -0.007463602 0.06809524 -0.097549 -0.009731938 0.10348797 0.07299762 0.023383573 0.02222377 0.000112783775 -0.02280811 -0.0077826255 0.06281978 0.012700366 0.0045132367 -0.0034582273 0.035005316 0.025761837 -0.028937459 0.047013134 0.04230594 0.0050672935 -0.023254227 -0.022201126 0.017594088 0.008424066 0.082795165 -0.04102139 -0.057291802 -0.056299817 0.059151646 0.07625496 0.028669255 -0.04122002 -0.036383282 -0.031299885 -0.069350764 -0.05098139 0.027930785 0.0045095608 -0.060227748 0.012174752 0.058911365 -0.034015004 0.0646359 -0.00832919 0.030675644 -0.029495269 0.10466662 0.030885588 -0.007807388 -0.03765971 -0.0047361935 0.02854794 0.016588103 0.046214636 -0.052233063 -0.082777336 0.05394426 0.007933252 0.0540039 0.03869783 0.028928356 -0.03656619 -0.00652783 -0.043121595 0.024417043 -0.030826703 0.01533516 0.09597897 -0.009829409 0.09282858 -0.032706194 -0.036509387 -0.017306553 0.05670451 -0.012874165 -0.058821384 -0.08730815
-0.0019436587 -0.008605126 -0.023205373 -0.08445359 -0.07984283 0.014505539 -0.13123478 -0.17223002 0.12102841 0.113772675 0.24668911 -0.090185076 0.09418249 0.038557626 0.15341593 0.09713174 0.030968137 -0.026760004 -0.05136412 -0.08576433 0.06606994 0.14084797 0.10271989 -0.03389462 0.07052158 0.04944104 -0.042540222 0.071116924 -0.08490744 0.20884763 0.118660375 0.04583509 0.14387503 0.06557463 -0.0020404332 0.0015360622 0.073774636 -0.049772155 -0.042477634 -0.099938735 0.118082926 0.07350785 0.08169838 0.12979485 0.011117572 -0.004449475 0.022356292 0.029274091 -0.021002915 0.112418756 -0.16315068 -0.08249787 0.017792342 -0.19133207 0.016072683 -0.08745664 0.11669378 -0.04580517 -0.16192563 0.032005165 -0.056733936 0.07125664 0.15417983 -0.13112703 0.0049044853 -0.06906698 0.08032734 -0.105889976 -0.06567888 -0.119549684 -0.12347921 -0.14368337 0.098363005 -0.0802654 0.08882408 0.037450258 -0.124007285 -0.08937186 0.15142922 0.18202448 -0.013409368 0.11462973 0.0013078183 -0.27310073 0.0091828685 0.07299727 -0.25096917 -0.027770793 0.015181064 -0.15114416 0.1039082 0.035769824 -0.09681292 -0.03133945 -0.0086384155 -0.07159068 0.07733984 -0.14299285 0.028698355 0.044268765 0.054648202 0.013316651 0.00819192 0.019901272 -0.13170564 -0.07394343 -0.0044397577 -0.049784135 -0.13731009 0.17090103 -0.02418385 -0.1250062 0.067669876 -0.010603299 -0.03495144 -0.14348456 -0.059065185 -0.0467219 0.1478087 0.033136725 0.0030060275 -0.1005433 0.09194297 0.04358554 -0.13082023 -0.024092449 -0.032377727 -0.019566169 0.08398286 -0.16538438 0.029891023 -0.115498826 0.16454531 -0.14511095 0.07079436 -0.07679603 -0.136883 -0.012069573 -0.06933999 0.15648589 -0.17153347 0.02389191 -0.025484914 -0.09135638 0.0525109 0.17917421 -0.05287631 0.122991115 0.081537664 -0.05667799 0.02396401 -0.026330711 -0.17033863 -0.11673711 0.08392708 0.04184414 0.17252342 -0.09201422 -0.04150891 -0.16347463 0.04427307 -0.054658044 -0.019049952 -0.06648035 0.13575864 -0.066692546 0.09817459 0.09273498 0.1968996 0.012578394 0.055153478 0.060712405 -0.07118874 -0.04053252 -0.049755797 -0.034824666 -0.05720392 0.0041813054 -0.16105072 0.093115084 0.04387186 0.109610826 0.120304 -0.14982922 -0.21304715 -0.013008906 -0.072796054 -0.07503191 0.18875715 -0.018307567 0.14244114 0.0035086581 0.0393332 0.12205671 0.08868683 -0.005203732 0.0606019 -0.10942924 0.047119256 0.058415316 0.06460327 -0.045011945 -0.061384402 -0.048458233 0.11279338 -0.1506465 -0.33073717 0.064172395 0.076341905 0.078111544 0.011473975 -0.028803965 -0.050391432 0.038036026 0.035063405 -0.013088106 0.20381317 0.014251139 0.06012166 -0.08526646 -0.0062934672 0.16073167 0.036277212 0.0076661697 0.05315575 -0.15014115 -0.15518014 0.02178309 -0.07740187 -0.07050559 0.09332422 0.13391133 0.2274583 -0.06598898 -0.05425374 -0.11893647 -0.053147964 0.02203011 0.07166224 0.10241313 0.07483093 -0.037492413 -0.11354196 -0.064871795 -0.037297964 -0.09542701 0.015570849 -0.06814282 0.018743 -0.032709736 -0.12588154 0.22994792 0.1147403 -0.06375603 0.060702443 -0.005435946
0.064023 -0.044425916 0.0021945906 0.036124602 -0.04886783 0.092585005 0.046979003 0.0027178673 -0.008795146 -0.06461332 0.06836924 -0.06847608 0.036157273 0.14925112 0.045254275 0.015248478 0.0696574 -0.030748788 -0.08351211 0.023891171 -0.039630555 0.041613 0.07110215 -0.023393784 -0.07268458 0.07411721 -0.057209536 -0.016393214 0.029638145 -0.011309511 0.0060230154 -0.056765027 0.0609316 -0.023463508 -0.070016064 0.119271524 0.08672108 -0.0232348 -0.06339548 0.010771117 -0.021070981 0.02517427 -0.051241662 -0.04328448 -0.052150913 -0.020524641 -0.03674836 -0.04073165 0.04040109 -0.097196296 -0.0006361985 -0.0054654432 0.004999511 -0.10475967 0.014410707 -0.008065516 -0.072058365 0.06065319 0.020751337 0.011008353 -0.08908827 0.038856212 0.07372024 -0.008194333 0.019166097 0.07413302 0.092965886 -0.049828265 -0.028702063 0.049830046 0.07518903 -0.0504545 0.0017042455 -0.0042111645 0.037399523 -0.00076864555 -0.07411314 0.065870084 0.04558581 0.07791834 0.03527594 -0.06551551 -0.053266026 -0.06481367 -0.085068494 -0.08629996 -0.044920873 0.05011597 0.018300422 -0.04040736 -0.025941048 0.03166069 0.14509334 -0.044814616 0.040332068 0.08290726 -0.041618444 -0.06720864 0.083730936 0.035799537 0.0715598 -0.08647158 0.035995096 0.023491556 0.046708677 -0.07153846 0.07179295 -0.005301453 0.079976626 0.049819265 -0.061139464 -0.03117954 -0.041888677 -0.049243968 -0.018323047 -0.055313617 -0.076330684 0.04106669 0.010737138 0.07931978 -0.060900863 -0.06107295 0.057476774 -0.046142645 -0.08932402 0.031002542 -0.058807146 -0.025051255 -0.036800705 0.006045952 -0.028491177 0.011217264 0.032766882 -0.042736202 -0.02234819 0.07495635 -0.11522431 0.057971302 0.0674539 0.061233602 0.005099229 0.035761137 0.04243506 -0.055632737 0.047041047 -0.009978943 0.028973812 -0.04129947 -0.0018133227 0.00449698 0.06946739 0.07430023 0.027815044 -0.03571309 0.05312382 -0.019231088 -0.03964826 0.055544 -0.011179363 0.009685268 -0.014895532 -0.017816976 -0.034496956 -0.046454135 0.07917257 -0.06334907 -0.016762037 -0.04349286 0.09255101 0.09684557 0.0687071 -0.091310374 -0.018644601 0.016339138 -0.011894169 -0.031076195 0.016419262 0.04702676 -0.015465147 0.056241326 0.013865229 0.0044794963 0.009358873 0.0025659972 0.009211466 -0.059948802 0.114582054 0.02780997 -0.05766878 -0.05266391 -0.012536173 -0.020900305 -0.009688525 -0.0059055197 -0.08841489 -0.066487715 0.040497508 0.101226404 -0.045879617 -0.036102537 -0.022224976 0.022698484 0.080933176 -2.3359502e-05 0.077611856 -0.06351758 -0.050266683 -0.0044318233 0.1124861 -0.013899495 -0.03793355 -0.021484476 -0.05881116 0.01333272 -0.042046268 0.023321064 -0.0347937 0.002320134 0.021885322 -0.043782335 0.014331886 -0.15385577 -0.046900716 0.030582437 -0.030202068 -0.025963182 -0.01977608 -0.04922018 0.03838554 0.013082367 -0.075410694 0.023742096 0.078738056 0.015192262 0.055348273 -0.0781762 -0.10541113 -0.07540603 -0.09289657 0.07652811 0.077979885 0.082584254 0.08267198 0.080750994 0.023108132 0.037632704 -0.03136564 0.01878238 -0.0387208 0.10101796 0.0065866415 -0.0069723045 -0.049427416 0.048771217 -0.10111397 -0.04001264
0.041950237 0.024047347 0.08403521 0.06299623 -0.07553306 0.06997515 0.07387325 0.09250433 -0.035239507 0.103995256 0.07055194 0.04191756 0.05973995 -0.017642591 0.01609394 -0.033762425 0.024330594 -0.020468187 -0.018193742 -0.0799219 0.01821948 0.120481394 0.014411049 0.10834318 -0.07091228 -0.00043518373 -0.052135643 0.010911685 -0.01589607 -0.010744226 -0.051625982 -0.0065633403 -0.027592387 0.07853296 0.058664557 -0.03779911 0.014390084 -0.018429263 -0.07623291 -0.038017076 -0.109364025 -0.050678577 -0.048383143 -0.02084535 -0.04369328 -0.0003140999 -0.06579395 -0.0736001 -0.015428274 0.052795198 -0.0489335 -0.05042573 -0.009689372 0.020253468 -0.07048156 0.057947136 0.028165892 0.015454281 -0.0013357991 0.06660168 -0.02777127 -0.0010748734 0.08941078 0.04228206 0.015599939 -0.026851846 -0.0367376 -0.05119138 0.068826534 -0.0634026 -0.010162983 -0.022856276 -0.0019098836 0.058512293 0.014650784 0.07328897 -0.022084517 -0.01033059 -0.028664319 -3.3458047e-05 0.059879642 -0.06656617 0.056885686 0.039654084 0.025071198 -0.07017568 -0.0677756 -0.025429297 -0.0133195575 0.04229691 -0.06565551 0.08207669 -0.11291501 0.11733823 -0.05524161 0.060353167 0.036312338 -0.010003611 0.031202551 0.042290494 -0.10640541 0.10037761 0.11628721 0.00075277005 -0.0021456175 0.05605917 0.02445268 0.10956111 -0.07382854 -0.14105202 -0.03581669 -0.019465782 0.0060163257 0.076352194 -0.004036775 -0.10797333 0.07131397 -0.023759276 0.022224765 0.025691634 0.0622057 -0.12715347 0.009728383 -0.019680304 0.036551636 -0.08676072 -0.024639405 -0.051495284 -0.028631713 -0.04085238 0.009137989 -0.008782917 -0.027320312 -0.009469963 0.03930532 0.09065104 -0.07666544 0.033914074 0.087412275 -0.05353869 0.024567671 -0.05175417 0.03249307 -0.02190013 -0.037391927 -0.03656035 -0.065916434 0.06567427 0.0039480226 -0.060190566 0.006412432 -0.0737577 -0.021524198 -0.058601163 0.02012561 -0.00793684 -0.010868657 -0.038341604 -0.022891147 -0.010657888 0.068736106 -0.11080648 0.038952168 -0.025931403 -0.02257725 -0.04356022 -0.06720324 -0.021609409 0.051080532 -0.038097657 -0.08738274 0.014165173 -0.04292235 -0.010800425 0.057739783 -0.048649967 0.0002708899 0.04438988 -0.031007536 0.017762205 -0.0883325 0.079076834 -0.10385396 -0.05498611 -0.05523544 0.09038525 -0.03609743 0.019584803 -0.05931418 -0.060559843 -0.055226393 0.035426985 0.02650448 -0.008587205 0.090601616 0.124697305 0.07984412 0.061841577 -0.07456205 0.018253008 -0.026831694 0.07716273 -0.07056608 -0.06692468 0.027866645 -0.053635795 0.010067304 0.060795933 0.017969947 0.084800266 -0.045137048 -0.006347511 -0.01824271 -0.050442833 -0.009790171 0.012368837 -0.014383166 0.10949021 -0.051805925 0.032333687 0.06347419 -0.06708949 -0.017344078 0.055100642 -0.06118964 0.0430788 -0.016609108 0.03352386 0.04024062 0.0741086 0.07442668 -0.05539027 0.06715554 0.043639213 0.0638504 -0.023070998 0.0142387245 0.0061032483 0.10947155 -0.03471549 0.13724467 -0.017634436 -0.024865353 0.0022785906 -0.046183128 -0.0038607912 -0.020612404 0.007144572 -0.096941344 -0.026879584 0.0052547716 0.06788938 0.053497758 -0.07893258 0.040341463 -0.08457471
0.078558244 -0.033584855 -0.016689373 -0.07428312 -0.013703068 0.09963208 0.027257595 0.07362416 0.0005542007 0.011003078 -0.021458132 -0.0034049007 -0.06690419 0.051994443 0.07051096 -0.026377367 -0.059385378 0.056054965 -0.0075402097 0.037193276 -0.018508852 -0.08278769 -0.0060682544 0.014493162 -0.08298661 0.04020144 -0.031191109 -0.05616945 0.110460624 -0.06448799 -0.0016730969 -0.06449316 -0.097263075 0.0013386777 0.039972797 0.028770208 0.060788184 0.069964685 -0.022757128 -0.050549634 -0.037120238 0.069864675 -0.08421915 0.041800905 -0.0041833855 -0.07869426 -0.038571488 0.005356933 -0.0038710292 -0.05360269 0.040858332 0.026090853 -0.0015224785 -0.0073485887 -0.025101155 -0.108011305 0.04165013 0.05713694 0.04467724 0.021710688 -0.0012467714 0.018890185 -0.07733214 -0.061023116 -0.09356525 -0.023064189 -0.022468789 0.018161656 0.0074950717 0.081561245 -0.0025585992 0.052059107 0.102346875 -0.031463936 0.00067429076 0.036458932 0.057836358 0.036881033 -0.08831473 0.017669437 0.024046887 0.0074457084 -0.073148355 -0.0758359 -0.0072936346 -0.09261266 0.008167714 -0.053303655 0.08716793 -0.09448015 0.055831015 -0.05664708 0.0466218 -0.07006179 0.04521306 -0.08904911 -0.04530517 -0.069220036 0.07292022 -0.06412161 0.07776873 -0.06268285 -0.087889865 0.02341193 -0.03244438 0.025695076 -0.09991452 0.070429936 0.03889826 0.01150427 0.020039156 0.010822453 0.0020606006 0.028010009 0.12420964 -0.07460745 0.006983991 0.009186333 0.014808517 0.028867472 0.03964037 0.025951533 0.010057898 0.00813605 -0.027350048 0.025831806 -0.052329443 0.05190729 -0.06697908 0.06434953 0.045092087 -0.04685554 -0.064432934 -0.034474365 0.00061816873 0.021555554 -0.13224855 -0.06468615 -0.009801867 0.04475873 -0.08073736 -0.00094105734 0.07044855 0.017930128 0.042265568 0.054205354 0.01535374 0.09055426 -0.012765846 -0.076457046 -0.050716262 -0.10352923 0.09021866 0.0063449964 0.019478135 0.011563548 -0.022866718 -0.04625767 0.03876992 -0.066806816 -0.004316776 0.02445089 0.041500155 -0.033781257 0.009529552 0.05446011 0.12886135 -0.061297085 0.06549285 -0.011434376 0.028871974 0.0315752 -0.036753397 0.042330038 -0.076771036 -0.010815143 0.006543364 0.07657567 -0.06872592 -0.08857054 0.009560821 -0.088508084 0.008012175 0.084654026 0.04721049 0.07349778 -0.058463544 -0.012086914 -0.08995266 -0.03319441 -0.083246864 0.07775935 -0.0024889994 0.095449306 -0.018073414 0.08926716 -0.019267544 -0.024263192 0.05559913 0.004556883 -0.08304886 -0.020323535 0.09864281 0.11355256 -0.104907595 0.026012145 -0.044763256 -0.00767124 0.07867104 -0.031688653 0.02354028 -0.057738483 0.086041056 0.07962529 -0.082211934 -0.03942308 -0.027735187 0.050030142 0.06364672 0.051302984 -0.08184183 0.03722098 -0.12614875 0.06899877 0.009031384 -0.078274965 0.0055298633 -0.052587844 0.06146492 -0.07505191 -0.052388307 -0.0064630564 0.07995172 0.035635687 0.0652146 0.04136772 0.0041305213 0.030426927 -0.024103355 0.008593804 0.051633894 0.022954455 0.0947787 0.05626269 -0.017433481 -0.041939024 -0.06037719 -0.08906509 0.036087275 -0.030036826 0.020830134 -0.018796492 0.0025709658 -0.040185362 0.06539461 -0.09643121
