-0.09612552 0.12256701 0.21408662 -0.06801833 -0.05169193 -0.08214353 0.0769931 0.04322948 -0.08518735 0.011442503 -0.00046458194 -0.008655918 0.0229704 -0.04357343 0.018411512 0.083820686 -0.0029551953 0.11220192
0.1485742 0.040279396 -0.004301345 -0.0077496828 -0.021157186 -0.025192609 0.11061712 0.12617183 -0.02932053 -0.009986888 -0.0108511355 -0.009473609 0.020984314 -0.004546058 -0.034738313 0.05571819 0.0026008745 0.16939132
0.03871242 0.6491279 0.064356506 -0.00015912509 0.008249062 -0.0014355076 -0.048529487 -0.004062466 0.04011792 -0.13738102 -0.017048135 -0.00065667497 -0.012531212 -0.003987848 -0.019986348 -0.027476475 0.010943491 -0.21854784
0.10632451 0.5403857 -0.065105505 0.20736212 0.029918285 0.030291146 0.43970913 -0.015754001 0.014276441 0.16285394 0.21565671 0.13772438 0.10122362 -0.12023459 -0.05170754 -0.032048505 -0.039293785 0.07642794
-0.18045807 -0.032255776 0.31327868 0.016828574 -0.0036470855 -0.013436003 0.057737015 -0.007319399 -0.12366809 -0.12545292 0.010077104 0.009969747 -0.0045195194 -0.0034798847 -0.03249735 0.046312645 0.012271894 0.11078583
-0.29974467 0.11864454 0.34632608 0.13609672 -0.07683503 0.059852548 0.011387657 -0.020719482 -0.010043148 0.05497403 0.046864092 -0.015908167 0.049261026 -0.041631814 0.08228655 0.032601736 0.027101701 0.028787095
0.07849853 -0.03383152 0.41817328 -0.013452501 -0.0057715606 -0.003011591 -0.17785837 0.027443258 0.025603216 0.03624336 -0.010631842 0.037747305 -0.04028858 0.07527324 -0.056115802 -0.05324831 0.019895054 0.041885693
-0.17218792 -0.28020713 0.010312351 0.05172102 -0.101193696 0.048057817 -0.16298741 -0.037317745 -0.020586474 -0.17726547 0.056884177 0.09345315 -0.054879162 0.015271169 -0.08023462 0.051796023 -0.033140905 -0.2106391
-0.13267899 0.1550898 0.039545517 -0.0010648168 -0.0017957579 0.001969026 -0.034167722 -0.002264295 0.014569606 0.051100194 0.0029178225 0.0011735156 -0.00079815317 -0.0056634066 -0.0061159614 0.0032236844 0.0022003227 0.0063865455
-0.055887625 -0.4495571 -0.15313815 -0.00018629203 0.03616286 -0.08652193 -0.003399732 -0.045438163 -0.007690112 -0.08049128 -0.10569934 0.15602954 0.115694135 -0.11166763 -0.117416166 -0.013598522 0.014414814 0.013473132
0.3259002 -0.0670643 0.10312758 0.009485953 0.008199638 -0.0075818137 0.05566741 -0.05004886 0.00092206657 -0.035889175 -0.02305849 0.00043689858 0.010481918 0.0052876533 -0.009211688 -0.012162059 -0.0005676793 -0.022178782
0.025504962 -0.01727833 0.0048602847 -0.107042804 -0.05028519 0.01192536 -0.2486278 -0.121967055 -0.08856893 0.08592465 0.11136434 0.0009153913 -0.12534572 -0.014862215 0.014726231 -0.03301007 0.010573907 0.17073525
0.56124157 -0.28145066 0.26023132 0.06857639 0.019238513 0.005247677 -0.051085897 -0.004492714 -0.012146368 0.0078011015 -0.099380985 0.012428985 -0.114408374 -0.001706111 0.061246693 0.0119143 0.030203868 0.0032459786
0.04526481 -0.42089796 -0.22136301 -0.029511424 -0.039437022 0.032647274 -0.40529484 -0.056369983 0.0038179173 0.24879216 0.00502326 -0.0026391507 -0.043542963 0.097924694 0.08413116 0.046058733 -0.009329308 -0.06260592
0.13326529 -0.4603205 -0.41095462 -0.008491193 0.07763445 0.032626294 0.40967414 -0.026199428 0.051672682 -0.058704384 -0.00067270926 -0.011199775 -0.0060992306 -0.024694487 0.026759434 -0.11987983 0.00024467555 -0.0044590137
-0.10325487 0.24097416 0.44560093 0.009146719 -0.00082150917 0.03860237 0.5322915 -0.094479345 -0.04582353 0.010879617 -0.016275803 0.03852941 0.027636534 -0.039314047 0.08319698 0.01708465 0.01484604 -0.025049653
0.06698559 0.47774568 -0.044320725 0.037516985 0.08864645 -0.04438958 -0.0733031 -0.079510234 0.025258297 -0.01156242 0.036925323 -0.03774097 0.00055886025 0.010836137 -0.12578577 -0.14105 0.0127432505 0.0201892
0.2962672 0.6789925 0.14590546 0.009101992 -0.021593433 0.0010554949 0.17838909 -0.05495377 0.03498338 0.011284575 0.014890502 0.005131593 -0.0021597443 0.0053427243 0.0026400657 0.03530541 0.007316277 -0.14398348
0.34860426 0.46277153 0.02178505 0.0037620233 0.024142146 0.025324734 -0.17223194 0.019362208 0.011969431 0.009517921 0.01043032 -0.0074207317 0.0036840956 0.011592209 0.024687527 -0.07578048 -0.0038036194 -0.03810714
0.11731039 0.103757754 -0.078719236 -0.0018272997 0.04729658 -0.02061283 0.100902334 -0.04243618 -0.029375557 0.038612556 0.0056382427 -0.013793143 0.047517978 -0.009407155 -0.009705122 -0.10536021 -0.0057318867 -0.010491367
-0.1229601 -0.074718125 -0.06512935 -0.09811792 -0.057569712 0.12631157 0.058834534 0.07350354 0.05520752 -0.09785698 -0.12539291 -0.2821301 0.21656322 0.1811666 0.031371694 0.00753776 -0.023365058 0.07066843
-0.5362716 -0.205006 0.053944476 0.036434308 0.014507723 -0.080224745 -0.024365883 -0.045063842 -0.061704766 -0.043391116 -0.026490837 -0.030109828 0.04626592 -0.013537681 -0.1360004 0.028419614 0.00076232624 -0.01107374
0.09146055 -0.13640304 -0.15401122 -0.076121055 0.027099112 0.078141086 0.14763203 -0.00027982594 0.057616875 0.06619392 0.046557438 -0.019303305 0.0933839 -0.06446878 0.08285291 -0.14213929 -0.03292255 -0.01651783
-0.21770476 -0.4027696 0.09296644 -0.000590189 -0.016939702 -0.017582178 0.0799488 0.110745855 -0.046272002 -0.10357538 0.011102977 -0.007770943 -0.0056329197 -0.02067776 -0.022103822 0.054976825 -0.0004292126 -0.009364493
-0.019832978 0.5935701 -0.40678376 -0.05326373 -0.06957331 0.009548587 0.082753226 0.0062177693 0.0045888587 0.030162275 -0.00077768345 0.036184534 -0.04519131 0.042195853 -0.02579653 0.024949139 -0.0044533913 0.017005617
0.48227602 -0.027640749 -0.093130596 -0.01780278 -0.011138921 -0.07917889 -0.059383195 0.10793151 0.023307571 -0.17048874 -0.021975834 0.01152134 0.03476352 -0.00893142 -0.13667405 0.04010347 -0.0015036251 0.031851258
0.022897605 0.36414242 0.029753381 0.0059785345 -0.01147297 -0.025527745 0.16722971 -0.023267299 -0.0068581128 -0.014056859 0.008848678 -0.009914815 -0.013529282 -0.004512185 -0.06054981 0.007770245 0.0024666074 0.024602579
0.06920321 -0.17940216 -0.01271871 -0.04359368 -0.1230798 -0.08597841 -0.009340905 -0.021062404 -0.023269868 0.10345772 -0.110250406 0.11010628 -0.08212569 0.04172464 0.091612294 -0.044580247 0.10754348 -0.033568397
-0.18402244 0.049673177 0.21701537 0.101863064 -0.059205823 0.064289965 0.3260204 -0.1743044 -0.039194647 0.0069054356 -0.010950752 -0.020356126 -0.010740592 -0.013382787 0.12403606 -0.049758524 0.0074629597 0.016032796
-0.04744503 0.13515791 -0.13843837 0.006523886 -0.02619072 0.0478883 0.20540938 0.10634309 -0.059710614 -0.0033479575 -0.013678551 0.008943094 0.011103534 0.0070061586 0.13968067 0.034105215 -0.004582454 0.08343525
0.22547443 0.29416287 0.013591191 0.015683144 0.026447933 0.00035846257 0.3026298 0.044261567 -0.01557782 -0.01730979 0.019011745 -0.0069131684 -2.4636203e-05 -0.025059776 -0.011134318 -0.04029792 -0.0024699327 0.011115201
-0.5553083 0.28437108 -0.11884138 -0.002670547 -0.0082095275 0.020785838 -0.03903786 0.016721481 0.01375077 0.013599854 0.0019736853 0.013214254 0.00030079612 -0.0009861642 0.034277767 -0.012353424 -0.00779624 -0.005009709
-0.77213806 -0.46024576 0.65218014 -0.05491207 0.000934726 -0.015134296 0.34892502 -0.029973017 0.0010737502 0.0062611043 0.049549222 0.031903856 -0.029299261 0.002704676 0.08154973 0.032143768 -0.0008936961 0.0015929401
-0.0703097 -0.3856245 0.033160146 0.13916461 -0.1539486 -0.09089146 -0.14772968 -0.021319058 -0.0013567011 -0.026182884 0.15966901 -0.053965017 -0.04023676 -0.046779033 -0.000710475 -0.05982725 -0.06683552 0.014017422
0.16620986 -0.070755385 0.017600656 0.021601642 -0.04537129 -0.08562094 -0.2612452 0.07160302 -0.06813948 0.08008409 0.033608653 -0.02425482 0.023493312 0.09509205 -0.16127804 0.0033415707 0.00526821 0.032408003
0.0026442972 0.06673261 0.23280132 -0.14843725 0.06912677 -0.14339699 0.010598475 0.05456305 0.045873005 -0.064950675 -0.08204499 0.10067515 0.1847187 -0.11702581 -0.048001017 -0.030262884 0.007990516 0.022500021
0.067280404 0.4368937 0.13850248 -0.13550523 0.019274674 -0.057653688 0.17471631 -0.050527 -0.01759905 -0.13135557 0.049087077 -0.119979985 0.054125417 0.01807385 0.0071160616 0.041236 0.016852977 0.10830639
0.09038259 0.23563057 -0.13371257 -0.17894459 0.07411403 0.016178925 0.16841637 -0.0338212 -0.040165436 -0.08795673 0.30242255 -0.16166188 -0.053367414 0.082026824 0.002106576 0.03734427 0.07992917 0.010881803
-0.1042118 0.40285394 -0.06997085 0.023808802 -0.018783696 0.012152179 0.03559563 -0.0962659 0.05575578 0.0147564 -0.007418832 0.041225206 -0.013213294 0.0061317342 0.0032322358 0.005564499 -0.0045332545 -0.09586943
-0.3014585 0.35895276 0.41908166 -0.14074472 0.059122458 -0.031427845 0.025597187 0.02002662 0.010614778 -0.047845572 0.05127757 0.010914494 -0.038387924 -0.017267758 0.022752898 -6.382723e-05 -0.027848653 0.04379671
0.21804932 -0.2545609 -0.021172259 -0.013050019 0.011082448 0.0049149333 0.048868123 -0.01805709 0.0008212279 0.09477139 -0.022599297 0.03354174 -0.022220701 0.018957669 -0.0040472946 -0.07256726 -0.0004938906 -0.023446802
0.0349252 0.17964242 0.100794084 -0.15179041 -0.15626861 -0.1987633 -0.052348264 0.006922476 0.016140616 -0.15264964 -0.11814018 0.12492873 0.12933643 -0.028603276 0.006827451 -0.022121768 -0.012313517 0.008572077
-0.30006105 -0.2877305 -0.075779386 0.0020386886 -0.0006698078 -0.048079994 -0.6139363 -0.03143513 -0.060534716 -0.06420803 0.042614475 -0.012745734 0.018686172 -0.021027373 -0.069674484 -0.007153419 0.007891752 0.03361076
0.06345733 0.0662461 -0.34485927 -0.05283825 0.05880634 -0.08010475 -0.021050218 -0.0153312925 0.0006990158 0.04932834 -0.023556849 0.12329206 0.032622408 0.10056223 -0.11742904 0.006979798 0.03240138 -0.04258708
-0.5116602 0.7253228 -0.04195702 0.0009251999 0.007735159 -0.0053534 -0.063624255 0.023547694 0.0058168895 0.0022350666 -0.019608393 0.0057057478 -0.0076521826 0.014534594 -0.023838438 -0.041716594 -0.009638432 -0.015752273
0.16225334 -0.039690755 -0.056325648 -0.20344517 -0.021564864 0.0824272 0.1532635 0.013360587 0.010752773 -0.033548985 0.021266116 -0.03153889 0.054945886 -6.1548075e-05 0.07820351 -0.0028267892 -0.039934903 -0.008200795
-0.06039219 -0.23407371 0.2819018 -0.059695072 -0.09502389 0.06378623 0.032089617 -0.03563388 -0.08045489 0.04486664 -0.13078386 -0.046644893 0.07629278 0.12943454 0.060288753 -0.021311859 -0.033894908 0.08430747
0.058722973 0.2864755 0.017129507 0.04690325 0.03656769 0.09072838 0.09890525 -0.039126907 0.09719786 0.13239224 -0.12527515 -0.059256133 0.009915309 -0.07900318 0.109637395 0.05772486 -0.02836889 0.033387873
-0.07436472 -0.08217379 0.0022266987 0.0019785 -0.015978752 0.027974248 0.054128844 0.006629771 0.21255271 -0.01745929 0.02050914 -0.026798513 0.015291549 -0.031600267 0.04255624 0.019616248 -0.010204774 0.06710062
-0.41161698 0.23189373 -0.005218658 -0.088103 -0.12551014 -0.0934215 -0.013150042 0.012342073 0.018880444 0.09576432 -0.13427334 0.12173342 -0.060356226 0.094084986 -0.08208269 0.09481253 0.095182106 0.026180666
0.4541455 0.11468185 -0.107185766 -0.074904546 0.026360469 0.19898796 0.30524415 -0.016475124 0.016705824 -0.08261811 0.14723775 0.14352138 -0.1750481 -0.17435354 -0.11645148 0.07528679 0.0083368495 0.09321667
-0.10699062 -0.0149605265 -0.20866816 0.18147613 0.11187293 0.10764232 0.103221595 0.04268921 -0.007227439 -0.008750974 0.018915808 0.005049433 0.03705664 -0.04012408 0.08297767 -0.021896668 0.005877944 0.01503035
0.14901868 -0.008505397 0.15857051 -0.026681162 -0.015272425 -0.0022013728 -0.4632166 -0.002067175 0.007204727 0.049500592 -0.037314154 0.040289238 -0.0242167 0.03034785 -0.021492297 0.022866433 0.013463123 -0.049571577
-0.13355622 -0.053937614 0.1478447 0.008282195 -0.020188563 -0.013198823 0.05271026 0.009926115 0.008890577 -0.0052563357 0.009156953 -0.0139787765 -0.02747672 0.014966552 -0.03301845 0.009310109 0.009759267 0.026450712
0.36592093 -0.08628128 0.021896033 -0.021928504 -0.024145054 0.005459232 0.23152491 -0.03036341 -0.011591452 -0.03145728 0.0030507522 0.021337474 -0.02594964 0.018770864 0.009354377 -0.009872845 -0.00080419326 -0.02217447
-0.30681294 0.2984217 -0.207113 0.05126412 0.011502613 -0.077569604 0.21342759 -0.047802053 0.027412452 0.07195792 -0.0711347 0.004078301 -0.003660516 0.020315602 -0.10272791 0.018804349 0.005170444 0.037386794
-0.22908011 0.024756769 0.19433397 0.012791156 0.037938084 0.09503899 -0.059101302 -0.018913424 0.037660543 0.36294445 -0.07805302 -0.08509611 0.19073804 -0.20412052 0.072160065 -0.051159848 0.01026711 0.027494224
-0.036816888 -0.012696027 -0.265754 0.026332172 0.025097478 -0.0021418373 0.20729348 0.12332445 0.048321914 0.038254555 0.0034951149 0.015415414 -0.03466888 0.0011604286 -0.03316351 -0.058869507 -0.004189948 0.005322875
-0.10453255 0.44676405 -0.116105266 0.0017714623 0.020528644 -0.0062835887 0.4988984 0.054046996 0.09311566 -0.029205324 0.017133635 -0.008836089 0.016967768 -0.03457768 -0.049534455 -0.042005274 0.008447978 -0.00050714193
-0.02512693 0.10245102 -0.261799 -0.21915543 0.03467475 -0.19807069 0.13491896 0.026340116 -0.0069114543 0.1392295 0.042871404 -0.023754599 -0.035633165 0.063046895 -0.009378 -0.019844757 0.03255171 -0.006332864
-0.14250784 0.06000379 0.3212067 -0.030522786 -0.023830337 -0.0790363 -0.2605766 0.016709825 -0.017519208 0.18276799 -0.04663115 0.04331363 0.12515801 -0.32899138 0.005995281 0.030392164 -0.107880645 0.08086015
0.2955874 -0.50992185 0.9009719 -0.08355016 -0.018085845 -0.086597435 0.063985914 0.05479474 -0.03489063 0.03647618 -0.12027107 -0.07300436 0.029362794 -0.021796081 -0.04589258 0.099081784 0.040086135 -0.007875628
-0.042917676 0.3436191 -0.03742139 -0.013786937 -0.024314296 0.010204764 -0.040869754 0.015206645 -0.052297898 0.04699913 -0.012183521 -0.0004838626 0.011527694 0.012055325 0.04149553 0.04617092 -0.0050027343 0.007923941
0.30459905 0.095655315 0.0047132503 0.08573599 0.036360323 0.0012433426 -0.17438565 0.031513326 0.010318889 -0.13683403 0.053216502 -0.005916502 -0.046665102 0.03788887 -0.016153634 -0.12117283 -0.007087006 0.020102235
-0.17473269 0.0029090205 -0.36939198 -0.09932589 -0.011706266 -0.030253919 0.9745854 0.034003083 -0.027872443 -0.075927034 0.057459004 -0.026284715 0.0527395 -0.048428323 -0.08704388 -0.019370109 0.006415489 -0.016837671
-0.22592473 -0.06607146 0.095605664 0.012850279 -0.17559296 0.055110913 0.27429095 -0.012953403 -0.044763155 0.039367016 -0.0062234956 -0.10290654 -0.28141803 0.023106478 -0.007708398 0.060213484 -0.03614064 0.038517933
0.22314923 0.6223301 0.08125645 0.018451823 0.0045795203 -0.056966495 -0.10945013 0.04161669 0.028084297 -0.031807 0.00197538 -0.044664998 0.028753195 0.0063999677 -0.122403376 0.010246013 0.011407485 -0.20120105
0.2461551 -0.15317674 -0.106312685 -0.0030366066 0.007604576 0.012113851 -0.11913415 0.025963508 -0.05556623 -0.088864386 0.12659909 0.0011465984 0.051921766 -0.055569958 0.04050486 0.016667526 -0.013064845 -0.061095156
0.018823104 -0.094853856 0.19340938 0.016429033 -0.0009524158 -0.044957984 0.5527058 -0.0010887227 0.017006619 0.014951149 0.020942736 -0.018349698 0.019245297 -0.03512932 -0.078315 0.023106854 0.0041470276 0.05586679
-0.20071168 -0.24594286 0.25558487 -0.0334535 0.014257352 0.042223487 -0.28139552 0.0036387471 0.012116167 -0.013226073 -0.022780031 -0.042416543 -0.013289368 -0.0056493483 0.011918432 -0.017839245 0.013556028 -0.002216996
0.7094893 -0.3268919 0.056171037 0.025619455 0.020291682 -0.014651659 -0.37196338 -0.23796721 -0.025434267 -0.08287761 0.0063729086 -0.014018784 0.0052215355 0.019727372 -0.06970867 -0.059702907 -0.014957675 -0.044360325
-0.36113143 -0.6609612 -0.15460902 -0.002508299 -0.054923948 0.018814128 0.2917397 -0.004761766 -0.11968382 -0.19843857 0.04156226 -0.0027610064 -0.038929746 -0.004639778 0.078153625 0.07754186 -0.0030174651 -0.1744286
-0.2803984 0.25926134 0.16325635 -0.014787302 0.026085725 -0.040601864 0.11772224 0.033014223 -0.021903565 0.070307136 0.03141224 -0.027501194 0.025922602 -0.042665128 -0.07103075 -0.041098587 0.0061555663 0.13667543
0.16354759 -0.15564625 -0.14757171 -0.0051989025 0.012201843 -0.023982743 -0.036447145 -0.0029613036 0.03581095 -0.07770579 0.0025602884 0.0010540754 0.000117477575 0.0041503245 -0.04245685 -0.0067206365 -0.010269725 -0.030147213
-0.122565515 -0.08742485 -0.7210162 0.09982293 0.051117413 0.0060341256 -0.09496427 0.0029579785 -0.0094152335 0.02799901 0.05872977 -0.03196839 -0.03658674 0.016099595 0.021809338 -0.044636935 -0.095584504 -0.0026047921
0.13628244 -0.08677998 0.21870506 -0.09488998 -0.078655876 -0.0821437 -0.47202787 0.026238235 0.02341343 0.26628998 0.11815347 -0.2374917 0.12633672 0.102490485 -0.045162298 0.052549776 -0.033660043 -0.014980958
0.012727143 0.16349839 -0.53393894 -0.014941619 0.06340925 -0.032066707 -0.73247176 0.1206387 -0.051170997 0.16271682 0.024013994 -0.016988305 0.06336064 -0.03676192 -0.035932194 -0.06067112 -0.030553384 -0.06648537
0.005994784 -0.08170667 -0.07205433 0.09099615 -0.166362 -0.18838422 0.17737105 0.025537208 -0.0034410064 0.005647265 0.1063364 -0.060187094 0.08046392 -0.057596173 -0.016071254 0.06921252 -0.08940711 0.0074330117
0.21736759 -0.74438727 0.21509297 -0.011408127 -0.04835343 -0.033934165 0.015215706 -0.018889572 -0.11986382 -0.077007085 -0.03614003 0.0071559353 0.020746576 0.023977822 -0.066025406 0.105351835 0.0055073127 -0.042360447
0.3828944 0.05558798 0.5632357 -0.016275967 0.06564032 0.021520928 0.06596385 -0.0119606685 -0.0017193512 0.036595415 -0.060814083 -0.0063422965 -0.008268257 -0.017307919 0.0068858946 -0.091594756 0.015947219 -0.011435013
0.11479628 0.04467596 -0.31637257 -0.012852476 0.0026060094 0.053739432 0.45300663 -0.11326072 0.010668365 -0.005167332 -0.005346123 -0.006317409 -0.035955735 -0.003557877 0.098810256 -0.026170917 -0.002050786 0.036525734
-0.8161508 -0.033301745 0.1382893 -0.008899234 -0.00021433791 -0.005372892 0.74508095 -0.015091439 0.012214704 0.07316004 -0.0023045656 0.020928342 -0.007647063 0.04376488 -0.022885283 -0.022630107 0.0046555516 0.026524156
0.109631054 0.04494175 0.26640576 -0.019723637 0.030261647 -0.011355308 0.13996743 0.074239865 -0.004949521 -0.07228991 -0.0017927014 -0.0037483708 -0.019502196 -0.0071705454 -0.024521315 -0.03124642 -0.0041795955 0.005935523
0.011632648 0.14526051 -0.029119441 0.008494936 0.0042412872 -0.024017122 -0.013559933 -0.014764752 0.008156721 -0.018166818 0.008209849 0.0074933004 -0.022275126 0.020588938 -0.021102214 0.017641736 0.00051812746 0.036193527
-0.5139568 -0.22463767 0.18320876 0.0441907 0.07155173 -0.026593443 -0.14042588 0.05172072 0.08610975 -0.057870485 -0.0110430075 0.024067428 0.0485674 0.025513656 -0.04368306 -0.05510872 -0.0129656475 -0.05380829
0.0026091929 -0.26283187 -0.3920663 0.094133325 0.042150635 -0.06996808 0.4774611 0.014754161 0.017999472 0.0012193205 -0.065693915 0.045950633 0.08690914 0.05951405 -0.095615834 -0.04453373 -0.022987125 0.0029390058
0.16675214 0.044201333 0.33370626 0.0063130157 0.01573767 -0.0027699047 0.3836433 0.04947741 -0.0031922513 -0.22363028 -0.0010198092 0.0033517173 -0.020069346 0.03898823 -0.018938484 -0.0407084 -0.0012075555 0.056341365
0.19921833 0.6446239 -0.016464725 0.025656793 -0.10423485 -0.12104154 -0.07438916 0.034162056 0.07329436 0.04533157 0.08341627 0.038505968 -0.10268562 0.010643548 -0.017244142 -0.068509676 0.0015167423 -0.03505564
0.48238963 0.3321174 -0.12940983 0.019252751 -0.0057201036 0.042971473 0.7594926 0.16306145 -0.083821714 0.037761312 0.00896017 0.049385235 -0.041887525 0.032252725 0.051032677 0.0059539694 -0.013699768 0.08108383
0.37744844 0.50285316 -0.034287654 0.012551927 -0.019078158 0.046362866 -0.37690267 -0.060518347 0.0024052619 -0.093490995 -0.017576205 0.033389017 -0.0340978 0.026991388 0.07321835 0.01348467 0.00014855634 -0.027212778
0.5052235 0.059088916 -0.4889705 -0.07028863 0.0070237177 0.05313121 -0.0019007066 0.02215931 -0.011688196 0.041930843 -0.099400595 0.05387133 0.0055192374 -0.0035528778 0.11561012 0.0012546472 -0.037611827 -0.02443331
0.12800585 0.22875789 -0.13522607 0.011754564 -0.048861172 -0.017324828 0.35819575 -0.01699209 -0.005702258 -0.050843243 -0.030788133 -0.034388613 -0.062124234 0.04934587 -0.014807262 0.04794505 0.014418786 -0.050911274
-0.17261064 -0.17628758 -0.22458142 0.008570774 0.02979466 -0.031586908 0.018545922 0.18198785 0.05955808 0.034014884 -0.0063919653 0.028631123 -0.0035866527 0.062031377 -0.047117785 0.06939376 0.01859504 -0.023822995
0.08701202 0.042888824 -0.11116695 0.0033670424 0.011862155 -0.0037818747 -0.10201471 -0.00601564 -0.0031769671 0.05447947 -0.011618833 0.019971358 -0.018195042 -0.00054235343 -0.001175449 -0.0048852446 0.003925609 -0.0049412604
-0.17523284 0.13457784 -0.10741104 0.03352315 -0.027387835 -0.02091375 0.42088756 -1.00984325e-05 -0.013381333 0.022425735 0.037229173 -0.01522265 -0.010992911 0.01841221 -0.023651546 0.041243475 -0.004316028 -0.007167329
0.004303427 -0.062529765 -0.0011219122 -0.22979908 0.08501317 -0.057180386 -0.13637096 -0.02449311 -0.0060364027 0.018897565 -0.10672358 0.0031319465 -0.034210056 0.012095657 0.025030358 0.0030079882 -0.048862405 -0.01963777
0.44098344 -0.10499869 0.32029942 -0.012190446 0.027098183 0.051550407 0.13725477 -0.042026322 -0.0037477855 0.026100755 0.05165063 -0.025078062 0.06627653 -0.028162556 0.07967414 0.011593335 -0.0007959132 -0.03516232
0.5343237 -0.3396087 -0.0948417 0.012728645 0.022991871 -0.024398752 0.33399537 -0.091147125 -0.012429723 0.026596691 0.008800828 -0.00680079 0.013011469 0.0150894495 -0.07035036 -0.024988374 -0.012896436 -0.04259372
-0.09316569 0.33778223 0.0032494005 0.19801238 0.040383406 0.069334045 -0.071134076 0.02423448 -0.032890894 0.2049525 0.0316424 0.0808165 0.0020465283 -0.047006566 -0.06390958 -0.03198078 0.01736839 0.0022423915
0.12628256 0.24887782 0.10408862 0.06320741 0.04372865 -0.041953374 0.0126448 0.0038892599 -0.021468066 0.022525942 0.041402385 -0.04415875 0.03268219 -0.022939019 -0.13404971 -0.052652616 0.010400055 0.056519326
-0.24323106 -0.47801316 -0.019877613 0.08247948 -0.06013955 0.04344461 -0.21173814 -0.029412316 -0.030598572 0.051082503 -0.019670254 0.028488206 0.065536916 -0.012151828 0.03714648 -0.029575875 0.016449828 0.018206568
-0.25024247 0.27828646 -0.09537351 0.008795366 0.020444509 0.009921463 0.1565125 -0.15713716 0.09550171 -0.026091442 -0.01116596 0.02327334 0.0040694796 0.01862338 -0.0012363392 -0.041744564 -0.008120114 0.03143051
-0.42959803 -0.34424508 -0.120989904 0.09899518 -0.0243958 0.044737022 0.07345044 -0.024162276 0.036810108 -0.0043355785 0.11043022 0.029873274 0.034938216 -0.08376719 0.17878498 0.08786957 0.0237415 -0.00054798985
-0.05497858 0.39930758 0.20565312 0.2376308 0.22896424 -0.07759197 0.0016163551 -0.04213726 -0.036683336 -0.036931936 -0.16830273 0.10855323 0.06636122 0.0085966755 -0.0047904956 -0.01800464 -0.07321855 -0.020890862
0.25167534 0.28026357 0.10057839 0.058379952 0.006362256 -0.07541324 -0.20909902 0.00924482 0.025200734 -0.014089392 -0.018326964 0.031115564 -0.0743794 0.0054520983 -0.14874467 -0.021622425 0.004922428 -0.052549
-0.09641038 -0.6800519 -0.24051762 -0.006482246 -0.020954026 -0.0425378 0.3926201 -0.2132598 -0.08540471 0.056354113 0.017382955 -0.013403687 0.009829575 0.013000812 -0.06655094 0.0085793575 -0.012901347 0.08010998
-0.18475996 0.18467411 -0.032851327 -0.010043335 0.016467428 0.011752952 -0.6746987 -0.0147637725 0.0041127675 0.017039742 -0.037341654 0.03115842 -0.031797618 0.062082868 0.02380757 -0.03535394 -0.0005638129 0.028377848
0.0453016 0.0028163977 0.15144919 0.105240345 0.017409336 0.06213001 -0.053425856 0.07202045 0.041926794 -0.05980135 0.004447686 0.13856883 0.006598429 0.08276743 0.054043062 -0.026297484 0.00092097715 -0.0020930013
-0.5620137 -0.026492143 -0.22512744 0.105295174 0.0037724685 0.015741 -0.10055414 0.029461397 0.026951661 0.025935385 -0.0072745276 0.017757075 -0.005958457 0.046362236 0.04214497 -0.034292676 -0.020806255 -0.0248244
0.077099845 0.07332454 0.000100106394 -0.006519504 0.019779066 0.016439468 0.002018739 -0.010832213 -0.0013533714 -0.0044271015 -0.0023027398 -0.0025107227 0.012618102 0.0049611977 0.023008551 -0.04774658 -0.0042162924 -0.040038824
-0.035768066 0.054123312 -0.3306482 0.1611335 -0.14724068 -0.030064665 0.005417873 0.121850945 -0.037030626 0.03539421 -0.123359 0.33914298 -0.021713823 -0.1559084 0.046211928 0.098482914 0.051002823 -0.013184995
0.32727203 -0.2861939 0.7173484 -0.1445479 0.06273945 0.052127138 0.0665359 -0.06879268 -0.0075974236 0.035513356 0.11875103 0.16626476 0.051508598 -0.032737497 0.12252542 -0.0040519075 0.027467621 0.02992947
-0.1867756 0.02698127 -0.30177876 0.13573462 0.04409235 -0.043422624 0.032881454 -0.13973765 0.11146236 -0.13301496 -0.033037115 -0.019849285 -0.011695752 -0.11311392 0.042211134 0.054127734 0.008933395 -0.021150364
-0.32912293 0.0827675 0.14212047 0.049196966 -0.0014871852 0.045893647 -0.6314764 0.069250286 -0.020306472 -0.07346343 0.009008651 -0.022411846 -0.009444135 -0.012504243 0.09973887 0.0065650386 -0.010638427 -0.051436592
0.045771264 -0.59249204 0.0053846315 -0.0011700363 0.01762636 -0.0006595648 -0.013822614 0.07782666 -0.015301666 0.019156 0.0016837065 0.005907453 -0.009548225 0.006799053 -0.0036332696 -0.03586414 0.0012419355 0.0040336745
-0.32121795 -0.12604445 -0.055547457 -0.00073233206 -0.009438646 -0.018789325 -0.01011008 -0.10809475 0.038684905 0.023854464 0.010547941 -0.02381501 0.014940292 0.01023292 -0.040296737 0.008400131 -0.0046793707 0.015463858
0.08216713 -0.18053511 0.0029432613 0.0075287167 -0.026811307 -0.0031988586 0.01791078 -0.020348633 -0.0012560902 -0.0027475285 0.01054717 -0.014212787 -0.0052761696 -0.0060682846 0.0019950282 0.050295472 -0.0008688264 0.0246725
0.11154687 -0.3742439 -0.1134382 0.023527535 0.020249858 -0.08994946 -0.089111134 -0.0026678145 0.18172896 -0.1141049 0.0032242646 -0.0046842247 -0.004046676 -0.005977579 -0.13444035 0.048617885 0.0028564616 0.21934757
0.15562545 -0.045637976 0.11909509 -0.00071968965 -0.0074736844 -0.0117156645 0.33987013 0.024903959 0.1288531 0.10296487 -0.010190475 -0.026473677 0.027836531 0.026340192 -0.026768273 0.055886824 -0.0070490935 -0.017900048
-0.06448349 -0.05250369 -0.14771064 -0.017893171 0.026645284 -0.024881274 0.07994083 0.014533758 -0.0035079217 -0.013349565 -0.017133106 -0.031355977 0.039579913 -0.009782589 -0.0198289 -0.056549937 -0.003962063 -0.011617868
0.26645383 -0.29518268 0.08019012 -0.189868 -0.037344575 -0.0758486 -0.25705338 -0.025275849 -0.056028187 -0.109039836 -0.06803801 0.056842145 -0.052131783 0.03709116 -0.10159966 0.12837936 -0.014296197 -0.009858165
0.18249387 -0.0050259335 0.11303421 -0.06493733 0.0111088 0.034855146 -0.11673829 0.011440496 0.0025477426 -0.033230197 0.030276578 -0.004924862 -0.059178155 0.014570955 0.045337632 -0.043594226 0.0014971248 -0.007893906
-0.35578525 -0.106269725 0.02794413 0.011253382 0.004538699 -0.04670047 0.016890746 0.005062649 -0.0155014545 0.008087584 0.0043005203 -0.0066179135 -0.0012991348 0.003364875 -0.10153772 -0.010170651 -0.0031596643 0.0069318297
0.016583739 0.18274054 -0.080391385 0.015331974 -0.011093416 0.035112485 -0.12175531 0.0028064211 0.111662604 -0.07491398 0.018173033 -0.018462978 0.005257548 -0.018484166 0.048949078 0.011985752 -0.0053346925 -0.012345275
0.39336938 -0.35134834 -0.015367405 0.0047215875 0.02044937 0.0034700795 -0.20614049 -0.0007059641 -0.010760594 -0.0796124 0.021380266 -0.030831683 0.020150863 -0.014362434 0.014960792 -0.0006318053 0.005558192 0.0037825645
-0.43865955 -0.4521219 0.38490522 0.056444336 -0.051226765 0.008339408 -0.07626705 0.026698522 -0.019162007 0.12622906 0.0157697 0.014015234 -0.021316506 -0.0048976867 0.007708846 0.13724504 -0.0077443323 0.0342818
-0.6615846 0.5458109 0.2266944 -0.010208811 -0.035947487 0.029953556 -0.16078019 -0.11009444 -0.017759252 0.0038084 -0.01861106 0.0037327732 0.018640246 -0.028752608 0.019657493 0.061269492 0.017169723 -0.0042647826
0.11835956 0.11529981 -0.008938918 -0.18796621 0.04837607 -0.039549623 0.056010444 0.0014529468 0.008621371 0.086032696 -0.006656497 -0.012429783 -0.15117867 0.12298618 0.013306186 0.042528525 -0.06978762 -0.025436098
-0.27670473 0.026764391 -0.00053902203 0.009955102 -0.025060905 0.032467928 0.14325257 0.081528805 -0.016351875 0.07536955 -0.010499786 -0.0068561044 0.0011879036 -0.0014539716 0.09521805 0.031143812 0.0056994483 -0.004428586
0.41123712 0.6421054 0.3756537 -0.009047994 0.005753374 0.046773534 0.0730764 -0.024741106 0.014480072 0.033035018 0.007099841 0.054840136 -0.048188947 0.028516913 0.027702283 0.005312564 0.0032363215 0.013196125
-0.053682383 -0.193812 0.4187545 0.05148418 0.021546831 0.015522257 0.2700085 0.029341906 0.043043334 -0.07778853 -0.054042146 -0.012786288 0.061214224 -0.010428862 -0.008477426 -0.044001993 0.005159913 -0.018822465
-0.3010795 0.22076055 0.043952584 0.008676561 -0.04641314 0.005736406 0.08216714 -0.028343122 -0.025925584 -0.027230723 0.027842931 -0.0021735027 -0.0067465594 -0.0048717395 0.008066024 0.07284165 -0.00028233274 0.085646264
-0.30169895 -0.071461745 -0.10308323 -0.0032658211 -0.021772888 -0.004887277 -0.3100379 0.039077822 0.030584464 -0.023467012 0.01371152 -0.01632677 -0.0004265376 -0.007613684 0.009205747 0.033784866 -0.003097391 -0.092039615
-0.030651927 0.25475055 -0.18335742 0.049321804 -0.032216415 0.031516794 0.053198922 0.014329184 0.014286121 0.016400559 0.060631234 -0.10822788 -0.07981447 -0.12902032 0.13056903 -0.035743356 0.007734182 0.02348594
0.19504288 -0.033053145 -0.09841267 -0.0011881348 -0.006814647 0.018805629 0.18899687 0.032628775 -0.02730732 0.022643741 0.019417027 0.014830382 -0.012561887 -0.00077325123 0.048227057 0.026543738 -0.006623904 -0.028780982
-0.044581313 -0.37016866 0.06758288 0.014571901 0.021732543 -0.026269436 0.3201354 0.041379474 0.0008726997 -0.07347326 0.007724983 -0.023976775 -0.010448703 -0.011004087 -0.0456696 -0.01591864 -0.0024768065 0.02962952
0.5085716 0.0935204 0.02208927 0.0086717615 0.004691307 0.0006394694 -0.044540472 0.03308263 -0.007447794 -0.08723996 0.003668886 -0.015267313 0.018292114 0.012312069 0.014803121 -0.010614227 0.00091640995 0.009103293
-0.26324388 0.2679631 0.1657696 0.012084776 0.0002550588 0.025747977 0.06581223 0.0151128 0.013470733 0.028540596 -0.0013850774 -0.009002868 0.0064003123 -0.0033191117 0.045225002 -0.019711409 0.0043908935 0.01199788
-0.056977354 0.2580999 0.45486826 -0.22454968 -0.097365595 0.0538602 0.034248926 -0.05887873 0.032991406 0.11839123 0.045669563 0.01911002 -0.017109735 -0.05315705 -0.06017373 0.004662756 -0.042916033 0.005843394
0.07031 0.16782644 0.04914309 0.032480165 -0.061223898 -0.1217942 -0.10410821 -0.085617885 -0.06828076 -0.17189778 -0.1606965 -0.057717282 0.11424938 -0.024127401 -0.016919345 0.049014963 0.0141698895 -0.015612975
-0.23496884 0.006877965 -0.25441176 -0.06596655 0.11200152 0.083265826 -0.20318682 -0.028295677 0.013555095 -0.10507798 0.21028991 -0.061423294 -0.053467397 -0.15110296 -0.07193131 0.0022601301 0.05916595 -0.00090348447
0.17412327 0.21559021 1.0170994 -0.13563845 -0.023428777 0.072834656 0.07824638 -0.024088705 0.001716971 0.0723709 0.04588887 -0.013758881 -0.10374426 -0.063837826 -0.06107752 -0.012499331 0.035081323 -0.09234855
0.09725298 0.19424023 0.27583438 -0.020602746 -0.012871649 -0.03854434 -0.27728137 -0.040377308 0.041080277 0.018828012 -0.007042857 0.02258096 -0.016223712 0.018580856 -0.08052559 0.038740158 0.014890932 0.019891499
0.09849538 -0.020946266 0.01348968 0.030588625 0.02532545 -0.12760036 -0.02065382 0.1257937 -0.010776589 0.10463443 -0.022176849 -0.03620226 -0.026902018 0.059051413 -0.21656583 -0.004618592 -0.0018775346 -0.28953898
-0.37600502 0.5560063 -0.39869645 -0.03991649 -0.03763373 -0.0012192378 0.02570391 -0.043190088 -0.025651656 -0.083819926 -0.030479359 -0.007934115 0.00081315386 0.010913717 0.036976553 0.07331701 -0.029216472 -0.08592069
0.002520894 0.009940811 -0.07148097 -0.053842347 -0.023819081 0.015447268 0.02556207 -0.13827181 -0.040763598 0.018723587 -0.096502684 0.022820532 0.025589932 0.016063482 0.021490492 0.039561495 -0.009290612 0.033988506
-0.34570888 -0.10709849 0.4738309 -0.11448785 -0.05090565 -0.04269379 0.07465264 0.026772361 -0.042167764 -0.15791023 -0.0050847577 0.09691234 0.0044024503 0.03804504 -0.048693575 0.05868245 -0.0005546724 0.033003047
0.12339514 -0.6865724 0.1635664 -0.05249113 0.016531881 -0.015359046 0.19768097 -0.0010530932 0.0025386438 0.04501814 0.010440931 0.002220422 0.021191696 -0.05932168 0.010722244 0.0032691197 -0.0027314478 0.006719551
-0.14171916 -0.09429011 0.049596604 -0.055606678 -0.1379202 0.14793253 -0.123057455 0.036386937 -0.07542465 0.14130646 0.044905115 -0.05403035 0.11809178 -0.052004304 0.04272329 0.03724986 0.102352396 0.031781267
-0.19072688 -0.888504 0.34757408 0.019736756 0.006191429 0.0100157205 0.22728077 -0.026221376 -0.016394032 0.024882846 -0.003442438 0.051215265 -0.0076470654 0.0260523 0.026107911 -0.010136253 -0.004155615 -0.010067666
-0.073924065 0.028027022 -0.18673106 -0.050452568 0.02153713 0.06363087 0.046639755 -0.025578616 0.013363428 -0.046266552 -0.04754301 0.027586233 0.013923477 -0.008897827 0.036172677 0.06447332 0.019940987 0.007375166
0.1489514 -0.22187324 -0.28082216 0.12595633 -0.06534615 0.021109128 -0.048264485 0.016190566 0.0027460908 -0.035869364 0.07295775 -0.053501554 0.010345356 -0.081640765 0.004189004 0.04590798 0.012515459 0.016934883
0.040149603 0.37508622 0.17427245 0.06767032 -0.03692594 0.005477292 -0.2684701 -0.07244937 -0.016549934 -0.037272256 0.024138128 0.01622207 -0.044324107 0.05804137 -0.019644022 0.011512242 0.009607107 0.03248682
-0.32432154 0.19329257 0.057611734 0.09929908 -0.11080882 -0.021314176 -0.17423096 0.0024710798 0.03416401 -0.09914104 -0.004854297 -0.12438444 0.018405633 0.22267537 0.04394306 0.047245134 -0.028578794 -0.014391256
-0.22634242 -0.14637847 -0.15100414 0.11980637 0.10517961 0.15136252 0.011275192 -0.040195737 -0.06204583 0.059397925 -0.03678589 0.076616436 0.028895276 0.08415734 -0.0037433577 0.03756027 0.06520608 0.01598717
0.056982744 0.20780317 -0.016794635 0.0019822433 -0.003643115 -0.00053522317 -0.05618833 0.01590553 0.0133771 0.117293485 0.015753094 -0.000805844 -0.016675686 0.0082172705 -0.008174332 0.017346803 0.0017622506 0.12058445
-0.6710848 -0.31898168 -0.05860341 0.027971901 0.015331211 0.028634794 0.22475758 -0.14388642 0.038251773 -0.00036476675 0.024503894 0.0055279704 -0.007857802 -0.022828741 -0.051015776 -0.13222437 -0.0005978984 0.04929087
-0.60774237 0.26489875 -0.15418929 0.0037581315 0.019863954 0.036408715 0.28742823 -0.08089816 -0.16883719 0.024993358 -0.0099039655 -0.029759139 0.025027182 0.0040703034 0.08797994 -0.086021096 -0.0074911867 0.06792718
-0.23742612 -0.26035428 -0.25599906 -0.012871246 0.0023396611 -0.044224765 0.79485935 0.01878304 -0.021314997 -0.020351715 -0.018517444 0.026533268 0.003259828 0.025775518 -0.021632822 -0.022766724 -0.0059610587 -0.035013147
-0.058327522 -0.28271315 0.1354248 0.05600677 -0.17234449 0.032430023 0.08101349 -0.050812628 -0.014807677 0.007002217 0.1578494 0.08368869 -0.14996836 -0.08304217 -0.0022479193 -0.06601219 0.024729477 0.01777295
-0.022159757 -0.011728023 0.19605953 0.15928595 -0.10772507 0.12739487 0.12314967 0.04018741 0.03672302 0.035933297 -0.05812208 -0.01873488 -0.046665937 0.035304304 -0.014532057 0.00399794 -0.16791499 0.086974055
0.22862236 -0.77809125 0.40689912 0.02194524 -0.014765777 0.021630244 -0.014168431 0.051969726 0.019660756 0.051589668 -0.04777752 0.024975186 -0.062181793 0.04032601 0.024850648 -0.08105674 -0.0023516365 -0.0017321229
0.14736824 -0.6251818 0.14036502 -0.0026840377 0.040271763 -0.031012362 0.12119269 -0.008468133 0.024069564 -0.07069232 -0.0047569945 -0.0051414054 0.005634327 0.017611604 -0.057434425 -0.048231304 0.0020858566 0.00396467
-0.34262565 -0.101410516 0.09837203 0.033573024 0.03277035 0.010642826 -0.13547675 -0.039579272 -0.04289824 -0.10069532 -0.029030181 -0.015914055 -0.039012972 -0.026633807 -0.04282663 -0.01777054 0.02758992 0.20213452
0.13517556 0.69978386 -0.027727311 -0.0110128885 0.03179579 -0.029042399 -0.019082615 0.016967403 0.058176614 0.05088359 -0.004767572 -0.0015286321 0.0041022124 -0.004523415 -0.09666903 -0.06368458 0.0023385643 0.06610528
-0.24846852 0.21412636 -0.1842477 0.017701514 0.031441208 -0.04467804 -0.37370643 0.00089428225 -0.020908905 0.028968347 -0.013202806 0.030845422 -0.022812836 0.069668286 -0.11633454 -0.013624613 -0.01581312 -0.006792186
-0.4979124 -1.0252043 -0.12200888 -0.122005984 0.012701296 -0.044549584 0.14974193 -0.18514587 0.017889468 -0.24001676 -0.04861287 0.009336659 -0.045428608 -0.14382513 -0.08365793 0.051976465 0.0022913406 -0.0036743286
-0.6606056 0.14262395 -0.3657601 -0.021897817 -0.0035802126 0.053727236 0.02553906 -0.07278712 0.040364906 -0.0910892 -0.008147945 0.04750244 0.01629384 -0.037803717 0.0833195 -0.06938745 -0.025114194 -0.0013051606
-0.249971 0.11863246 -0.4534924 -0.0048927544 -0.045112748 -0.0072524752 0.23582992 -0.05177386 0.0023518973 0.042108923 -0.049460035 0.03770135 -0.0045597027 -0.0010348524 0.004277567 0.020139543 -0.018381605 -0.021885201
-0.26653183 0.089221045 -0.062233932 -0.12727238 0.051775604 0.13858578 -0.06596303 0.100976564 0.05753108 -0.054666094 -0.0022817557 0.08477174 -0.02657006 0.053612784 -0.037064426 -0.034420744 0.029823663 -0.009049882
-0.022926785 -0.09921721 0.22738698 0.019556241 -0.026377898 -0.0066004093 -0.26858214 -0.02986289 -0.015434139 0.03955828 0.015162393 -0.02944713 0.0011726462 0.0063524595 0.00064839015 0.032851357 0.0108578885 0.03197615
0.011936407 -0.35636032 0.6392673 -0.035100207 0.0039230166 -0.024260616 0.121515416 -0.042271864 0.0048442692 -0.04165609 -0.055093072 0.041722395 -0.025506971 0.023980571 -0.044534888 0.036451567 0.010017524 -0.0048898016
0.1508147 -0.35290077 0.016699262 -0.0020911787 0.0073626274 -0.0065178024 0.038535435 -0.004371347 0.003828124 -0.030873861 0.0053174174 -0.0023747033 -0.0009909689 0.003159076 -0.011812686 -0.010444386 0.003500384 0.016187744
-0.0075136954 -0.4596708 -0.24327391 -0.042612925 0.09661795 -0.15954243 0.29895398 0.024389833 0.008222187 0.071501225 -0.13680077 -0.09177438 -0.045730457 -0.07266992 -0.041797087 0.0042059245 -0.11592367 0.030611154
-0.1882783 -0.22679104 0.08259191 -0.014634612 -0.03621757 -0.04645237 0.0360624 0.13535106 -0.06517554 0.092546016 0.009957321 -0.017414557 0.017253382 -0.024247527 -0.054546867 0.08274381 -0.00072443654 -0.001065059
-0.21924016 -0.10437421 -0.14856598 -0.052060205 0.03726823 0.022389669 -0.0053137806 -0.029066931 -0.09544366 -0.025554609 -0.03393092 0.046725877 -0.0015453709 0.014177949 0.0363097 -0.015362862 -0.014743406 -0.036028966
-0.292127 -0.24261221 -0.10382616 -0.0070222346 0.007341712 0.0036170827 -1.3007156 0.10848434 -0.007018659 -0.025130812 0.0241924 -0.0100243725 -0.0472535 0.04573959 0.023670219 -0.03778578 0.0067535983 0.05980979
-0.3282032 -0.6264656 0.35637558 0.042552087 -0.05100246 -0.0075899544 -0.039064735 -0.016412642 -0.08733145 -0.039153177 -0.032892935 -0.017382028 -0.05432357 0.027790949 0.07877509 0.011423361 0.011766908 -0.06812032
-0.3132034 0.0037329127 -0.039549164 0.0084247105 0.012964034 -0.007001676 0.0246437 -0.07747134 -0.06794091 0.0045236396 0.015670398 -0.019830639 0.0005223744 -0.0016374644 -0.029117854 -0.056647442 -0.0013362534 -0.0021934847
0.20293681 -0.15043345 0.009464059 0.0047178306 -0.026409877 -0.016537517 0.07134227 0.07233565 -0.047208358 0.030794613 -0.008770962 -0.002293103 0.0036518325 0.0074896133 -0.0049488298 0.05306347 -0.0017527664 -0.00032521738
0.023011032 -0.04007552 -0.73432535 0.18487634 0.043436486 0.028999746 0.04958989 -0.013806075 0.04005559 -0.022293737 -0.026803896 -0.06193434 0.05762737 -0.15455519 -0.09326745 -0.056649175 -0.008215719 0.005495141
0.20494208 0.2679769 0.08911066 0.2055272 0.07757235 0.0030231911 0.31419146 0.023596695 -0.09777355 0.083874084 -0.172252 0.13397576 -0.11012391 -0.0008863544 0.0057203835 -0.029559383 -0.007226901 0.027657233
0.3316054 -0.05109331 0.32468238 -0.020560201 0.00090078905 -0.035190582 -0.13586304 -0.049777962 -0.0070047243 0.09695637 -0.04247536 0.009167012 -0.004366379 0.025468977 -0.09408289 -0.015063302 0.027151793 0.042136554
0.26867157 0.51460284 0.20036426 0.02592942 0.020350512 0.0021612304 0.02850903 -0.012397178 -0.0020993033 0.0061798664 0.0417095 -0.009186523 0.010973518 -0.027351059 -0.01456625 0.052489765 0.006690107 0.0007361715
0.006220202 0.105878964 0.17722222 0.031318594 0.050424393 0.045600932 -0.22969772 -0.01979926 0.0426201 -0.028409706 0.0570878 -0.05198825 0.015815072 0.010618817 0.0717585 -0.12300853 -0.0026290002 -0.0049537173
-0.027593123 0.52313524 0.040188737 -0.0046699974 0.027542321 -0.012075414 0.07889469 -0.00441697 0.030073399 -0.026814044 -0.018312426 0.0019152394 -0.012847896 0.016499687 -0.025529861 -0.05687074 0.00022990738 0.035067435
0.0012933554 -0.7566967 0.6249302 -0.11108773 0.0120362425 -0.024379864 0.048671048 -0.04606323 0.0123566445 -0.06480495 0.042962335 0.029142283 -0.02612306 0.052470047 0.013333053 -0.05035637 0.009597059 0.01686195
0.43156657 0.70206565 -0.14224651 -0.10349507 0.035286583 -0.011661809 -0.11605704 0.028858019 -0.0075403373 0.014170611 -0.09838466 0.06763349 -0.036915183 0.037148643 -0.019809267 -0.01345431 0.01083282 -0.005975484
0.18668114 0.363528 -0.048017967 0.0017897807 0.0033648661 0.0071901344 -0.022106852 0.047229975 -0.03457537 0.0037511818 -0.0031287158 0.022224743 0.000622812 -0.0016319032 0.027790673 -0.007694871 -0.005369178 -0.00028160386
0.3681916 -0.18171489 -0.0181718 -0.002818616 0.050425764 -0.0001377202 -0.5012651 0.05124871 0.085189 -0.12532586 -0.02440723 -0.007570305 0.021789199 0.008024297 -0.035513602 -0.08879725 -0.010918732 0.019350514
0.16974947 0.3728553 0.7621663 0.0009897092 0.00812005 -0.012062656 -0.0315757 0.115952425 0.074983604 -0.04948263 0.0234226 0.039185707 -0.009340801 -0.0019216287 -0.07471406 -0.004802806 0.0049645533 -0.052055143
0.006578374 0.27491024 0.21851435 0.015719496 0.05070311 0.006530267 -0.007954023 -0.07776634 0.039179232 -0.12523293 0.11530575 -0.0693318 0.01786031 0.103076145 0.020125827 -0.0016861164 0.013434244 -0.047842074
-0.036320537 -0.20573823 -0.46721333 0.17673029 -0.107404836 0.1410716 0.10178729 0.019166738 -0.026430627 0.07475606 -0.07412846 -0.19629565 0.20160483 0.0006969674 0.046906378 0.0037369193 0.07083122 -0.02012866
-0.43460634 -0.14952049 0.00679212 0.011957298 0.0829984 0.010433316 -0.22498047 0.06505196 0.042889096 -0.092549644 -0.013375324 0.01729746 -0.009680238 0.01840503 -0.02196814 -0.17493755 -0.0075772856 0.17438874
0.088566326 0.14755546 -0.0517997 0.020838767 -0.08664952 0.053074397 0.57156193 -0.053090353 0.033085227 -0.081367865 -0.01201661 0.029118273 -0.07472115 0.023594037 0.048029892 0.07292884 0.03482972 0.005180824
-0.25197852 0.49230587 -0.23606136 0.004029531 -0.007356849 0.03991718 0.0052456455 -0.0102228075 -0.0044439947 -0.00061550626 0.0058935788 0.039953142 -0.016668562 0.0066274693 0.02602578 -0.0053796936 -0.016770355 0.011173489
0.15638918 -1.0509537 0.10798859 0.037508756 0.060593892 -0.018169744 -0.010855009 0.017286282 0.01657298 0.007058191 0.03202099 -0.007122266 -0.03007581 -0.028170735 -0.03226116 -0.0045105875 0.017122326 -0.006432953
0.13074821 -0.08648305 -0.19847278 -0.0044408236 0.04482396 -0.0013148352 -0.097412266 0.02420099 0.054411102 -0.106333934 -0.04506755 0.0052893283 -0.0011292232 0.06872001 0.016679732 -0.0927291 0.0043399152 0.0821264
0.31813917 -0.10019966 -0.24712631 0.12776363 0.008938439 0.046208747 0.07818338 -0.020872282 -0.001280433 -0.090878695 0.092202306 0.0034345055 0.037510816 -0.0118975295 -0.017513555 0.046424624 0.025080949 0.0049385186
0.5520588 0.61608773 0.32280028 -0.011893599 -0.013660877 -0.0027880364 -0.035155006 0.0068948413 0.036523942 -0.044740967 -0.0062861345 -0.0064168083 -0.005355164 0.034889955 -0.017655341 -0.0069470475 -0.0014136304 -0.015516832
-0.0017523116 -0.35085997 -0.035274487 -0.09176398 0.049416687 -0.103397354 0.041115988 -0.05401063 0.049052827 -0.2564864 -0.097567655 -0.0445985 0.12204221 -0.031266443 0.012840922 -0.10179258 0.044206485 0.014136679
-0.08590738 0.21123047 -0.15100901 -0.06254646 -0.019530755 -0.0005515549 0.01157343 0.0248805 -0.01080281 -0.1391004 -0.02621494 -0.046540797 0.029498357 -0.004200334 -0.04371166 -0.088869065 0.0028310947 0.028029215
-0.28324398 0.29050326 0.086516015 -0.021894632 0.0066874865 -0.02069047 0.0299803 -0.017649824 -0.0070434646 -0.07763613 0.0020639382 -0.020867769 0.0317143 0.003373534 -0.06409829 -0.0067582396 0.0029228928 -0.033427212
0.14390211 0.099790774 -0.04527024 -0.01275106 -0.008188802 -0.018880134 0.1407421 0.011324145 0.02585252 -0.015232018 0.016505098 0.009081738 -0.017808419 -0.0036147977 -0.052195087 0.014956852 -0.0030794619 -0.0071006943
-0.18605335 -0.15780194 -0.38549426 -0.010086725 -0.039482947 -0.060312532 0.04079816 0.058173593 -0.0035343193 -0.102253094 -0.026602391 0.024696216 -0.020874305 0.045267317 -0.073266834 0.061304085 -0.011360729 -0.037575662
-0.4537297 0.103282794 0.083560295 -0.0052895383 0.008204719 0.025564088 0.20003335 0.09603938 0.15415971 -0.05867215 0.027985072 -0.014587717 -0.03374098 0.03696111 0.07778503 -0.031066695 -0.0019083816 -0.070011094
-0.079293035 -0.0120705925 -0.00752094 -0.0021974307 -0.015631739 0.02304267 -0.075074516 -0.005990588 0.015562725 -0.0025506609 0.004253903 -0.001203891 -0.007492195 -0.0024430978 0.04022993 0.025544351 0.0022585928 -0.0018084351
0.033535704 -0.55852175 0.025111932 0.009365171 -0.019783197 0.022891402 -0.25312296 0.10570943 0.026056256 -0.07793468 0.0067508155 -0.056913517 0.011246009 0.029307568 0.08655386 0.032968976 0.0012721054 -0.0328402
0.48312688 -0.31887352 -0.1831518 -0.010553242 0.017914876 -0.020224469 -0.42112237 -0.025866082 -2.5036321e-05 0.013007172 -0.038871378 0.033226315 -0.028549274 0.001275432 -0.045881603 -0.013291917 0.0034658923 -0.037127182
0.7486796 -0.19488029 -0.1794307 -0.14896561 0.05727565 0.016922072 -0.01710563 0.025414096 -0.0046542664 0.03689466 -0.12935069 -0.0409475 0.045492627 -0.22487551 -0.0014050839 -0.039242823 -0.042296965 -0.0129166115
0.5917222 -0.2041559 -0.12446267 0.1319123 -0.082612276 -0.0182796 -0.00266739 -0.12874946 -0.071626104 -0.2722297 -0.04458598 -0.011039854 0.09014249 0.06568671 0.024517909 0.18388182 -0.03867748 -0.005598475
-0.28602567 0.10460257 -0.5923636 0.0044669034 -0.055205327 -0.029789288 -0.1538236 0.038189407 -0.015152999 0.0018637925 -0.0062707216 0.0056515867 0.0060864883 0.02853286 0.018387565 0.090195194 -0.0201081 0.001962958
-0.7909924 0.09025821 0.34337428 -0.076117106 0.054188322 -0.016261505 -0.10662147 0.08107613 0.018964177 -0.1373157 0.009636913 -0.12867945 -0.013414838 0.037594553 0.036995996 -0.07018929 0.007399059 -0.03918818
0.17704286 -0.26956823 0.3088324 0.11600128 -0.0003523974 0.026379898 -0.28780398 0.08694387 0.001041204 -0.08772251 -0.06357062 -0.021293176 -0.14534889 0.007678854 -0.013337907 0.010743779 0.02413566 -0.03388671
-0.49200693 -0.6670485 0.71930385 -0.034409646 -0.005090159 0.0104785375 0.018319013 0.007933796 0.00644603 0.027288884 0.014233887 0.0040752715 0.0011095412 0.012992864 0.01835829 0.02671449 0.010459825 -0.10863595
-0.29053536 -0.18594128 -0.052555285 0.013338275 -0.019779867 -0.026135823 -0.529326 -0.052855756 0.01985088 0.014396196 0.015279421 -0.034206033 -0.0040728184 0.023409009 -0.040020473 0.029104192 -0.006150273 -0.07646961
-0.042150036 0.039309315 0.116034515 0.009944093 0.07522825 0.046957754 -0.6313644 0.13985477 0.1593808 0.11290475 -0.002960456 -0.0028210066 0.008261211 -0.0374891 0.1013644 -0.11023367 0.0032445136 -0.11134926
-0.2768497 -0.57993454 -0.4235138 -0.017665071 -0.009908183 0.008591351 0.07844402 0.0427194 -0.08637413 0.04877273 -0.02087284 0.048025213 -0.03481262 0.03526629 0.036938347 -0.018023971 -0.0056511085 -0.021564579
0.36652637 0.6298557 -0.18323594 0.2924601 -0.018323012 -0.08271803 0.017490843 0.02312138 -0.024020215 0.10452238 -0.08132955 0.07516472 -0.07299682 0.07066829 0.05611126 0.06782919 0.021311644 0.020168433
-0.06719352 -0.60160166 -0.31287977 -0.13438295 0.062134795 -0.11206491 -0.14755508 -0.06340688 -0.049976762 -0.0625772 0.0061305654 -0.031830467 0.02796261 -0.091591395 -0.05227689 -0.09598112 0.04333479 0.011313364
-0.12405087 -0.03876753 -0.11242522 -0.04533772 0.13462736 0.111782074 -0.08391255 -0.004032804 0.014711843 0.017442733 -0.15651274 -0.13158894 0.18648514 0.22516099 -0.005656803 0.02049413 -0.047156673 -0.022217032
0.14496012 0.24297176 -0.048275158 -0.009209808 0.0035491204 -0.01950361 0.17018029 0.054549035 -0.100777894 0.10371325 -0.0044939555 0.02003928 0.009318824 -0.038426377 -0.06982612 0.05150002 -9.217876e-05 -0.0010084291
-0.099403396 -0.14917031 -0.10304991 -0.025155928 0.006652792 0.003740398 -0.57856697 -0.06996714 0.014249721 0.032004684 -0.017458405 0.04686645 -0.04671069 0.017909823 -0.00080812786 -0.0058611333 -0.002569921 -0.011998032
-0.16710974 0.23252478 0.03247523 0.00765563 -0.03711599 -0.04495537 0.0070314053 0.019237328 -0.015590694 0.0074682045 0.01735754 -0.024996826 0.0013248645 0.0043745 -0.09125263 0.07834534 -0.0018122632 -0.030178133
0.038302395 -0.091574915 0.6536626 0.04114626 0.065416895 0.018335836 -0.021787181 0.00945391 -0.002423519 0.093947664 -0.042014237 0.040572956 0.017859869 -0.021675274 0.060076576 -0.03588276 0.00553144 0.004680692
0.67365646 -0.20152488 0.000929472 0.16609932 0.061584316 -0.019077234 -0.25031906 0.03224051 0.007870062 0.05250593 -0.031796582 -0.015017342 -0.042765662 -0.028362148 -0.060225792 -0.0494163 0.010488402 -0.02045689
0.28627625 0.07945387 -0.014168428 -0.00077022385 -0.06404395 0.024636352 -0.09861709 -0.061096773 0.085777245 0.091908835 0.033075623 -0.021277484 0.00012638528 0.007278811 0.038291913 0.10845189 0.0073217857 0.1543489
-0.10437013 0.30343252 -0.4557971 0.011573204 0.028059803 -0.023104528 0.10768706 0.032282773 -0.04424892 0.014252392 0.02358123 0.05036896 -0.050042156 0.039574135 -0.008634417 -0.051590305 -0.012603142 -0.012350294
0.5697426 0.25940928 -0.21486841 0.03925984 -0.005114299 0.114610106 -0.28298876 -0.021979485 0.018700967 -0.013873214 -0.011452557 0.026246453 -0.01819288 -0.02278049 0.14887638 -0.05507489 0.011681768 0.029875861
0.36505562 0.24544011 -0.096442185 0.002863757 0.018624423 0.03667074 -0.033000957 0.0017257819 0.034596775 0.040394686 0.004692051 0.0072951885 -0.013484824 -0.02690989 0.0671958 -0.029743928 -0.002898569 0.030178178
0.035395388 0.3196204 0.8365944 -0.050205264 -0.0016409138 0.0051427134 -0.13817993 0.051399123 0.05897309 0.010424792 0.02173424 0.0006815151 -0.014524514 -0.02490561 -0.04449398 -0.006920942 0.0064904476 -0.07468637
-0.25061294 -0.029089779 -0.12998383 -0.011721435 -0.0034852729 -0.051463213 -0.078687556 -0.055794965 0.042698056 0.27287284 -0.007660486 -0.0045781746 0.029011302 -0.044041283 -0.088304855 0.022234695 -0.00095887674 -0.36446735
-0.83818316 -0.21883674 -0.29318905 -0.014598591 -0.0014057539 0.027996067 -0.02320423 -0.042338274 -0.01371668 -0.0034217497 -0.009719314 0.011109259 0.025562642 -0.04260774 0.036875177 -0.04531776 -0.007595109 -0.10375453
0.058187913 -0.282378 -0.22317946 0.1586489 -0.11714707 -0.17395845 -0.011337694 -0.017084539 0.020948011 -0.065208815 0.07098796 0.008879708 0.0061718193 0.15421125 0.0339875 0.021672353 0.098931625 0.026063621
-0.041851815 -0.22533272 -0.040703863 -0.048647616 0.06900407 0.14726913 0.00544528 -0.034172393 0.058146458 -0.14484578 -0.07507613 0.12233218 0.08076939 -0.05615087 -0.0039220024 0.051231418 -0.024458481 0.026530188
-0.22419839 -0.2981583 -0.12160087 -0.16790773 -0.16090219 0.14494279 0.06245981 -0.032180347 0.052719284 -0.028305124 0.048182413 0.0043855873 -0.054908305 -0.010330981 -0.009686604 -0.035701055 -0.0095999325 -0.015816446
0.49144286 0.03254117 0.11766786 -0.08465704 0.00045546363 0.040508244 -0.10393155 -0.003682728 -0.014956759 0.028794352 0.05251565 -0.010415904 0.047035962 0.010192551 0.031521164 -0.0073118187 0.0020494238 -0.051668778
-0.0056343917 -0.42102608 -0.013179208 0.13511913 0.09835509 -0.0460045 0.1619474 -0.06903706 0.008156722 0.1200304 0.073717095 -0.23519334 0.034936436 0.14443794 0.009557055 -0.104176134 0.050591834 0.0376983
-0.23967357 0.31673667 0.52766573 -0.011982828 0.010111079 0.039710034 0.0340456 -0.008842989 -0.010382877 -0.007957265 -0.0023703796 -0.014796895 0.017831327 -0.005539755 0.05696247 -0.06085084 0.012706616 -0.07883749
-0.016752603 -0.1430801 -0.6142916 -0.028511928 -0.022916753 -0.016065646 -0.1506293 0.01798105 -0.038745653 -0.011844552 0.0039766105 -0.0017999575 -0.013771825 0.021304285 -0.0021933059 0.01650701 -0.0018165773 0.020857498
-0.3937956 0.63752854 0.7048832 0.03186826 0.015758224 0.0716431 -0.06932555 -0.15281855 -0.033352662 -0.050616957 -0.017481694 0.030335288 -0.046380755 -0.0026715677 0.0940468 -0.009987836 0.0059035285 -0.01243094
0.046149295 0.049555693 0.16746299 0.012793698 0.008264975 -0.0029212113 -0.11369765 -0.1327803 -0.08976399 -0.037520904 -0.0011243122 -0.015681004 -0.0017326939 0.004737489 -0.040560845 -0.015657395 0.009642096 -0.04440114
-0.10020024 0.4726273 -0.33257997 -0.028186785 -0.040651456 0.005219359 0.10173881 -0.0060323356 0.027244797 0.07873718 -0.014763078 0.0039749565 -0.053484976 0.034938592 0.036051616 0.0668451 -0.0061793383 0.09300031
-0.30759603 -0.015188429 -0.056342896 -0.13801004 -0.13102762 0.12768833 0.08168304 -0.032217834 0.050555374 -0.02743097 -0.023700738 -0.053213015 0.17763263 -0.093729556 0.018099122 -0.029414605 0.08820443 -0.017703535
0.21030663 0.07054063 -0.106939584 0.007893614 0.074133806 0.03733001 0.2979746 0.002911259 0.043037646 0.02493992 0.011910977 -0.026302097 -0.013574229 -0.042186514 0.036847126 -0.1397229 0.0065244595 0.023706669
0.40615264 -0.43619445 0.11086524 0.026351668 -0.0065138135 -0.012549753 0.0034006715 0.041867923 -0.006854975 0.0048496933 0.03298463 -0.06435534 0.025932413 -0.0015662396 -0.056209575 0.0008163898 0.00046238114 -0.10613562
0.18218647 -0.5659371 0.039553523 -0.0042836233 -0.052672137 0.023362456 -0.11997738 -0.050654467 -0.01580048 0.06544745 -0.006774618 0.013324529 -0.0053329854 -0.0037371698 0.059892334 0.106807 -0.0064756526 -0.027520474
-0.44137162 -0.4505344 0.053934384 -0.0052141203 0.011625892 -0.04011313 0.6001354 0.049797203 0.018005863 -0.0008192968 0.00023475327 -0.0271977 0.0440763 0.010663225 -0.082507215 -0.038120873 0.0068058763 0.068837754
0.5304286 0.32926446 -0.30964133 -0.02500878 0.014351917 -0.043106396 0.06393924 -0.03262968 0.003840052 0.01607113 -0.018370649 0.013423232 0.021013867 -0.017997848 -0.10602882 -0.019280113 -0.0100800125 0.021929162
0.34685758 0.15366508 0.5077475 -0.037865054 0.016082508 0.087117694 0.37885496 0.0073220157 0.011004127 -0.016206972 0.106325366 0.029963901 0.11742198 -0.04216375 0.09664122 -0.028222132 -0.025226481 0.03849956
-0.124434054 0.42812073 0.13104218 0.084314644 0.05962282 -0.052112993 -0.04755059 0.033349007 -0.059003774 0.11693057 0.030104056 -0.07003216 -0.04087877 -0.0951504 -0.116306886 -0.032989327 -0.008417294 -0.01844114
0.03376645 0.10419927 0.007606039 0.0052543953 0.03087232 -0.01394737 -0.010603862 0.0070394934 -0.007918023 0.015353748 0.001659824 0.004225465 0.011439417 0.0037147822 -0.04026957 -0.052938018 -0.002834566 -0.0062912037
0.20792198 0.12810424 -0.13644247 0.019325709 -0.060160935 0.058482617 0.1248249 0.0054108216 0.13969652 0.00247765 -0.03453508 0.038239114 0.035271253 -0.0009648379 0.105269365 0.11330683 0.003729337 0.012231392
-0.488389 -0.23643301 -0.15269908 0.021036068 0.041187733 0.05850385 -0.48546746 0.014135948 0.020711638 0.041902382 0.030199267 -0.014895199 -0.001760939 -0.04676029 0.11057974 -0.03833209 -0.011897525 -0.03560462
-0.3941824 -0.5391355 -0.009243324 -0.0051419525 0.077162094 -0.013264144 -0.31290722 0.031426847 0.024022741 0.15769884 -0.01979596 0.014566465 -0.027164433 0.013418141 -0.04864728 -0.11985125 0.014369882 0.015303278
-0.60449255 -0.42826486 -0.05848943 0.082027845 -0.0050263465 -0.026033564 0.01968525 -0.10408934 -0.059072293 -0.07191348 0.037562795 -0.059840575 0.081058726 0.003690233 -0.0578904 0.074062414 0.038031716 0.056323722
